%YAML:1.0
---
opencv_ml_ann_mlp:
   format: 3
   layer_sizes: [ 75, 50, 1 ]
   activation_function: SIGMOID_SYM
   f_param1: 5.0000000000000000e-01
   f_param2: 1.
   min_val: -9.4999999999999996e-01
   max_val: 9.4999999999999996e-01
   min_val1: -9.7999999999999998e-01
   max_val1: 9.7999999999999998e-01
   training_params:
      train_method: BACKPROP
      dw_scale: 1.0000000000000001e-01
      moment_scale: 1.0000000000000001e-01
      term_criteria:
         epsilon: 1.0000000000000000e-04
         iterations: 10000
   input_scale:
      - 3.3806859934770152e-02
      - -3.3754096875470787e+00
      - 2.8006708104835416e-02
      - -3.2616108031017443e+00
      - 2.6156492928548557e-02
      - -2.1827265074953099e+00
      - 3.3553769363410625e-02
      - -3.3582850239512920e+00
      - 2.8085448736911576e-02
      - -3.2599160326570180e+00
      - 2.6088367896593564e-02
      - -2.2011538558006003e+00
      - 3.2758401144948421e-02
      - -3.3151824420825347e+00
      - 2.7952842458218451e-02
      - -3.2621284592174256e+00
      - 2.5207181160678920e-02
      - -2.1825595603983214e+00
      - 3.2876261713181462e-02
      - -3.3221910594595601e+00
      - 2.8004338619969718e-02
      - -3.2760823200618403e+00
      - 2.5265508553641406e-02
      - -2.1762659157328450e+00
      - 3.3153856458212519e-02
      - -3.3388126228500572e+00
      - 2.8065757637672415e-02
      - -3.2887950750423052e+00
      - 2.5416750393561994e-02
      - -2.1665467960844533e+00
      - 3.3625514869134704e-02
      - -3.3573283722906164e+00
      - 2.8002467552195431e-02
      - -3.2522020186713596e+00
      - 2.6119324763241348e-02
      - -2.1885460875973326e+00
      - 3.3425608728902566e-02
      - -3.3444749167107890e+00
      - 2.8118466405075388e-02
      - -3.2535893063742614e+00
      - 2.6103785840187656e-02
      - -2.2123111516986058e+00
      - 3.2268706156430418e-02
      - -3.2871020819319492e+00
      - 2.7860894791029277e-02
      - -3.2635058270386459e+00
      - 2.4732577323172671e-02
      - -2.1761085646269733e+00
      - 3.2624553816899750e-02
      - -3.3045829600189505e+00
      - 2.7987793653300761e-02
      - -3.2730860823141574e+00
      - 2.5097996936789851e-02
      - -2.1801724456348390e+00
      - 3.3029873185005609e-02
      - -3.3254035695939557e+00
      - 2.8090857458702673e-02
      - -3.2831633947948804e+00
      - 2.5471394005976294e-02
      - -2.1746334397325917e+00
      - 3.3282595546124658e-02
      - -3.3320978761384343e+00
      - 2.7956436608552508e-02
      - -3.2469639853546348e+00
      - 2.5885575653682359e-02
      - -2.1863926028687848e+00
      - 3.2907018540179571e-02
      - -3.3120883759380213e+00
      - 2.7968369486909932e-02
      - -3.2465971122539741e+00
      - 2.5612620738531683e-02
      - -2.2016013436698314e+00
      - 3.0726102768563305e-02
      - -3.2063120012004664e+00
      - 2.7325000787871336e-02
      - -3.2659973423246389e+00
      - 2.3052554677007776e-02
      - -2.1171574619437497e+00
      - 3.2814472960804114e-02
      - -3.2997323400402605e+00
      - 2.8026198775747475e-02
      - -3.2517240641093341e+00
      - 2.5559330638775239e-02
      - -2.1996847896830132e+00
      - 3.3167632981179050e-02
      - -3.3231929384033689e+00
      - 2.8080218522199007e-02
      - -3.2626715597411260e+00
      - 2.5744672069673017e-02
      - -2.1829580280472536e+00
      - 3.3747599462338622e-02
      - -3.3797170476751952e+00
      - 2.7992820308098413e-02
      - -3.2778551474237374e+00
      - 2.5914151782249348e-02
      - -2.1729852241410268e+00
      - 3.3150931333981885e-02
      - -3.3437996183370804e+00
      - 2.7957817341569480e-02
      - -3.2782999116225948e+00
      - 2.5391228386532974e-02
      - -2.1760523066935535e+00
      - 3.2673588553503267e-02
      - -3.3116258537487733e+00
      - 2.7845981239010789e-02
      - -3.2700239207434487e+00
      - 2.4871240284201790e-02
      - -2.1636780459168774e+00
      - 3.3655989554585458e-02
      - -3.3520406615044598e+00
      - 2.8099978869678337e-02
      - -3.2575028104879049e+00
      - 2.6272318128883854e-02
      - -2.2007553878981940e+00
      - 3.3916598485935347e-02
      - -3.3787016754753898e+00
      - 2.8109476896321622e-02
      - -3.2764856340293864e+00
      - 2.6206648980966103e-02
      - -2.1768721307184604e+00
      - 3.4484966412408440e-02
      - -3.4443905428542778e+00
      - 2.8074624512240867e-02
      - -3.3094871369553012e+00
      - 2.6219902812475267e-02
      - -2.1657974884104143e+00
      - 3.3824540781527961e-02
      - -3.3944891338909069e+00
      - 2.7954425364646287e-02
      - -3.2959621322270070e+00
      - 2.5686635814323417e-02
      - -2.1551683353077506e+00
      - 3.3743936911533517e-02
      - -3.3887368788334054e+00
      - 2.8026067625659713e-02
      - -3.2965373219955363e+00
      - 2.5598889767763363e-02
      - -2.1620714090286217e+00
      - 3.4136380567510602e-02
      - -3.3944544857142316e+00
      - 2.8064986556472715e-02
      - -3.2807088946353580e+00
      - 2.6372733987888031e-02
      - -2.1723094489485106e+00
      - 3.4675886417334545e-02
      - -3.4473038083319953e+00
      - 2.8151825242666066e-02
      - -3.3070900951910285e+00
      - 2.6587646894455069e-02
      - -2.1697794612632233e+00
   output_scale:
      - 1.0526315789473684e+00
      - 0.
   inv_output_scale:
      - 9.4999999999999996e-01
      - 0.
   weights:
      -
         - -5.7809110719959671e+00
         - -1.4716274343418423e+00
         - 2.7596826281902032e+00
         - 4.8344379238184121e-01
         - 8.9016991870534412e-02
         - 1.9925615587325409e+00
         - 1.0344727388834025e+00
         - -5.1368918157133903e-01
         - -1.8766843147394293e-02
         - -2.5259733273615181e-01
         - -1.2711705870012854e-01
         - 3.4980272477685065e-01
         - 1.5370961397412392e-01
         - 3.4490744419637104e-01
         - -1.1922022645225281e+00
         - -2.7803558791464134e-01
         - -1.9165629049130237e+00
         - 4.8096568704463154e-02
         - -1.2219402801426422e-01
         - -1.3005537052145819e-01
         - 2.3718565332335175e+00
         - 1.5793079683663100e+00
         - -1.2974948557315638e+00
         - -4.0392146679431112e-01
         - -1.7672415008001652e+00
         - -2.2489394972157828e+00
         - 7.5329936604027192e-01
         - 1.5641421736989869e-01
         - -1.3527404371978473e+00
         - -1.4529450189075208e+00
         - 4.8569145094616972e-01
         - -3.6496800212946867e-01
         - -5.7880606285179004e-01
         - -6.1487021601066305e-01
         - 4.1807567585147482e-01
         - 2.9156463736565690e+00
         - -2.0026617083793008e+00
         - -1.6449671812003810e+00
         - -5.2330660029199527e-01
         - 2.6661833400532148e-01
         - -1.2482560209575858e-01
         - -1.1730022396451372e+00
         - -7.4228911292769970e-02
         - 1.7687815468624088e+00
         - 8.3329439854664633e-01
         - 7.1917201015819054e-01
         - -8.5495882036176071e-02
         - -5.1434122096341683e-01
         - -1.4800311443981617e+00
         - -2.0940333466016897e-01
         - -8.8664169339685071e+00
         - 4.2546508329947876e+00
         - -5.4654054907876053e-02
         - 2.7837234818827370e+00
         - 1.4198009004192900e+00
         - -3.2239980720013411e-01
         - -1.0981935698071633e-02
         - 8.5829998291601384e-01
         - -2.9397160264986216e-01
         - -6.0201609882642437e-01
         - -1.5267869200637674e-01
         - 7.3773562487025379e-01
         - 7.1665473333943952e-01
         - -9.0183878362598580e-01
         - -1.4597544143198500e+00
         - -4.5250840174054890e-01
         - -5.4626117282373454e-01
         - 6.2284254854533583e-01
         - -4.6262244675214781e-01
         - -9.1277048987213716e-01
         - -8.3318109800981055e-01
         - -2.3884630502930499e+00
         - 7.7017764125618804e-01
         - -7.9263579553693664e-01
         - -1.4393164981207280e+00
         - -7.1050768791019070e-01
         - 1.0170951746081902e-01
         - 4.8159908038735350e-01
         - 1.5574359187640538e-01
         - 1.3142329435227602e+00
         - 1.0903186640802140e-01
         - 5.4232042849853568e-01
         - 7.3604661690265347e-02
         - 3.0822013276078652e-01
         - 8.2462718852002315e-01
         - 2.8467651496325703e+00
         - -1.6524806277981430e+00
         - -1.1720535789270765e+00
         - -2.3355783465397444e+00
         - -7.1438636173696279e-01
         - -1.1009699033833835e-01
         - -1.6242686896399672e-01
         - -1.6663985740952796e+00
         - 1.7050486037601293e+00
         - 2.8715889559629013e+00
         - 8.1417896853015759e-01
         - -5.1813028691869871e-02
         - -1.1002495121868718e+00
         - -2.5640260224858618e+00
         - -1.0084355523497688e+00
         - -4.8373757717044956e+00
         - -4.3244835353122141e-01
         - 3.4889897917925528e-01
         - 4.1115204980026954e-01
         - -1.6210454492054542e+00
         - -8.6336241015783077e-01
         - 6.5180580346218753e-01
         - 1.3944191657947560e+00
         - 1.5423209000174656e-01
         - 1.3328746346094908e-01
         - -3.6183487120930230e-01
         - -2.6500818185150332e-01
         - 2.8177909098637741e+00
         - 3.1342302062582034e-01
         - -5.4862035185930924e-01
         - 1.0170612321779919e-02
         - 9.5251300466612754e-01
         - -6.2042342844238407e-01
         - 2.0792668260139298e+00
         - 3.5511131430374177e-01
         - 3.2447273131454826e+00
         - 1.8081835756654321e+00
         - 5.2918227801820461e-01
         - 3.0039308740857140e-01
         - 6.1962774668349285e-01
         - 4.4774342268943751e-01
         - 1.0003306595402559e+00
         - -9.1429657317226506e-02
         - -1.5510462223365862e+00
         - 1.5219930232557874e+00
         - -1.8294539662333190e-01
         - 3.8158671597735713e-02
         - 2.5478144102203704e+00
         - 3.0856791029448877e-01
         - 2.7227723540782994e-01
         - 7.5587271683419532e-01
         - 4.9382448459559231e-01
         - 3.6483763400671715e-01
         - 6.6941276989326814e-01
         - -7.4760696282848937e-01
         - 1.2870991819219429e-01
         - -3.1170877876812192e-01
         - 4.7918623163218405e-01
         - 1.5554933846803127e+00
         - -1.1899908360124147e+00
         - 4.4817513921132873e-01
         - -1.3235348007968009e-01
         - 3.7342544760152474e-01
         - -7.9750841745821022e-01
         - 2.7302979607005288e-02
         - -2.6478368637949430e+00
         - 5.9093659803114373e-02
         - -2.4987360162515182e-01
         - 4.1403851460640482e+00
         - 9.8653496282403041e-01
         - 2.9235480679433851e-01
         - 1.2338807268214785e-01
         - -4.1710966814942640e-01
         - -1.3488278832712683e-01
         - 1.9491928635374710e-02
         - 7.9830232473792867e-02
         - -2.8824328575865854e-01
         - -4.4172770944775075e-01
         - 2.4376365388806218e-01
         - -6.7307390151218371e-01
         - 2.3788919140165155e-01
         - -9.9763473032000782e-01
         - 1.3774948571387105e-02
         - 6.0158458851109786e-01
         - 1.5639298036602797e-02
         - -1.1958089806617536e-01
         - 3.7964638701618308e-01
         - -8.4034139805882327e-02
         - 7.1065167417601008e-02
         - 3.0945265715707362e+00
         - -2.6239990190367584e+00
         - -1.3334880832236617e-01
         - 2.5794222404758405e-01
         - -8.6018121728197683e-01
         - 4.3363963863217690e-02
         - 6.4308472844621600e-01
         - -3.9714977868216561e-01
         - 5.6639872134623959e-01
         - -1.0263487368609829e+00
         - 4.4986694773229874e-01
         - 6.5427003655625227e-01
         - -2.2406354428011328e+00
         - -1.3390790435450828e+00
         - -1.5508523404060801e-01
         - 1.0095018786620902e+00
         - -1.1345794285473502e-02
         - 1.5072776603620780e-01
         - 2.2726552517107157e-01
         - 1.3557584655340298e+00
         - -1.4112900350778883e+00
         - -3.9244932231652764e-03
         - -6.6786278694616930e-01
         - -6.2670749977509055e-01
         - -4.9133757933569788e-01
         - -4.5746495876485982e-01
         - -2.6160660775526536e+00
         - 4.4948625057454663e+00
         - 1.6375623256111909e+00
         - 1.8692676109220916e+00
         - 9.5041763963738657e-01
         - -7.9683742607485486e-01
         - 6.9389428015943999e-01
         - 7.2945750885576155e-01
         - 2.2017845110243343e-02
         - -3.4004467271205041e-01
         - -2.2960793624440637e-01
         - -6.8212219680756714e-01
         - -1.8386736539312043e-01
         - 1.4245867551571236e-04
         - -9.1000239478438094e-01
         - 1.4434917694153385e-01
         - -1.6434666935950659e-01
         - -5.0193654814942285e-02
         - 1.5566166107169513e-01
         - -2.3607395041392823e-01
         - -1.9190515800543830e+00
         - 1.6650989598875083e+00
         - 1.6125439380727227e+00
         - -2.5178201164038810e-01
         - 2.1024551756995322e+00
         - -2.8842539478202327e+00
         - -3.9163221502673318e-01
         - -1.0736007532067342e-01
         - -1.3006701048696181e+00
         - 2.6094698325302396e-01
         - 1.9327615729833941e-01
         - 6.3547317106242396e-01
         - 5.2024202046622725e-01
         - 1.4064505453918297e+00
         - 2.5729965495707280e-01
         - 2.5040076375575784e+00
         - -3.3149507603513277e+00
         - -3.9269444180811208e-01
         - -9.1194499554463326e-01
         - 3.4429221272114763e-01
         - 3.6031968488531747e-02
         - 5.6200254492693469e-01
         - -7.4047168486392767e-01
         - 4.0587099116887604e-01
         - 2.9629526361387654e-01
         - -9.3739053327551031e-02
         - 4.0034446902946286e-01
         - -5.0171982773911672e-01
         - -1.4443659751377045e+00
         - 1.0404091842586389e-02
         - 3.1594122877670158e-03
         - -1.8985485068480101e+00
         - -5.0992935598178468e-01
         - 1.0751695974372449e-01
         - 3.6162015190615315e-01
         - -6.1752377344406062e-01
         - 1.0869122440578878e-01
         - -5.1933368720819617e-01
         - 3.9987149898807151e-01
         - 5.1808667304935963e-01
         - -3.8268521176888221e-01
         - 1.0185798720343302e+00
         - -2.4351391627187696e-01
         - -4.6374645743062465e-01
         - 7.4117170583234998e-02
         - 1.6922971029997202e-01
         - -2.3938583884893876e+00
         - -1.1467883767663714e+00
         - 1.2630977003350794e+00
         - 1.5442923458047395e+00
         - 2.8484521381529210e-01
         - -6.1814656029365300e-01
         - -6.1560646298716187e-02
         - 9.5936708713646193e-02
         - 1.7383682876525175e+00
         - 6.2016786292476389e-01
         - 3.4377342544935132e+00
         - -6.3703667287013044e-01
         - -1.6585861993767932e+00
         - 3.2656625223182772e-02
         - 3.4520324853023981e-01
         - -2.5460210317274773e-01
         - 9.9078882412775504e-01
         - -8.0710728588772818e-01
         - -6.1941102398310866e-01
         - 2.2140282295670929e-01
         - -8.9152607228510494e-01
         - -4.9047496892446685e-01
         - 1.2125025879030942e+00
         - -3.8006580033914655e-01
         - -1.8555708309069793e-01
         - -6.2286982460084783e-01
         - 1.0666838320753214e+00
         - -9.4600124717314771e-02
         - -2.6965476877227501e+00
         - -8.2403189950692846e-01
         - -3.8696259225271390e-01
         - 7.0719294898247909e-01
         - -7.3594020324738074e-01
         - 5.8143904093155185e-01
         - 4.1488366553682510e-01
         - 1.0829141337404435e+00
         - 1.0028069187831128e+00
         - 3.2757870816421817e+00
         - 1.9583359442685229e+00
         - -2.7093686156918584e-01
         - 9.0384308883704390e-01
         - 8.2486550880099263e-01
         - -4.6818023438709860e-01
         - -2.5059945315086740e-01
         - -2.3590101775022181e-02
         - -1.1697920635462833e+00
         - 6.1604198103458929e-01
         - -2.0638279358913589e+00
         - -1.6687797712504790e-01
         - -2.7067363802777931e-02
         - 7.8419907586865212e-01
         - 3.6045093095010278e-02
         - -2.1736079009895466e+00
         - -8.3313151709894950e-01
         - -1.1419530376649256e+00
         - 1.1834746233571571e+00
         - -9.2899742579335620e-01
         - 1.1025574144296049e+00
         - 1.7984199515030521e+00
         - -4.4475646282109044e-01
         - 6.2874408094418091e-02
         - 9.2329852001239457e-02
         - -9.8969120861916660e-01
         - 5.8573590405526399e-01
         - 5.0693979602391370e-01
         - -2.9377888114384787e-01
         - -1.5069081391295578e+00
         - -4.6628894725769687e-01
         - 5.9104134076257642e-01
         - 8.2113409658407488e-01
         - -1.2629449155719270e+00
         - -1.1303657069654887e+00
         - -1.7250997930930128e+00
         - 4.9692018004128075e-01
         - -3.5074082475818152e-01
         - -6.3151700192389615e-01
         - 8.2075743752277075e-01
         - 2.3236057368716869e+00
         - 6.4410385916273938e-01
         - 3.6922458810576292e-01
         - -9.8545669703322514e-01
         - -3.8664290209670399e-01
         - -7.3975946123362124e-01
         - 1.0481155108934813e-01
         - -6.1732230921815068e-01
         - 2.5393244600508686e+00
         - 1.8551685049492210e+00
         - -2.2696398526837325e-01
         - 6.3395727764521692e-01
         - -1.0501551499933819e+00
         - 5.9425608110751227e-01
         - 9.7043408972457745e-01
         - -1.7998142525757363e-01
         - -3.3757109529758966e-01
         - -5.2875976077457321e-01
         - -1.9826483637530339e+00
         - 6.3917109404621519e-01
         - -2.1337968382407502e-01
         - 6.6735027295144045e-01
         - -2.0013503141204664e-01
         - 6.1042157648117568e-01
         - -6.2397254540003444e-01
         - -3.1453646906996933e+00
         - -8.0768775787112312e-01
         - -1.2798169932424188e+00
         - 4.3685129014413543e-01
         - 3.7978082087196101e-02
         - 2.4936189629416963e-01
         - 6.0430700590149689e-01
         - -5.2026923723105423e-01
         - -2.4045280412748017e-04
         - -3.9555042827583131e-01
         - -2.6990382289155930e+00
         - 3.2599077413912475e-01
         - 1.7887123965280673e-02
         - 6.3803109197891050e-01
         - -9.7083930907862304e-01
         - 6.5767869637612519e-01
         - -2.8879173719716467e-01
         - 2.6651656392154335e+00
         - -2.7814072373818370e+00
         - -3.2065950297311557e-01
         - -2.4411227661944372e+00
         - 1.1242130032047331e+00
         - -5.3816597709558012e-01
         - -1.1203059106532320e+00
         - -2.0221679265489167e-01
         - 1.1499714803782115e+00
         - 1.9995447240196083e+00
         - 4.2504447079236463e-01
         - -4.1550396155795338e-01
         - 3.9850521940237627e-01
         - -1.9220544907325776e-01
         - 7.7493399704123933e-01
         - 2.3867645460392430e+00
         - 1.8990786015982575e-01
         - 9.4604663887713814e-01
         - -1.0295239681511219e+00
         - 1.6603813656035349e+00
         - -8.5342002839664255e-01
         - -1.2287684819128954e+00
         - 8.3154125943946233e-01
         - -5.0759852140320860e-02
         - -3.8900283540901511e-03
         - -6.3070856335561198e-01
         - -1.7725029053562165e+00
         - 1.2395596519443770e+00
         - -8.7214200968130140e-01
         - 1.1427126269883208e+00
         - -2.0245805057382640e-01
         - 8.6275521738784333e-01
         - -1.5816197086058443e+00
         - -4.3514697785455239e+00
         - -4.7041440886298490e-02
         - -1.9749733207231590e-01
         - -6.2770308128033692e-01
         - -1.4773780208391505e+00
         - 7.6114275613962834e-01
         - 1.4103562279314943e+00
         - 4.5424380070998788e-01
         - 1.4482970209988302e-01
         - -9.2712453393920768e-01
         - 1.7103596778239610e-01
         - 8.2430482779097258e-02
         - 5.8926006663825270e-01
         - 1.1412870624387918e-01
         - -1.9101867176102780e+00
         - 4.1856730242557783e-01
         - -7.5331832539556054e-01
         - 2.0400228719039433e+00
         - -2.5342987947860394e+00
         - 1.7296412155601718e-01
         - -7.2950991127390319e-01
         - 6.5933578439583762e-01
         - -6.3162119308490461e-01
         - -1.9752917047996439e+00
         - 9.4643145390197592e-01
         - -1.6927629827566755e+00
         - -5.7470919227773642e-01
         - -1.0606943872603403e-01
         - -1.1613478763498877e+00
         - 1.0154331132487977e+00
         - -1.5016567007719610e+00
         - 8.0560785223988962e-01
         - 1.5818781196498906e+00
         - 1.5867214501717504e+00
         - 1.6721347020883470e+00
         - 1.0444168772472060e+00
         - -9.8976945852690834e-01
         - 5.4760861460193977e-01
         - -1.0755572831335590e-01
         - 1.3141768146262964e-01
         - 5.3683059261234664e-02
         - -1.7486833589173981e-01
         - -1.8675913072026928e-01
         - -1.4407290661713146e+00
         - -5.5469425295022901e-01
         - -3.9369420386417851e-02
         - -8.2905170990370713e-01
         - 4.4522013139556990e-02
         - 2.4977274393177504e-01
         - -4.0377925629601336e-01
         - -2.2424701245143721e+00
         - 1.4584878863874789e-01
         - -4.7361715866176746e-01
         - 3.0393605200126341e+00
         - 1.3099620283475464e+00
         - -8.6734698945638111e-01
         - 3.4404389891716036e-01
         - 6.5686973088096767e-01
         - -6.0736921689227152e-01
         - 2.2349593858588856e-01
         - 4.9299626339115321e-01
         - -4.9194198101519093e-01
         - -5.6274534710674240e-01
         - -4.0204840714596590e-01
         - -1.9834627146457351e+00
         - -1.9025931735183321e-01
         - 4.5101292489258549e-01
         - 5.2550540991844341e-01
         - -1.4119945693232610e+00
         - 1.8509291207243446e+00
         - 3.9825625615719495e-01
         - 1.7640317283167528e+00
         - 5.6963569123177335e-02
         - -1.0086096645344741e-01
         - -3.6747439889138944e-01
         - 1.9266575542502937e+00
         - 1.0717201642889520e+00
         - -1.2425140880593628e-01
         - -4.6231812173673559e-01
         - 2.5673515293837212e-01
         - 5.7100959030092324e-01
         - -5.5123343174887185e-01
         - 2.2267876265694122e+00
         - 3.7322019282762864e+00
         - 2.0910124830316739e+00
         - -1.3842441494727681e-01
         - -2.0380397431472277e+00
         - 3.7209044466559005e-01
         - -1.0801886369905038e-01
         - -4.3991866501531718e-01
         - -1.5471163868955248e-01
         - -5.9652287738595933e-01
         - -7.3148943277512957e-01
         - -1.1674190509080551e+00
         - -4.4071886900725388e-01
         - 4.7232142448883085e-01
         - 5.0441649228843444e-01
         - -4.1552665437762876e-01
         - -5.1735225631536985e-01
         - -1.1456426873301244e+00
         - -7.8054523324773928e-01
         - 4.6165722283024180e-03
         - 3.4916901776125997e-02
         - 1.3759846573107182e+00
         - 1.4648020758443201e+00
         - -4.8574546057564816e-01
         - 6.5897643964491404e-01
         - -7.1407503214001661e-02
         - 1.2573647216296959e+00
         - -5.9984089199665558e-01
         - -1.2971299651680517e+00
         - -8.6087376895330225e-01
         - -9.3105381407566401e-01
         - 5.4053888121655325e-01
         - -7.4524441451474510e-01
         - 6.9819918283398030e-01
         - -6.6458857668110305e-01
         - 1.3009000869473863e+00
         - -1.6867509614834924e+00
         - -3.4647309189973469e-01
         - -1.0009419161967164e+00
         - 3.3192980835489783e+00
         - -3.2554544265764934e-01
         - -9.4464574572853302e-02
         - -1.0667644281674844e+00
         - -4.6045363276048218e-01
         - 3.1136047508641247e+00
         - -4.6824547955251439e-01
         - -1.2618405264886028e+00
         - 1.1334015823901800e+00
         - 3.9851979564098772e-01
         - -7.9316166357727103e-01
         - -2.5611466802541638e-01
         - -2.6833987150354033e+00
         - 7.5456908895484576e-01
         - -7.6827410717451972e-01
         - 5.5764141714327620e-01
         - 4.7841839706758643e-01
         - 4.9995871306107720e-01
         - 1.5558307853412673e-01
         - 2.1380848122182911e-01
         - 1.3400626126374771e+00
         - -4.4652841856566017e-01
         - -1.3981820355426819e-02
         - -2.3710554512308337e+00
         - 7.6555421130444179e-01
         - -1.1130794431583941e+00
         - 5.8582746001948283e-01
         - 2.5396590475042622e+00
         - -1.9160970858626114e-01
         - -2.4503211826808067e+00
         - 1.8421064401271228e+00
         - 5.7107156417573390e-01
         - -3.6001317273267088e+00
         - 9.6118847451260436e-01
         - 2.4053077657507085e-01
         - -7.0031381970148604e-02
         - -2.3107695378154411e-01
         - -1.1748115363732143e+00
         - 1.4291469338497684e-01
         - 3.3567129437137205e-01
         - -6.9261879582797681e-01
         - -9.4484532668965260e-01
         - 2.2158894839152260e-01
         - -3.0024991323824941e+00
         - 8.1527646369736570e-02
         - 4.3122990060131910e-01
         - 5.2864780109578791e-02
         - -1.3283328260021976e+00
         - 2.2755062949925153e+00
         - 2.3607995196884032e-01
         - 2.1317010120290818e+00
         - -4.3091416435448421e-01
         - 4.7780953263383261e-02
         - -2.4258736181932436e-01
         - 1.1805407866192430e+00
         - -1.3494114891289346e+00
         - 1.0839937519765809e-01
         - -1.1331901912041511e+00
         - 4.8150256042035761e-01
         - 1.1393111092819954e+00
         - 1.2209447264342484e-01
         - 1.4113601450915028e+00
         - 4.5887274064287142e-01
         - 1.3052807102279946e+00
         - 1.3351364820109788e+00
         - -4.8266934166005260e-01
         - -5.0367410881564267e-01
         - -5.6020692894388124e-01
         - -2.4072201761704901e-01
         - 4.3274933030858065e-01
         - 1.0201846603347337e-01
         - -3.4478563698698217e-01
         - 8.1756744026131867e-01
         - -1.5527934256661827e-01
         - 1.2799346879510523e+00
         - -4.6502021637458185e-01
         - -3.3896211847781166e-01
         - 3.4014829967134658e-01
         - -8.1768672617813426e-02
         - 1.0243095529701749e+00
         - 1.1331287363243756e-01
         - -6.0173624176399987e-01
         - 8.7425797707416791e-02
         - -1.3755328047680848e+00
         - 1.7655771896704947e-01
         - -2.9503182640427006e-01
         - -9.3763536281668336e-01
         - -1.4403915829348475e+00
         - -1.8332837094759835e-01
         - 4.3918449822874323e-01
         - 3.1869453835578027e-01
         - 2.8420052173246585e-01
         - -3.6147104496781268e-01
         - 1.7236269157421105e+00
         - -2.3724662689645429e-01
         - 3.1003611439689084e-02
         - 3.6043999491477702e-01
         - -5.0647365437099257e-01
         - -2.2683510761800698e+00
         - -1.0483126096648782e-01
         - -1.7828682645504948e-01
         - 8.7474346939126119e-02
         - 8.5211421499942619e-01
         - 6.9901277040480869e-01
         - -8.9766719189021002e-02
         - -4.6323954034731851e-01
         - -4.4366966615382519e-01
         - 2.0147458300435256e-01
         - -5.9635832420259316e-01
         - -1.4247558480961750e-01
         - 7.9701565178430550e-02
         - 4.1250854256652064e-01
         - -9.5916182035291309e-01
         - 2.8894488044421669e+00
         - 1.7274768207781981e+00
         - -7.7699379593896296e-03
         - -4.5379595008193600e-02
         - 9.4308665469800997e-03
         - 4.0479802317042640e-01
         - -3.1429131168792324e-01
         - -1.2166279696870010e+00
         - -4.6394421816468351e-01
         - 2.3002620264063043e+00
         - 6.2422188755271758e-02
         - 1.9879811179746114e+00
         - 4.7732542676938838e-01
         - -9.6191786679966335e-02
         - 1.6351515097796849e+00
         - -9.2654698275469560e-01
         - 2.8246322395602739e-02
         - -9.5033573130901783e-01
         - -1.6348893116626162e+00
         - -7.1617280636006908e-01
         - -4.8231014591014237e-01
         - 2.4395681671451789e-02
         - -7.2166738681288300e-01
         - -1.1561087574668816e+00
         - -1.8674608694807338e+00
         - -3.9260804704221719e-01
         - -4.1521758745143184e-01
         - -1.4672072925610474e-01
         - 6.8380774318333604e-01
         - -6.1290071032996729e-01
         - 3.6842435178105153e+00
         - 1.8433437077188388e-02
         - -5.0594803703479085e-01
         - -1.1633982106170342e-01
         - -5.7615593236038165e-01
         - -5.6742984305226818e-01
         - -1.1884005932490838e+00
         - 2.3043530592249564e+00
         - -3.3195963207978302e-01
         - 1.3946949516350722e+00
         - -8.8145235810116718e-01
         - 4.4207471957080069e-01
         - 1.3204898191889665e+00
         - 1.2768103471736927e-01
         - -1.4758977970351854e+00
         - 7.2115065038290105e-01
         - -1.0072662448379829e-01
         - -1.9934642916422169e+00
         - 2.2365845883633254e-01
         - 3.7170807375901849e-01
         - 1.1153549089946382e+00
         - 1.2377614838358740e-01
         - -2.4634421281000601e-01
         - -1.3394133047281118e-01
         - 3.1178087760132978e-01
         - -1.3840877486946110e+00
         - 1.2264901834712227e-01
         - 5.6224910209368661e-01
         - -4.3036473111916013e-01
         - 6.5441476223335759e-01
         - -1.5190196541914527e+00
         - -1.0177009007767883e+00
         - -1.8612803400372022e+00
         - 3.2269807354560240e-02
         - 4.9493282947764666e-01
         - -3.4502769486774471e-01
         - -2.0517778866050179e-01
         - 3.3465768084954534e-01
         - 8.6902852340960601e-01
         - 5.0406216217012245e-01
         - 4.4468834998850064e-02
         - -2.0794794692219232e-01
         - -6.9782617814141856e-01
         - 1.5347071583818219e+00
         - 6.8277601103956864e-01
         - -6.7223547108041681e-01
         - -5.7725435084581456e-01
         - 4.0629422081688937e-01
         - 2.5767651635052896e-01
         - 1.6612083236725930e-01
         - 2.3500893272908682e-01
         - -6.9643230835649661e-01
         - 3.6375183628111213e-01
         - 4.4474837789691990e-01
         - -6.3655656957092133e-01
         - -2.8620762981264987e+00
         - 1.0872144210492072e+00
         - -1.2153447000991904e+00
         - 3.5398898607406082e-01
         - 5.8156670155939283e-01
         - 2.0319161821612983e+00
         - 4.6464483913523041e-01
         - -2.2121506967015150e+00
         - -6.8001951020543783e-01
         - -1.4715242687404856e-01
         - -6.4784304336466869e-01
         - -6.6975337441829141e-01
         - 1.5158630483272340e+00
         - -8.8918592396232377e-01
         - -3.1864943312174030e+00
         - 1.7438584998744671e+00
         - 5.4966540556972077e-01
         - 3.3156474675904063e-01
         - -6.9651304043280959e-02
         - 2.5437060723746350e+00
         - -6.2747423887095177e-01
         - 2.4696910673934330e-01
         - 1.9291395753718930e-02
         - 7.8161197054713763e-02
         - 5.4274348112854122e-02
         - -6.1054508493946225e-01
         - -4.2896684320006706e-01
         - -4.6698521008221244e-01
         - 3.2804709776175306e-01
         - -9.5392016722044093e-01
         - 1.0380829727579827e-01
         - -1.1888816479929210e+00
         - -1.3407976174860689e-01
         - 8.7158650138218063e-01
         - 8.7948568941507044e-01
         - -7.6697080645172178e-01
         - -3.4832765115145259e-01
         - 1.4614030513816085e+00
         - 1.0451069601949137e+00
         - -2.8252511504312219e+00
         - 2.0804381743306599e-01
         - 4.4755401136723702e-02
         - -1.2781282511484218e+00
         - 1.1801335032395135e+00
         - -7.5469297860800377e-01
         - -1.4747189772032732e+00
         - -1.2312598679268326e-01
         - -7.8780891816433454e-02
         - -4.6948604192089499e-01
         - -1.3062087869965837e+00
         - -9.9381216734391964e-01
         - -8.3681203728283114e-03
         - 7.1427158867118323e-01
         - -9.4817405098275631e-02
         - -1.4743666618418039e-01
         - 2.2694284468852952e-01
         - -5.0079866543313045e-01
         - 2.4784036224907899e-01
         - 1.7999923480336905e-01
         - 4.3294708089478745e-01
         - 1.4817916967644093e-01
         - -1.1399335936604564e+00
         - 2.1598350703460342e-01
         - -2.4281386339490627e+00
         - -4.5194631698691085e-01
         - -2.8398228838147699e-01
         - 4.0111125582183971e-01
         - 1.2320311980666701e+00
         - -3.3537333777920886e-01
         - 1.0479031624266413e+00
         - 5.5542589283185939e-01
         - 1.8289569611510101e-01
         - -1.1202160592550671e-01
         - -1.5284768002515110e-02
         - -9.5894567759728377e-01
         - 1.4651920026740968e+00
         - -8.9356655403634377e-01
         - -9.6121073398611478e-01
         - 4.2065634170724592e-01
         - 1.6959914724620062e+00
         - 1.9457177708642373e-01
         - -6.1657441784391143e-01
         - -4.8130232552722485e-01
         - -1.8459958063960906e+00
         - 1.2650207568997368e-01
         - 3.3886037448899903e-01
         - -7.6539514235431827e-01
         - 3.5132079938370675e-01
         - -4.7768575676094188e-01
         - -1.1561288986019160e+00
         - 1.9935225757939934e-01
         - -1.1644077103615431e+00
         - 2.8411112303123015e-01
         - 5.5748438434273562e-01
         - 1.6888950562630761e-01
         - -1.5553817373540721e+00
         - -5.3537784475776851e-01
         - 2.3588993901060626e-01
         - 3.6969108585281335e-01
         - -2.2527977933343646e-01
         - -7.3606960335621474e-01
         - -8.5019192894753903e-01
         - 7.1893020965146937e-01
         - 4.9089422413756197e-02
         - 5.2182833360302883e-01
         - -1.3053249605304287e-01
         - -3.2306107995672289e+00
         - 1.1576855560677102e+00
         - -2.3799050829961868e-01
         - 8.3566560629313569e-01
         - -1.1585410491729689e-01
         - -2.0822665062562797e+00
         - 4.1839548331955595e-01
         - -7.0594508531397171e-01
         - -1.5666408883265670e+00
         - -4.7120616779810848e-01
         - -1.6270752100961136e-01
         - -1.1791037625793459e+00
         - -1.6441297383653635e+00
         - 2.4690897373734613e+00
         - 8.3053529328691655e-01
         - -9.4999610405374704e-02
         - 5.0014192553540082e-01
         - -2.4769063485918905e-01
         - 1.5781594818191949e+00
         - -3.5410491931965210e-01
         - 1.1663139137949361e+00
         - 1.1448039448821040e-01
         - 1.4462080746249434e-01
         - 1.3670840074795571e-01
         - -1.0191028556174482e+00
         - -2.7118021419618454e+00
         - 4.3344970455315635e-01
         - 2.8553511494742150e+00
         - 3.8891049924213100e-01
         - 7.3007078944183446e-01
         - -3.2069520977206800e-01
         - 5.3494986357635776e-01
         - -4.6016924344656224e-01
         - -2.5122913192055680e+00
         - -2.6132395951008525e-01
         - -2.9110758568944201e-01
         - 7.2246756579816163e-01
         - 7.0108501684944502e-01
         - 9.5796108969826343e-01
         - 2.5246241818562493e-01
         - 9.2803551738337575e-01
         - -3.9582303316249157e-01
         - -9.1708012955754148e-01
         - 1.3367474122796930e+00
         - 1.3491030769221035e-01
         - 8.0842067453335598e-01
         - -7.5061489447104168e-01
         - -3.3598828062401226e-01
         - 1.4450043990759751e-01
         - 7.4988750619994868e-02
         - 5.0822711245984165e-01
         - -7.1737788519687817e-01
         - 4.5353109762484084e-01
         - 1.0326779855690281e-01
         - 1.2538841873566291e+00
         - -1.6505974446112745e-01
         - 1.3610132910413457e-02
         - -2.9391885074807145e+00
         - 4.7126479112350544e-01
         - -1.5419640664031871e+00
         - 1.9986142943668943e+00
         - 6.5219978916244081e-01
         - 9.5302239736742089e-01
         - -2.6145636634960310e+00
         - -2.8662093788422066e-01
         - -3.0750785518855195e-01
         - -8.4524543972469990e-01
         - 1.2429640747084940e-01
         - -1.4473562489847300e+00
         - 5.2130176238838632e-01
         - 1.3046087606138237e-01
         - 9.7843711036768491e-02
         - -3.8608300594612988e-01
         - 2.7065467500563170e+00
         - 7.1597761335913501e-01
         - 1.0372494960400724e-01
         - -2.4653427798422881e-01
         - 1.7980843622078985e-01
         - -8.3544573992097290e-02
         - -5.5293561317510020e-01
         - -3.6537746251473061e-02
         - 2.5362552584172162e+00
         - -1.1657931367203500e+00
         - -1.7381215253685727e+00
         - 8.5358563068003290e-01
         - -3.5627508450220197e-01
         - -2.3546085023428506e-01
         - 6.8613017404378629e-01
         - -3.6589601952915046e-01
         - 2.6097398459615357e+00
         - -5.0440639239479956e-01
         - 3.1600870974024592e-01
         - -3.4274495487396206e-01
         - 4.9180300138186384e-01
         - -5.8506797954253975e-01
         - 1.2322399419013116e-01
         - -1.1786130919495144e+00
         - 4.0228729853447798e-01
         - 4.9763379734796326e-01
         - -3.5444928068641285e-01
         - 6.0360277021731024e-01
         - -2.3462000382210384e+00
         - 2.5849853490426528e-01
         - -6.4128029664801342e-02
         - -9.1264022520563048e-01
         - -5.6194454028971730e-01
         - -9.8504872022003986e-01
         - -2.5377033554997865e+00
         - 4.2435711629338906e+00
         - -6.3939793247690979e-01
         - -7.0551159043996481e-01
         - 1.1002656322238136e+00
         - 3.9385752249733652e-01
         - -3.1834398605170587e-02
         - 2.4558696819467973e-01
         - 2.2065687260032864e-02
         - -6.3336024045244455e-01
         - -2.3024685092994662e-01
         - -2.2116710010081326e+00
         - 8.6911297336133786e-01
         - 8.8694854150913238e-01
         - 8.5036047702375786e-02
         - -2.2309046874635177e-01
         - 4.5192017164380784e+00
         - 2.6093493745982521e-01
         - 1.0722603732065481e+00
         - 1.0284461217468403e-01
         - -1.3328467109000108e+00
         - 9.3883985215410994e-03
         - 8.7391645525269179e-01
         - -6.7706755387469308e-01
         - 1.6535616413238845e+00
         - -3.0771459785783910e+00
         - -5.0120569725587305e-01
         - 1.8928701586339358e-01
         - -1.1800719631705587e+00
         - -2.4290543498740335e-02
         - -3.1583017309536996e-03
         - 7.7943495837127907e-01
         - 2.0845098469676717e+00
         - 7.7016893827045474e-01
         - 9.1960200568672289e-03
         - 1.2979788549690343e+00
         - 3.3631250870338097e-01
         - -2.5227633897811219e-01
         - -8.1106201501224651e-01
         - -1.3151769714139681e+00
         - 2.4191935704777129e-01
         - 7.4495118185323006e-02
         - -4.9283200818427209e-01
         - -2.4596683541440165e+00
         - -1.1870500658023591e+00
         - -4.4279781007923363e-01
         - 1.0182133036009841e-01
         - -3.5761459319337568e-01
         - -2.0955417051867862e+00
         - 8.1229946162902425e-02
         - -7.8483266927773410e-01
         - -1.5229473059634511e+00
         - -1.7656410084052292e+00
         - 1.1454135206368068e+00
         - 3.2764699503560052e-01
         - 2.4392743450572886e-02
         - -1.6807177293415470e+00
         - -8.3786065055695225e-01
         - 3.9139791773862753e-01
         - 3.4611445449976180e-01
         - -5.8997741649908675e-01
         - 2.4834381609404224e+00
         - -7.5811705004158614e-01
         - 2.1539689260201502e+00
         - 1.7016830044719824e+00
         - 2.0293611836545442e-01
         - 3.4085466575292467e-01
         - -1.2791662527174252e+00
         - -1.4001778394233897e+00
         - 1.6583845612811980e+00
         - 1.9692926176722696e+00
         - -2.8922149842495903e+00
         - 4.1010078577599712e-01
         - -4.5817372272237339e-01
         - -2.2268444782247782e-01
         - 6.1285387798248536e-01
         - -4.0561968157125966e-01
         - -7.0420524386238081e-01
         - -1.4136734108892068e+00
         - -8.3569571895735217e-02
         - -2.7882004634233148e-01
         - 3.9193345377660949e-01
         - 2.9696012385229338e+00
         - 9.9732374226875897e-01
         - -1.2946840785779294e+00
         - -7.6931568624284297e-01
         - 1.8190018210962424e+00
         - 2.8993310275805340e-01
         - 3.0905859050902812e-01
         - -1.2001392899472960e+00
         - -2.9587489767789965e-01
         - -3.1396502136807997e-01
         - 1.9424656344522399e-02
         - 1.9915540731914601e+00
         - -2.3266510529955138e+00
         - -6.3701300862255028e-01
         - -4.2417286025827428e-01
         - 1.2476746801760448e+00
         - -3.8380852540357197e-01
         - -1.6705527060621667e-01
         - -3.3070523632285637e-01
         - 5.9930691318079687e-01
         - 2.4184179549167411e+00
         - 2.7906022975680189e+00
         - -5.1814180277941546e-01
         - -1.9434545085315333e-01
         - 1.5463325740468339e+00
         - -2.2660419554479019e-01
         - -3.1892120456021111e-01
         - -4.7066414270790169e-01
         - -2.8999758091957129e-01
         - -3.7782711712216055e-01
         - 1.2377845018804692e+00
         - -7.8589197537593614e-01
         - 7.3740255640175778e-01
         - -4.8359221521998891e-01
         - -1.4647207844802137e+00
         - 3.5300247901366072e-01
         - -2.7188131803623801e+00
         - -7.0685568555888945e-01
         - 2.0469844269108490e+00
         - -1.4707319073881950e+00
         - -1.9465592512133992e-01
         - -1.1944723406141322e+00
         - -2.5683952267720742e+00
         - 3.8290888054679090e-01
         - 1.3470989151661759e+00
         - 3.1439670361462346e-01
         - -1.7162910644231739e+00
         - 7.7823760895375252e-02
         - 5.1786168196934046e-01
         - 3.1120695885017985e-01
         - -1.7751861585756070e+00
         - -2.4805422638901006e-01
         - -9.9985859644918157e-02
         - -2.2685209023334005e+00
         - -2.2868781825835124e-01
         - 4.5271294438366405e-01
         - -5.7746137799486863e-01
         - -2.5158110303653509e+00
         - -1.8271243574141532e-01
         - -2.4232701983585922e-01
         - -8.3987304120218453e-01
         - -2.4573693059399542e+00
         - 1.0636392110091899e+00
         - 8.8271319543769589e-01
         - -5.8662477253501477e-01
         - -4.2300626081671583e-01
         - -3.3105141422066144e-02
         - -1.0584822889200216e+00
         - 9.4330990811808724e-01
         - 3.3239259913025609e+00
         - 1.5461453050473426e+00
         - -1.6579538827581068e+00
         - -2.8912651620336161e+00
         - -8.9083806315099448e-02
         - 8.1052382302670711e-01
         - -5.3871442319278406e-01
         - -1.6201698780689866e-01
         - -5.1118900005137513e-01
         - -4.0054506243477089e-01
         - -3.0581856606844999e+00
         - 1.7690852064740046e+00
         - 5.5378718118920395e-02
         - 1.1263125300034731e+00
         - -6.9260207929889950e-01
         - 1.3904616233711415e+00
         - -3.4123277993167826e-02
         - -3.6405401300950918e-01
         - -2.0976744435027442e-01
         - -9.8644849003029200e-01
         - -6.5906792931498370e-01
         - -1.4759526189398268e-02
         - -1.6669940364486113e+00
         - -1.2497481897531457e+00
         - -2.6897412929720654e+00
         - -8.1219760855022571e-01
         - 9.0987934823063971e-02
         - -2.1561180538923694e+00
         - -5.8574709347061960e-01
         - -9.3847384879882437e-02
         - 4.9988038196915074e-01
         - -1.0321284986789392e+00
         - -3.1095070304624028e-01
         - -8.6356480675840785e-01
         - 3.7768183167148583e-01
         - -9.5788897502660941e-01
         - 3.1231360792805626e-02
         - -8.9998878775296953e-01
         - -2.4054156366160466e+00
         - -7.2904759542882546e-03
         - -1.0837128819574013e+00
         - -9.9932027509572019e-01
         - 1.7826302898435031e-01
         - 1.0637754856641812e+00
         - 7.3086584311819314e-01
         - -1.4170403745806301e-01
         - 1.7573987574063354e-01
         - -7.3067259320930600e-01
         - -2.3458383917289702e-01
         - 2.2660174394321548e+00
         - 1.0792279192490155e+00
         - 1.2809045705330827e-02
         - -3.1854029939184390e+00
         - -1.8305605117432970e+00
         - 4.3889036440256196e-01
         - -3.1810064092581216e+00
         - -7.8486481493498828e-01
         - 2.9330666197202820e-01
         - 5.7709516026523211e-01
         - -7.5730435172434984e-01
         - -3.9750176920897184e-01
         - -6.2134704041054234e-01
         - 1.2102039303692618e+00
         - 1.6380719089080091e+00
         - -2.9379420588313006e-02
         - 1.1995199852915694e+00
         - -1.1611762469115587e+00
         - -8.4120857839298910e+00
         - -1.7792425215362820e-01
         - 2.0396036516542555e-02
         - 9.0216801767199528e-01
         - -1.3756411189793021e+00
         - -2.7495495240496792e-01
         - -1.0854161346917257e+00
         - -1.9869569497107495e+00
         - -7.6829844632193278e-01
         - -5.5259310477172530e-01
         - -7.9070234828881714e-01
         - -1.6261745254996980e+00
         - 1.6385797266736024e-01
         - -5.3864407973459349e-01
         - -4.9234719858958381e-01
         - -7.0520351865843578e-01
         - -1.1531976993497934e+00
         - 1.7312254214700318e-01
         - -1.7361099711588572e+00
         - 1.1165456375297595e+00
         - -4.7694599014823558e-01
         - -2.4922899328529420e+00
         - -3.3190843457187086e-01
         - -1.4559706220035100e+00
         - -5.5687557345405703e-01
         - 3.1150142322052643e+00
         - 2.1799886934474233e-01
         - 4.1852658857928171e-01
         - -3.1218810488562893e-01
         - 1.1739695459565609e+00
         - -1.2122366630358405e+00
         - -6.9343524985022154e-01
         - 1.4675224679944249e-01
         - -8.3997861180007027e-01
         - 3.8042573915309041e-01
         - -3.8776481498651689e-03
         - 5.5608141088973306e-01
         - 4.2539544595841589e-01
         - 9.1116685717345702e-01
         - -1.4034665759004195e-01
         - -1.0862683628063889e-01
         - -2.2877701554408031e-01
         - -2.1617544196707111e-01
         - 6.0213675006800449e-01
         - -6.6505924327762722e-01
         - -4.3631629484092677e-01
         - -7.3659265566900956e-01
         - -3.9528250534977410e-01
         - -1.4170740307539549e+00
         - -8.0024116095936695e-02
         - 2.8628108940591264e+00
         - 1.8368670239324364e-01
         - 4.5318191409814107e-01
         - -5.2828220169302005e-02
         - 8.9557602030103142e-02
         - 1.7548930013850390e+00
         - -1.9884810012940208e+00
         - -1.0226647276962983e+00
         - 1.2329869518038903e+00
         - 3.6450433235601526e-01
         - 5.7298580685528433e-01
         - 6.2052693215773924e-01
         - 8.3276060048737988e-01
         - -1.4665303362238358e-01
         - 9.8872039038756146e-02
         - -4.5473358271447623e-01
         - 7.1442152616386456e-01
         - 7.3459615453593097e-01
         - -5.0864234280487886e-01
         - -2.3910326363179712e+00
         - -1.9577298608956821e+00
         - -2.2750863043627652e+00
         - -3.2672627751832595e-01
         - -5.7266074310527137e-01
         - 2.3212173505131115e-01
         - -2.2072132322334626e+00
         - 1.7247805421936924e+00
         - -8.0989424076756342e-02
         - -1.0057134266661063e+00
         - -1.5341654648892200e-01
         - -1.1255772814879590e+00
         - 3.4135598260035033e-01
         - 1.6470049969042730e+00
         - 1.1124881246185041e+00
         - 9.9991810269911285e-01
         - -7.0891000650812019e-01
         - -5.4517341636720074e-01
         - 7.7740167962647377e-01
         - 1.2336499541633870e+00
         - -5.7224276142018138e-01
         - -3.8256765398158527e-01
         - -8.9996027432231551e-01
         - -4.3274984614664042e-01
         - -1.3460755874712040e+00
         - 2.8653164899594828e-02
         - -2.5716441371916393e-01
         - -3.4463428726991246e-01
         - -6.5176505389600436e-01
         - 1.7281963910122173e+00
         - -8.5465623228589271e-01
         - 4.6816368100739627e+00
         - 1.4607825313523329e-01
         - 1.4626069830449684e+00
         - 3.1110790933736108e+00
         - 4.9461387966839943e-01
         - 1.0552255278564964e+00
         - -2.9635669647269793e+00
         - -1.3899857323943949e+00
         - 1.6606332003711999e-01
         - -3.6113977531516506e-01
         - -1.4984002316128171e+00
         - -6.3936784654616574e-01
         - 4.7094133334066995e-01
         - 5.2771367981360581e-03
         - 7.2456348918443514e-01
         - -6.1161236811058939e-01
         - -2.5007538394684009e-01
         - 1.6720976215157159e+00
         - -1.6645784728045305e+00
         - -2.8635310498950255e+00
         - -1.7371474395774289e+00
         - -1.9194364199660525e+00
         - -4.2599051373872587e-01
         - -3.8034867698349012e-01
         - -3.1522923126049690e-01
         - -1.4710212003265968e+00
         - 1.3362941312938574e+00
         - -7.6859571826305573e-01
         - -1.6709869940554787e+00
         - 1.0086765689705579e+00
         - -1.6447837126988394e+00
         - -5.1786495528119503e-01
         - -6.8000134675097246e-01
         - -1.9036114940613753e+00
         - 1.2381957676169267e-01
         - -1.6219604848680134e+00
         - 9.2715921686350078e-01
         - 5.4040557107550513e-01
         - -1.5567372638859238e+00
         - -9.8993437268327966e-01
         - 1.8844961986615782e-01
         - 5.8475403941090098e-01
         - -3.1832932181250351e-01
         - 2.1821294453041706e+00
         - -3.2190256058163236e+00
         - 9.8523369209489453e-01
         - -7.5879298851553234e-01
         - 4.6352566055042471e-01
         - 1.0642012823839195e+00
         - -2.2578544128163253e-01
         - 1.3636034860874771e+00
         - 8.0041152272553440e-01
         - -1.6789353649276380e+00
         - 1.7757951053339744e+00
         - 6.5295580042911161e-01
         - 1.1142701900000260e+00
         - -3.2059568922630149e-01
         - -2.1091555092925876e-01
         - -5.3404748887112316e-02
         - 2.1068839681855267e-01
         - 5.9252289044683257e-02
         - 6.6779324155674991e-01
         - 3.6401807205947634e-01
         - -6.9625567057436821e-01
         - 5.6395947362580512e-01
         - -1.1641065577139491e+00
         - 7.3930059115900493e-01
         - 1.1323200517707848e+00
         - -3.1197930767231180e-01
         - -1.1784036835048810e+00
         - -1.8529609237258751e+00
         - -3.3350199676191443e+00
         - -2.9455275333318270e-01
         - 8.8942660758843040e-01
         - 1.6918810199641185e-01
         - 3.2181614449212064e+00
         - -1.8216270499354778e-01
         - -3.7390493164496497e-01
         - -1.1112296033548219e+00
         - 2.6094051847221034e-01
         - -8.3372470632125051e-01
         - 2.5711106938534217e-01
         - -8.3365884229775700e-01
         - 1.4368973331821028e-01
         - -5.1836812030137333e-02
         - -6.4322376472885623e-01
         - -8.7154259764827838e-02
         - 2.2804573981399781e-01
         - 3.3977444395091344e-02
         - 1.4088265158391611e-01
         - 3.0288486420044461e-02
         - 2.4737517132752582e-01
         - -4.0902817101749617e-01
         - 1.2112423085558512e+00
         - -2.8777501098515657e-01
         - 5.0335618680017502e-01
         - 3.6854310834552712e-01
         - -4.7416432707800088e-01
         - 4.1476930875580531e-01
         - -7.0795516463679975e-01
         - 3.1462639243035068e-01
         - 1.1327601540362768e+00
         - 4.7017699071180097e-01
         - -2.6794497538595849e+00
         - -4.0344598419611744e-01
         - 2.0547618497711322e+00
         - -7.1459806881563420e-02
         - 2.2981939566083701e-01
         - -8.9118128028100915e-02
         - -5.1809338906377778e-01
         - 7.0146548704028699e-01
         - -5.2165540367810415e-01
         - 3.4286243652675796e-01
         - -3.8342187480141504e-01
         - -1.3099619871245163e+00
         - -6.8573448204035881e-01
         - -3.4406713105950210e-01
         - 4.9444845340058668e-01
         - -1.6472020626865591e-01
         - 1.0095147001560107e+00
         - -7.4196971201312911e-02
         - -9.5450890250976173e-01
         - 2.0045145684303367e-01
         - -5.6976195443324740e-01
         - -4.0289616251767663e-01
         - -7.1679060947521633e-01
         - 3.0245076937609083e-01
         - 5.0762287028064657e-01
         - 1.4982782401089838e-02
         - 4.8839486394286985e-01
         - 5.5613544427579709e-01
         - 4.0188731866078992e-01
         - -6.4475575820426190e-01
         - 1.4123369101175474e+00
         - -1.9539201881533246e+00
         - -7.7252786780861060e-02
         - 1.6639935118373422e-01
         - -9.1009971722981109e-01
         - -4.1788228287231310e-01
         - 1.4927980679397366e+00
         - -8.3551632681585475e-01
         - -5.2341923918830324e-01
         - -3.1410873626169894e-01
         - 3.1741749741725058e-04
         - 1.7376301754059070e-01
         - 3.5378293788792353e-01
         - 1.1017757147047791e-01
         - 2.4409812575343675e-02
         - 2.2727124754703190e-01
         - -7.2439465456279417e-01
         - 2.2419264685386606e+00
         - -1.1121678269785441e-01
         - -1.3619560409600064e+00
         - -2.4296907920738242e-02
         - -7.4258456964538955e-01
         - 8.6296909057215887e-01
         - -2.6867743142909348e+00
         - 5.7514398231610531e-01
         - -7.5437709621068938e-01
         - -2.5896582619764436e-01
         - 1.3700198977717443e-01
         - 1.1606589322734364e+00
         - 4.3654602079551913e-01
         - -5.7183316095698281e-02
         - -5.3904162231145780e-01
         - 2.9773660877650487e-01
         - 6.9694839941457115e-02
         - -6.5883085313202028e-01
         - -8.7115194939241703e-04
         - 2.0233752703225605e+00
         - -4.5668794622038815e-02
         - 1.4955955558019723e-01
         - 2.8943680031283479e-02
         - 1.5180199290417079e-01
         - -9.3313315913685346e-01
         - 2.6834413452311301e+00
         - -5.3993956915680548e-02
         - 7.5034534800376118e-01
         - -8.7272787812184038e-01
         - 6.3717767041161333e-01
         - 5.7515167362404607e-01
         - -1.6945576454919193e+00
         - 6.0721560912617223e-01
         - 6.3024488005216750e-01
         - -6.2012523281975107e-01
         - -6.4243038402547725e-01
         - -3.6636134022148520e-01
         - 4.8796233313044196e-01
         - 3.1132210742378341e-01
         - -8.2245608258969416e-01
         - 2.8047105488806995e-01
         - 2.9894985866403900e-01
         - -1.5746445245994550e-01
         - 2.0347387021860257e+00
         - 3.6639994965610059e-02
         - -1.0225557303522967e+00
         - 9.1945688227997524e-01
         - 4.6035988153562069e-01
         - -1.0566842725484424e-01
         - -7.4519779665004215e-01
         - 1.0869466124074436e+00
         - 1.0616701421710710e+00
         - -3.7352492778000951e-01
         - 2.8332237818880102e+00
         - 1.0264773423313687e+00
         - -3.5065029137465770e-01
         - -1.9990018441845489e-01
         - -1.7036574471979143e-01
         - -9.5902672403471911e-01
         - -6.1706831392060124e-01
         - 3.3223343495219421e-01
         - 2.6434814286347237e-03
         - 6.7575601005104946e-01
         - -1.4627666994627569e-01
         - -3.1609120754435684e+00
         - -7.5943742371691758e-01
         - -6.6094755852221632e-01
         - 1.9432827098865644e+00
         - -4.3436401383888534e-01
         - 2.7734069840795988e-01
         - 1.6631393044482470e+00
         - 2.8558810823816621e+00
         - 1.1021464668387535e+00
         - 2.7357686124667940e-01
         - 5.3849514343360272e-01
         - 1.9761732979364879e+00
         - -8.7067797716819573e-01
         - -6.4573962081885428e-01
         - 1.4567437730659920e+00
         - 6.2792541855161799e-01
         - 2.6553890555657828e-01
         - 2.2341744847905249e+00
         - 2.1652523471325966e-01
         - 1.0812549441204666e+00
         - -1.7453553539737496e+00
         - -5.2179220526840453e-01
         - 1.9715532215606180e+00
         - 2.8688800584492935e-01
         - -7.1118943036656157e-01
         - 2.7887531810280936e-01
         - -1.4863614233854834e-02
         - 5.4090820392293437e-01
         - 8.4419843009915799e-02
         - -4.7130075033288588e-02
         - -1.5335831244181584e+00
         - 8.4400995463918249e-01
         - -7.7621433711416632e-01
         - -3.4469937065241166e-02
         - -3.3094439796487241e-01
         - 2.5699523161798865e-01
         - 1.9094088547294981e+00
         - -5.7855353334087889e-01
         - 3.6485176573852560e+00
         - 1.6603718839931418e+00
         - -1.3176374366812924e-01
         - 1.2005593653482444e-01
         - -1.0616087007180605e-01
         - 1.1653691315360302e+00
         - -2.7293844554048792e+00
         - 2.2401143143185073e-01
         - -9.0727531055720012e-01
         - -1.1981343963529081e+00
         - 3.5968444994424503e-01
         - -7.2333506966654013e-02
         - -1.3469410027924719e-01
         - -7.1815701307118252e-01
         - 9.8515646777805749e-02
         - -6.3320491746221882e-02
         - 4.7592796878725158e-01
         - 3.3842443020380053e-01
         - -6.0345218462864303e-01
         - 1.2761109810981863e+00
         - 1.0011869446700075e-01
         - 6.1980355436324269e-02
         - -1.6937276645656718e-01
         - -6.0614139771132870e-02
         - 1.2162446934331659e+00
         - -1.7964553912539034e-03
         - 5.3754351616559870e-01
         - -7.6081205816103656e-02
         - -3.8515647792052649e-01
         - -1.0956551322096706e+00
         - -1.3817522964799289e+00
         - 2.9086898101268273e+00
         - -2.0490776677172664e+00
         - -7.0920272231349413e-01
         - 2.6480545128256101e+00
         - -1.1102549663946433e+00
         - 8.0286616875765915e-01
         - 8.1652328327452950e-01
         - -5.5261017613447871e-01
         - 7.5609351352202137e-01
         - -2.7791196401009331e-02
         - -1.3113005049666704e+00
         - -5.4037461947867127e-01
         - 2.1357742167973046e-01
         - -1.1270630365011018e+00
         - -3.0376667593997553e-01
         - 1.1174895383534220e+00
         - 2.6162732771529035e-01
         - 2.0457367789066665e+00
         - -6.0655945851542536e-01
         - 2.6214601722889819e-01
         - 1.1242329827391226e+00
         - 1.4207896992396856e+00
         - -1.9109395410244173e-01
         - 7.2897408167020461e-01
         - -1.4916515759517941e+00
         - -2.9853355776118295e+00
         - 1.8958265093714477e-01
         - -1.1685656569652576e+00
         - 7.8673689213288478e-01
         - -2.6789812010399311e-01
         - 1.6201167592082304e+00
         - -9.1905374057110822e-01
         - 4.0732544080014432e-01
         - 4.3127945523024841e-01
         - 1.9622323052231483e+00
         - -1.2021899376109391e-01
         - -3.7704172646419010e-01
         - -6.7315966031539298e-01
         - 2.2739428171807909e+00
         - 3.3794305993570567e-01
         - 8.2639678683337381e-02
         - 2.7045857390764431e-02
         - -9.3259839705506886e-01
         - 1.0573853619188613e+00
         - 2.0100364789411099e-01
         - 9.4409788950097240e-01
         - 8.2724285391799643e-02
         - -1.8269910945002708e+00
         - -2.7030353956013448e-01
         - -1.4515852587268159e+00
         - -2.8069228953776404e-01
         - -2.6261023547614024e+00
         - -2.9668207699647825e-01
         - 2.9936968255833439e-02
         - -1.6167050892136015e-01
         - -5.4593630704841289e-01
         - 9.7112809353584106e-01
         - 1.3340943720117893e-01
         - 5.3426340227065294e-01
         - -1.8920219754973289e-01
         - 1.3288679790438784e+00
         - -1.4582946250050404e+00
         - 1.8300675064776986e+00
         - -6.4654890747546290e-01
         - 2.9419091669321373e-01
         - -1.0983700623086876e+00
         - -4.6806469209784146e-01
         - 1.7656510590726204e+00
         - -4.8086017480665083e-01
         - 2.0432859059298605e+00
         - 1.8613508155754521e+00
         - 6.9568859393131255e-01
         - 1.9716191435379773e-01
         - -7.0691790562944290e-01
         - 1.3412505616279027e+00
         - -1.3938460216330453e+00
         - 7.6364374050784445e-02
         - -1.0652181756416930e+00
         - 1.7855627118550552e-01
         - -3.0632380870088144e-01
         - 4.9089599014316981e-01
         - 8.7299234905910861e-01
         - -1.1716907723441757e-01
         - 1.1528458337328629e-02
         - -9.0044135288087890e-01
         - 2.3369851404912527e+00
         - 1.6317906605286880e+00
         - 8.9159816196005226e-01
         - -1.9572626530362884e+00
         - 8.3558730074914905e-02
         - -9.6423858882826341e-01
         - 1.1472701652565247e+00
         - -6.7954062882694885e-02
         - -3.4347970853037402e-01
         - -4.3630962724614858e-01
         - 6.8563434330714650e-03
         - 5.9615685202167124e-01
         - -1.9643199948086332e-01
         - 2.6863829829985525e-01
         - 2.5371176722351767e+00
         - -1.3911700020223141e+00
         - 2.2963114716774338e+00
         - 1.7061200945206114e+00
         - 2.4389493094006705e+00
         - -5.4153520590529003e-01
         - -3.2523527922151603e+00
         - -4.3987514407053530e-01
         - -1.2058687264246113e-04
         - 2.4579294722267919e-01
         - 1.3460270704795718e-01
         - 3.0341474700774942e+00
         - -7.1203922420389465e-01
         - 1.7496866503507466e-01
         - 2.4135210954758277e-01
         - -3.3867650478113509e-01
         - -1.1156500233448956e+00
         - 9.9586891357511798e-01
         - 1.4873363219640308e+00
         - -2.3126206158300180e-01
         - 1.0841654334926756e+00
         - 1.4738844279495456e+00
         - 8.6731042583372442e-01
         - 3.8558253404212117e-01
         - 1.3869540227601915e+00
         - 2.0790647211006655e-01
         - 1.8818842167094119e+00
         - 2.4876487891029639e-01
         - -6.6305089074558088e-01
         - 2.1910664719067365e-02
         - 1.3449865962648164e+00
         - 2.4619400539164646e-01
         - -8.2121411068553585e-01
         - 9.6823556967318858e-01
         - -3.8866840545374544e-02
         - -9.7329872776050319e-01
         - -2.1416990898679402e+00
         - 4.6924522342299574e-01
         - 9.4257234320849625e-01
         - 4.3175506903355143e-01
         - -1.6496623270404104e-01
         - 1.4673099892503116e+00
         - -2.7062341738447648e-01
         - -2.5821396142911204e+00
         - -4.0959753258822346e-01
         - -5.9697259638921529e-01
         - 6.9817198461292085e-02
         - -7.4836598746488647e-01
         - -1.0240319419087218e+00
         - -3.2398015128817537e-01
         - 1.0537497984522834e+00
         - 1.8093631836924187e+00
         - 2.8971068868510741e-01
         - -2.2718924658778374e+00
         - 2.1694810851340334e+00
         - -3.5768519118778064e-01
         - -5.3506458847926841e-01
         - -4.3383719564619427e-01
         - -5.7649959250856649e-02
         - 5.8792067821224370e-01
         - -2.5355503158117731e-01
         - 1.8337156115849611e+00
         - -2.0161205601895094e-01
         - 1.3149667097541946e+00
         - 1.0051996835338000e+00
         - -2.0228853083092940e-01
         - 2.4005947368163141e+00
         - 2.5784867551682539e-01
         - 2.5028183234993304e+00
         - -1.2009895723592030e-02
         - -1.2601982825973430e+00
         - 1.2968506599076335e+00
         - 1.6702129645640829e-01
         - 1.1333044530417502e-01
         - 1.3973170248510218e+00
         - -4.4142928713987963e+00
         - 1.0052954675961481e-01
         - -4.3019493417754673e-01
         - -1.6249577592786963e+00
         - 5.2502249740136886e-01
         - -2.1785662635506101e-01
         - 2.5484356317294410e-01
         - -3.4528907397730374e-02
         - 9.5231632739123406e-01
         - -5.2984912189151967e-01
         - 1.6213536454456654e+00
         - -1.3543399583967681e+00
         - 9.0673098947379782e-01
         - 9.5095153047692990e-02
         - 1.1938643418382275e+00
         - -3.6548105452519108e-01
         - 6.3053245933889468e-01
         - 5.7850285440151716e-01
         - 5.3835699928734770e-01
         - 2.1794760556970993e-01
         - -1.1447220816219055e+00
         - 2.2699200621505508e-01
         - 1.1376598383635293e-01
         - -1.5228927806978250e+00
         - 1.1214229791669585e+00
         - 9.0368072760302542e-01
         - 1.7402305727519654e+00
         - 3.5743365477800909e-01
         - 1.7131295508618332e+00
         - 1.8110106754935897e+00
         - -6.8410318338429132e-01
         - -3.8717047643922875e+00
         - -1.1908338201171877e+00
         - 7.4164799955089911e-01
         - 1.1504877966489406e+00
         - -2.9068154890234144e-01
         - 5.4871834105314079e+00
         - -1.3960572271862088e+00
         - 1.7127268391525750e+00
         - 1.4604675605672337e+00
         - 9.4252562726649181e-01
         - -1.0692278104562492e+00
         - -1.8465795168915061e-01
         - 2.1011485594072745e+00
         - 1.1676296061737537e+00
         - -1.1424727752586785e+00
         - 2.4845941360725893e-01
         - 4.8146099855446745e-01
         - 5.5159318441285143e-01
         - -8.4566981438132568e-03
         - 7.3611647853104678e-01
         - 1.5720546447586499e+00
         - -4.1130702039822786e-01
         - -7.1368130606042879e-01
         - 3.1878383697905582e-01
         - -9.9921996445628838e-02
         - -1.9682878245674010e-01
         - 1.2267509091316657e+00
         - 9.3949394270527509e-01
         - -8.5634953983402362e-01
         - -3.1600621282458143e+00
         - 9.4750507031883158e-01
         - 2.4386759205328405e+00
         - 2.8232616773774244e-01
         - -1.2999715412971560e+00
         - -7.2619220953436359e-01
         - 5.9628071515969028e-01
         - 5.7606492532582387e-01
         - 8.7649510751290638e-01
         - -6.3854966656015089e-01
         - -1.6212821217819324e+00
         - -1.0885247772394926e+00
         - 5.0309244830425381e-01
         - -2.6409350094294215e-01
         - 8.0051837231413370e-01
         - 3.0487645193602457e+00
         - -4.3768555313336748e+00
         - 8.5730202212214857e-01
         - 7.6833734842922876e+00
         - 3.4787276071636772e+00
         - 1.8290659257785309e+00
         - 8.3137041841244699e+00
         - -1.6918760074996031e+00
         - 1.2757009562460384e+00
         - 9.1721590672755504e-01
         - -1.0121268439277813e-01
         - 9.6098340967939078e-01
         - -9.5253891599260565e-01
         - 1.7589680176829636e+00
         - 1.4406260394241448e+00
         - 1.5249876132982283e+00
         - -1.1050303638204278e+01
         - -1.6942714816958054e-01
         - 2.9988182322161921e-01
         - 5.7773290900770990e-01
         - -2.8723858574770700e-01
         - -3.3961428652775556e+00
         - -4.1849425867044932e-01
         - -6.9747975487280378e-01
         - 7.4560519106051959e-01
         - 9.9328132129899132e+00
         - 8.1674831041067115e+00
         - -7.9309375956599248e-01
         - -2.6242329544100262e+00
         - -1.6070938607557301e+00
         - 7.2073221696801104e-01
         - -5.1132664025509011e-01
         - -1.6883356512147456e+00
         - -9.0837268062014864e-01
         - -1.1328891683275952e+00
         - -1.7420830716241216e+00
         - 2.9513695603820289e+00
         - 2.3650111945883823e+00
         - -1.3023326978226493e+00
         - 1.5880621820501031e-01
         - -7.3135207932773516e-01
         - -3.4339284582373875e-01
         - 1.3617456164100694e+00
         - -1.1716642447162553e+01
         - 9.2268385381360940e-01
         - -1.5607482161684878e+00
         - -3.0349130508060890e-01
         - 4.9308958801565028e-01
         - -1.8009338166185876e-01
         - 1.3421200827719468e+00
         - 4.2094149113716277e+00
         - -1.7815277118661066e+00
         - 2.0053115136158844e-01
         - -3.0879089037022456e+00
         - -1.7726544353965519e+00
         - 9.0090899779829348e-01
         - 3.0291385619348428e+00
         - -1.0002898427870586e+00
         - 1.5656662550952027e-01
         - 2.0049920428921290e-02
         - 3.9716536535210611e-01
         - -2.6287785971877278e+00
         - 1.0311319293091294e+00
         - 1.9092405102827215e+00
         - 4.2926812560109356e-01
         - 1.1025723835817075e-01
         - -5.6560850410638430e+00
         - 4.8332425871744272e-01
         - 3.5082844664808084e+00
         - -1.7291022935149564e-01
         - -7.0402066469067721e+00
         - 2.5269591612902507e+00
         - 1.9579808831457113e-01
         - -2.0078301594612769e+00
         - 2.9287658146095974e+00
         - 1.6637361621616054e+00
         - -7.3166036710773152e-02
         - 1.4350742736694114e-01
         - -2.3394256954618449e+00
         - -4.3439126275006695e-01
         - -1.6604359537219221e-01
         - 2.3349653348632465e-01
         - -5.6965438477464569e-01
         - -1.2298435990973472e-01
         - -1.6340007890950659e-01
         - 3.7982400404619265e+00
         - -4.0175154509148425e-01
         - 5.0624716988290974e-01
         - 2.6791787967799008e-01
         - -3.5730133052776574e+00
         - 4.2176568611303039e-01
         - 1.3874334311590626e+00
         - 3.3637216610237469e-01
         - 3.7475613531326015e+00
         - -1.8465648980242537e+00
         - -7.6746317009957632e-01
         - 1.8413854482240586e+00
         - -7.7963510721974494e-02
         - -1.9929482739801498e+00
         - -5.6396754541473249e-02
         - 5.8229060950403566e+00
         - 4.6855745399348903e-01
         - -8.7167672127312343e-02
         - -7.7234332804500614e+00
         - -2.0397672940078579e+00
         - 1.3728700654539763e+00
         - -8.3491625594391383e+00
         - -2.9644728746595733e-01
         - 5.0802097210079855e-01
         - 2.6131904197110735e-02
         - 7.0988577203605108e-01
         - -4.2035040171612046e+00
         - 7.8147350015951245e-01
         - 3.2369187666294263e-01
         - -6.8034344624835974e-01
         - 5.0441805139622964e-01
         - -6.0249365843704155e+00
         - 1.2006113638306977e+00
         - 1.3401027425293794e+00
         - -7.7063685457260578e-01
         - -1.4234214262192319e+01
         - 8.2170633374595194e+00
         - -7.0818834227776550e-01
         - -9.4573274429553067e-01
         - 7.6488651452020715e+00
         - 2.7203310079557830e+00
         - -9.3710861719926370e+00
         - 9.4843905373757154e-01
         - 1.6257709109961898e+00
         - -1.1528916142873527e+00
         - 1.3679646573048856e+00
         - -7.0247227253646838e-01
         - -1.3165686331719051e+00
         - -6.9468676717038769e-01
         - 7.5476502462666450e-01
         - 2.2840129208027360e+00
         - -1.9435436552226579e-01
         - 1.3383545940594441e+00
         - 8.4190243181235169e-01
         - -6.9221058759299634e+00
         - 1.0509866559408028e+00
         - 2.3014149256215450e+00
         - 1.1277718539601683e-01
         - 5.8972807061706822e+00
         - -3.1632492113326021e+00
         - -1.9998504970422193e-01
         - 2.6059957606502593e+00
         - -7.2812748314377107e-01
         - -3.7328526666572581e+00
         - -1.1746771502163085e+00
         - -1.2588335998577240e+00
         - 4.6236182211253229e-01
         - 9.7383990182919244e-01
         - -1.5092217292111036e+00
         - 6.2962733096710966e-01
         - -3.4742186831493715e-01
         - 1.2536329941738642e+00
         - 8.9432982706975261e-01
         - -1.9082253487901130e-01
         - -9.0775517417347656e-02
         - -1.7258426322696557e-01
         - 1.9854419793497129e+00
         - 3.1875962876609525e+00
         - 5.3250166710802571e-01
         - 7.8050861026034790e-01
         - 2.5069592560988957e-01
         - -1.5844929090047657e+00
         - -2.9742306356536929e-01
         - 7.0050687160873815e-01
         - 1.4914768709202308e-01
         - 7.2825459191455622e-01
         - -3.5463171632361590e+00
         - -2.4232950589789776e-01
         - -1.2617904981784898e+00
         - 8.4951695914988290e-01
         - -1.4208229192531371e-01
         - 1.5707310237769565e+00
         - -1.7624284427023398e-01
         - 8.5664545361798405e-01
         - 1.0096210082395496e+00
         - 8.7123619136031294e-01
         - 1.9437037790224262e-01
         - -2.8120290243822450e+00
         - 1.3037199348685744e+00
         - 7.2869355828154694e-02
         - 1.3038559376582499e-02
         - -1.6851080062401780e+00
         - 9.6269383114527085e-01
         - 4.1019719442929958e-01
         - -2.0973462048604430e-01
         - -6.8608395363338248e-01
         - -5.8117538791643386e-01
         - -1.0812702112333900e-01
         - -9.0612691026782777e-01
         - 2.5197194490555681e+00
         - 8.1801873440728790e-01
         - -6.3180637592472533e-01
         - -1.2329866699385210e-01
         - -3.9370013232337990e-03
         - 4.7863935615488662e-01
         - -1.0827429923886926e+00
         - 2.5372252792060324e+00
         - -3.8342907169573742e-01
         - -1.7260478174771823e+00
         - -6.3924172739259622e-01
         - -1.0371381468747369e+00
         - -1.6151175600862286e-01
         - 6.4448342494848032e-01
         - -3.0521199216265710e-01
         - 2.4322359909000163e-01
         - -1.7661334727081618e-01
         - 1.9448143820960548e+00
         - 1.5671032371770526e+00
         - 5.5919771245622030e-01
         - 1.4130780338026177e+00
         - 3.5115250055339603e-01
         - 1.9541746380870169e+00
         - -3.3489088556662966e-01
         - 6.4399219213599157e-01
         - 1.6924229819991959e-01
         - 3.3974606384817267e+00
         - -9.7310147656788359e-02
         - 2.7791572286304583e-01
         - -1.6041112037388299e+00
         - -1.7472492070053764e+00
         - -2.7786042693429622e+00
         - 9.2391656843453951e-01
         - -5.1917175790117798e-01
         - -4.1362854951124556e-01
         - 1.0980968943757656e+00
         - 6.9258114386443484e-02
         - 7.9704170422576315e-01
         - -2.2890818446803096e+00
         - 1.5688419607388528e+00
         - -5.3586304381611127e-01
         - 1.4885855549728537e+00
         - -3.1118396240818731e+00
         - 1.6893164100423481e+00
         - 3.6704494318975706e-01
         - -1.5180339864354655e+00
         - -7.7994833352291815e-01
         - 4.7953662864652813e-01
         - -7.3951025053149333e-01
         - 3.7693706434346659e+00
         - 1.5060721732170890e+00
         - -1.4504781857697036e-01
         - -1.3700433355334452e+00
         - 1.0884975955869405e-01
         - 4.3468755739101017e-01
         - -9.7414560192831445e-01
         - -3.7906433314274174e-01
         - 1.7322964160764642e+00
         - -5.0527648716388451e-01
         - -2.4749590037431091e+00
         - 2.1480515983168380e+00
         - 1.0532131620994287e-01
         - -3.6977342564664017e-01
         - -1.5200078524871102e-01
         - 1.0050953418691890e+00
         - 2.0900216152607506e-01
         - -4.3927106431397306e-01
         - 3.7520250045385048e+00
         - 1.9289878317514502e+00
         - 2.5055735468682960e+00
         - 1.8488433678302738e+00
         - 2.0321099705461845e+00
         - 1.3475952729890408e+00
         - -4.6748575254618691e-01
         - 3.1029176165449468e+00
         - 6.0750583339094788e-01
         - -2.0650222140442125e+00
         - -6.8353523407587935e-01
         - 3.1732491509958682e-01
         - -2.4510941390040273e+00
         - 8.0085922443851365e-01
         - -7.5985003995658862e-01
         - -1.2442610474938112e+00
         - -2.0071814464898696e-01
         - -5.3955012112512624e-01
         - 1.0002944026523339e+00
         - 2.0811903349467026e-01
         - -2.5119233351048276e-01
         - -1.1662302458271516e+00
         - 2.3119792088445040e-01
         - -5.6479008526640062e-01
         - -2.5632404870030151e-01
         - -9.7667739513406326e-01
         - 2.7357332765562692e+00
         - -3.0134568659472205e-01
         - -2.3816189540508539e+00
         - -1.0119815876161096e+00
         - 9.8571257807778631e-02
         - 4.6260195495038436e-01
         - -7.1235353581668093e-01
         - 2.0371343379614859e+00
         - -4.3224546987343537e-01
         - -1.4843805887648516e+00
         - 6.7933961817000599e-01
         - 1.4425534449526739e-01
         - 1.6149508881185224e+00
         - 5.3252020812263678e-01
         - 7.1742343511442075e-01
         - -3.1658304291176248e-01
         - -5.7422966687938348e-01
         - 6.3388003317315966e-01
         - 3.3149792974304571e-01
         - -7.0791197680911377e-01
         - -8.2306677798071570e-01
         - 5.0228738956359720e-01
         - -9.5101818250119582e-02
         - -3.0266263596188137e-01
         - 7.4831961584950590e-01
         - 8.2399101288344712e-01
         - 2.1251855765212038e+00
         - 8.1395320301550889e-01
         - -4.4020857571181599e-01
         - -4.4551488580256558e-02
         - -4.3258843004004749e-01
         - 2.0715095021008518e+00
         - 8.1025201259916205e-02
         - 2.9143367192877306e-01
         - 5.8004273769600911e-01
         - -4.1458359875188383e-01
         - 2.1783522237047226e+00
         - -7.0131208904159270e-01
         - 2.9026882272215122e+00
         - -6.8762897621415375e-01
         - -4.4050954112614188e-01
         - -2.0796826551470611e+00
         - -8.3702036632005106e-01
         - 1.0957350876755269e-01
         - 1.5273755651227877e-01
         - 3.6891799207681752e-01
         - 5.1549553591722730e-01
         - -7.6882167400902957e-01
         - 1.2086414641757762e-01
         - 7.6104195615695369e-01
         - -4.1049647073159784e-01
         - 2.5471453469529620e-01
         - -2.0870029994769514e+00
         - 1.5012524409239614e-01
         - -1.4811622888395728e+00
         - 1.1967992866732847e-02
         - 9.0125578488193270e-01
         - -5.9558266864844667e-01
         - 4.0222347133587033e-01
         - 5.0560283816662610e-01
         - 4.2894636475224324e-01
         - 2.2014702551484180e-01
         - -2.1492267013296359e-01
         - -1.4248053881336825e-01
         - 1.8213126730298941e+00
         - -2.6177111751525550e+00
         - 4.8889498640028874e-02
         - 3.4721166131709627e+00
         - 7.9164718043342977e-02
         - 2.7195959941311582e-01
         - 3.3110556090098725e-01
         - 1.6775486011272617e-01
         - 4.7880998097235816e-01
         - 1.9238517205031318e-02
         - 5.6961960776663223e-01
         - -9.7853231925488970e-01
         - -8.4793973528759253e-02
         - -5.7406182564022534e-01
         - 9.8133328795429631e-01
         - 1.8464638041377028e+00
         - 3.4649082407545440e-01
         - -7.1446540093429267e-02
         - 1.2184898545304317e-01
         - 3.0174763375334462e-01
         - 1.4638591421465599e+00
         - -2.7948800540583635e-01
         - 3.7033534864150169e-01
         - -1.7564240064113328e+00
         - 9.3835106533157897e-01
         - -1.0720379691561818e-01
         - 4.1255464677188008e-01
         - -2.2731359864238754e-01
         - 8.2218661233598089e-01
         - 6.0619385568807771e-01
         - 5.6789114055532952e-01
         - -1.7873357789018782e-01
         - -9.2100244758505350e-03
         - 6.7741561963021790e-01
         - -1.1159451770876820e-01
         - 2.7175118607876092e-01
         - 1.0826065767456292e+00
         - -3.9081372892964694e-01
         - 1.2837598803702917e+00
         - 2.0618730091194556e-01
         - -1.8521956768287284e-01
         - -9.2398000508034206e-01
         - 4.4565261310323976e+00
         - -2.4921066119999025e-01
         - 9.2374274614446505e-01
         - -2.0610453206286677e-01
         - -4.3029860724798008e-01
         - 6.3656357409986752e-01
         - -1.7225872130824189e+00
         - -1.2963462948486097e+00
         - -1.0114688039994779e-01
         - -3.0273720251698577e-01
         - 5.1048734294084874e-01
         - -1.7280979609773512e+00
         - -5.5072378087698481e-01
         - 1.5183267058122936e+00
         - -1.9695117977335970e+00
         - 5.2819475498736301e-01
         - 7.6241795307068885e-02
         - -1.3384341413637844e-02
         - 8.4348215172238150e-01
         - 1.2456049463927363e+00
         - 2.0715405494335188e+00
         - 2.1615067989681571e+00
         - 4.7563925445495503e-01
         - 8.6849158910618784e-01
         - -9.1616309406789243e-01
         - 3.0606417628453375e+00
         - -7.4429431425462904e-03
         - -2.8607678560741734e-01
         - 2.1832921774171545e+00
         - 8.2972641849953366e-01
         - -1.5023941158444024e-02
         - 4.9741770279673365e-02
         - 2.2360679142105413e+00
         - 1.3513312843553274e-01
         - -6.5784569550443528e-01
         - -1.6740243733431117e+00
         - -3.5218666987557345e-01
         - 2.9558213393565149e-02
         - 1.1896592474288645e+00
         - -1.5659605364829119e+00
         - 2.2690858531684168e+00
         - -1.7739035785582580e+00
         - 1.0785809161481767e+00
         - -8.1670197485393992e-01
         - -4.2087744271428140e-01
         - 1.2039890942104559e+00
         - 2.1375337419283729e+00
         - 9.1638170672047081e-01
         - -1.0746431940101799e+00
         - 5.6843056262817171e-01
         - 7.9423028120290928e-01
         - -1.0433960773818838e+00
         - -1.3726799275479318e+00
         - 1.1371204773229722e+00
         - 1.0492002641209413e+00
         - -2.0408010749779329e-01
         - 1.3355894421110048e+00
         - 1.6154103941694307e+00
         - 8.5641877812783185e-01
         - 1.8850054188463708e-01
         - -1.0068138402522728e+00
         - 2.5612185050577043e+00
         - -2.2361341832637860e-01
         - -5.3829014003043330e-01
         - 6.6495166008955497e-01
         - -4.0410091178939636e-02
         - 2.5943742867874364e-01
         - -5.9927237685465182e-03
         - 1.5234738582482863e+00
         - -8.9852196977485044e-01
         - -1.1891523128302479e+00
         - 2.2788070354544557e-01
         - -7.5235585058626187e-01
         - -4.0425353467118103e-01
         - 2.6192560170762413e-01
         - 6.2600636728935222e-01
         - 5.0877568423063402e-01
         - 2.6292692878684759e-01
         - 2.6380440409417103e+00
         - -8.1795269181248395e-03
         - 6.5148999853767486e-01
         - 1.1663913466385663e+00
         - 5.7615537838110431e-01
         - -7.8528259908462650e-01
         - -5.2862749304159150e-03
         - 9.3361245662316850e-02
         - -8.3661419445234786e-01
         - 1.2426276228929738e+00
         - -1.5985342680683398e-01
         - 5.2556690337032275e-01
         - 6.9003197134088379e-01
         - 2.5181513630254870e-01
         - 1.1416214243726019e+00
         - 4.0421816126171611e-01
         - 7.3299919810405900e-01
         - -7.4561423488176726e-01
         - 1.1201946202049724e+00
         - -5.4439968155227607e-02
         - 2.9925977482832627e-01
         - -4.6217542892294461e-01
         - 2.3928340855019786e-01
         - 4.8479630568685939e-01
         - 3.2586823867703318e-01
         - 2.3963672376623152e-01
         - -3.6981261197824467e-01
         - -7.6282729509049740e-01
         - 8.0886165129723048e-02
         - -5.7785279259671352e-01
         - 2.4886375453730656e+00
         - -1.0569838134454550e+00
         - -8.5861324679654472e-01
         - 2.1532588187849453e+00
         - 3.5348973413796986e-01
         - 7.8172326012138793e-01
         - 5.8267993487694425e-01
         - -3.5892236527710136e-01
         - -2.0618985311254354e-01
         - -2.4232491442736359e-01
         - 2.2131150858434825e-01
         - -3.1095818300626532e-01
         - 4.5830647414242126e-01
         - 2.6701590236310813e-01
         - -1.0949078909320222e+00
         - 1.0554056170476200e+00
         - -2.9133632817418122e-02
         - 1.0051199233732742e+00
         - -3.9926986988405183e-01
         - -2.6148272190094013e+00
         - 2.2409928872221117e+00
         - -5.3066835399758883e-01
         - 9.2395999505492954e-01
         - 4.5209907951715406e-01
         - -1.1741653200933795e+00
         - -7.5418866634646309e-01
         - -2.2964580453056840e-01
         - -1.2184721227226243e+00
         - 3.6489093535492367e-01
         - -2.1820476875024644e-01
         - -3.8485799133458815e-01
         - 8.4405935476462202e-01
         - -5.3475326746622354e-01
         - -1.3901327321547684e-02
         - 1.8122981475447832e+00
         - 2.9420020430646615e-01
         - -4.6970717287329589e-01
         - 2.5931592005845900e-02
         - 3.7521091349234355e+00
         - 2.9833519319942986e-01
         - 3.8971438568414837e-03
         - 3.8428961821926499e-01
         - -4.1383137357877869e-01
         - -7.9837844105810174e-01
         - -1.4976291320046642e-01
         - 9.7919303509783273e-01
         - 4.5552583019863657e-01
         - -1.2700659987547684e+00
         - 5.1058981995785491e-01
         - 3.0534134118336342e-01
         - -5.5452358006369940e-01
         - -1.2194065506520624e+00
         - 1.9903079410880258e+00
         - -1.0873664133999765e+00
         - -2.4434986813908885e-01
         - 5.8935988801697481e-01
         - 8.5682687154235937e-01
         - 2.5067037269154391e-01
         - 2.2693276694057726e-01
         - -2.1151808564381352e-02
         - 3.3293167833182618e+00
         - -1.0844718373541262e+00
         - 2.3931500755868509e-01
         - 2.1615895157773771e-01
         - -4.2176432280482395e-01
         - 4.4287933659950213e-01
         - 1.3009666205564624e-01
         - 1.1232593811283134e+00
         - 4.1453563522729348e-01
         - -3.0026973383107985e-01
         - 3.2130629671487556e+00
         - 1.1502219542050021e+00
         - -3.5666628584561200e-01
         - 1.7211251682688392e-01
         - 3.4773527348864558e-01
         - -2.4948415602526183e-01
         - 8.7938600426803640e-02
         - -2.5299350819469713e-01
         - 8.7793297979276286e-01
         - 2.0007421345357307e-01
         - 3.4839859997798922e-01
         - 9.7768911816113224e-01
         - 4.2810593078484094e-01
         - 4.7441488963700962e-01
         - -5.3950846900491622e-01
         - 1.4710302745501829e+00
         - 1.2796432988241815e-01
         - 8.8362203893673830e-01
         - -1.3328052148575888e+00
         - 1.0809919849614195e-01
         - 8.2849843038842567e-03
         - 2.3433270129366168e-01
         - -1.4650807154862711e-01
         - -8.7561233695652607e-01
         - -6.4045691297219431e-01
         - -2.5566838325076641e-01
         - -8.7643638023344725e-02
         - -2.8940906629925034e-01
         - 6.5907780722674802e-01
         - 1.4989581811795509e+00
         - -6.5319403651646513e-02
         - 1.0120828857052941e+00
         - 9.0365058217288252e-01
         - 2.2354238944406513e+00
         - 2.2409221030567253e-01
         - -4.3696102704712458e-01
         - -4.7447522103250650e-02
         - -3.0705278861522917e-01
         - -5.9644229489870448e-01
         - -1.1823318792035077e-01
         - 1.4397765785875660e+00
         - 7.5077863857575644e-01
         - -6.1024397965562216e-01
         - 6.2192970687507432e-01
         - -1.7655449760721351e-02
         - -8.3038223982276860e-01
         - 1.6483552337751756e-01
         - 1.4383162376874972e+00
         - 2.5136267774601162e-01
         - 2.8862179515696931e+00
         - 1.2011911705956981e+00
         - -8.0932374312247712e-01
         - -1.9839266348495694e+00
         - -7.8160200554136222e-02
         - 1.0822963360439990e+00
         - 1.7408678265637607e+00
         - 1.0245344702845530e-02
         - -5.2603169123734905e-01
         - 6.3696918149691784e-01
         - 8.4968637191336194e-01
         - -1.0989738219224267e-01
         - -1.3871831428130783e+00
         - -1.1276681065176315e+00
         - -1.7838684043284830e-01
         - 4.1444602958727794e-01
         - -3.4319738823184864e-01
         - -5.1640183845613685e-01
         - -6.1960954003595792e-01
         - -5.2945795470274870e-01
         - -5.8405680046195396e-01
         - 9.0617227884866244e-02
         - 3.7077102310737864e-01
         - -5.8701734757119199e+00
         - 1.1036096752432265e+00
         - -1.1495057940686502e-01
         - -5.5736320031418751e-01
         - -4.9308919203012763e-01
         - -1.3215367156228615e+00
         - 5.6257163749889882e-01
         - 1.1184806789277055e+00
         - 2.5002165887497276e+00
         - 1.3690422905665334e-01
         - -4.0735012326195239e+00
         - 1.9415372217429916e+00
         - 6.6668243421258311e-01
         - 6.3862281797621256e-01
         - -9.7285287941345255e-01
         - -1.9761205470187529e-01
         - -2.7596363690663661e-01
         - -3.4973063036301250e-01
         - -1.8503685348630272e-01
         - -4.2344888620342906e-02
         - 9.0076080499188604e-01
         - 1.0154453419679881e+00
         - -1.9320252745005692e-01
         - 1.5527123120652497e+00
         - -1.0100629198856610e-01
         - 3.2097551298699947e+00
         - 3.6032572231896937e-01
         - -2.3902512578067148e+00
         - 1.2908774239914989e+00
         - -1.9056749073897339e-01
         - -1.1955596220868105e+00
         - 1.3210763943744483e+00
         - -2.4974088072983958e+00
         - -7.2468335386358362e-01
         - -4.1302118961792655e-01
         - -1.6488327883183271e+00
         - 4.6305168579399053e-01
         - -3.2273445020849051e-01
         - -1.6478093004120065e-01
         - -9.9597158557313448e-01
         - -2.2215492633815717e+00
         - -4.0377459181942493e-01
         - 2.8091154727236214e+00
         - -1.6778568188482010e+00
         - -1.6440324783377471e+00
         - -5.3536761112905473e-01
         - 1.7072306260217027e-01
         - -4.0600476901988203e-01
         - 6.1730169801658186e-01
         - 1.2775222014754900e-01
         - -1.2933486468987985e+00
         - -3.5943540693321334e-02
         - -6.4385007885221390e-01
         - 4.1450103718413212e-01
         - 4.2171151146397617e-01
         - -1.5656751514448211e+00
         - 7.5073001121774216e-02
         - 6.1220759223284116e-01
         - 4.3669948943902676e-01
         - -3.2527801763030767e-01
         - 1.8251643793625718e+00
         - -8.3191310933983320e-01
         - 9.1220068966272538e-01
         - -4.5191208267483134e+00
         - -5.3892708703437886e-01
         - 1.8884752849827521e-01
         - -1.0750141409577593e-01
         - -1.0564944159406943e-01
         - 1.8855632141167124e-02
         - -2.3393195995862170e-01
         - 7.9953493673026399e-01
         - 5.3812039085616525e-01
         - 7.3934930785381447e-01
         - 1.1294603237647900e+00
         - 3.5276371062319550e-01
         - 2.8915207945220600e+00
         - 1.0684908808003319e+00
         - 8.2654226484977589e-01
         - 1.1055509403912893e+00
         - -2.1529649993201851e+00
         - -1.2338108365347291e+00
         - 1.6880639772392242e-01
         - -1.7108848938192209e+00
         - -1.7171066424596693e+00
         - 2.4868214325208635e-01
         - 5.9240542933150231e-01
         - 2.1943523084497413e-01
         - -1.3675239859801899e-01
         - -1.3650876174837430e+00
         - 6.8624652351100901e-01
         - -1.0536424985151829e+00
         - -2.3415209091316353e-02
         - -9.1298618331172721e-01
         - 1.4532756346661064e+00
         - 9.7091216361275778e-01
         - -6.2055409966609887e-01
         - -4.7093385826965770e+00
         - -5.2306320600800460e-01
         - -6.6865703922591424e-01
         - 6.1263436617670453e-01
         - 5.0017428989419770e+00
         - 1.4472461777533194e+00
         - -3.9267664974728866e-01
         - -1.6400543125642941e+00
         - -3.5508255377732506e-01
         - -1.8966070348667971e-01
         - 9.5058863807193050e-01
         - 6.0726447343491430e-01
         - -1.7881897555448991e+00
         - 1.9508152418361209e+00
         - 2.3773444711916736e+00
         - 6.5889868997092904e-01
         - -2.2502898304078034e+00
         - 1.3701427418111221e+00
         - 5.7275611346756190e-02
         - -4.0384876210955828e-01
         - 9.6829373545721270e-02
         - -2.0087619947277557e-01
         - -6.6652645105389471e-02
         - -2.0640126935517089e+00
         - -1.4448391923518777e+00
         - -7.4154567592152021e-01
         - -5.5420622121105101e-01
         - -7.7014227706275651e-01
         - -1.2473944327295314e-01
         - -2.7809022367308738e+00
         - -1.1373276962053687e+00
         - 2.4274387541358244e+00
         - -1.2498724809708823e+00
         - 6.4311104446587963e-01
         - 3.0058655886823238e+00
         - 1.0146582433416840e+00
         - 4.1781810767784195e+00
         - 3.0069121665956371e+00
         - 1.6190589428561242e-01
         - -1.1415133872720449e+00
         - 8.9220978931594253e-02
         - 3.1026024446809669e-01
         - 1.9705792785490095e-01
         - -1.3770424224394622e+00
         - -5.4998053366865737e-02
         - 2.6945607842248193e-01
         - -6.8331190396559083e-01
         - -1.3161029454777640e+00
         - -6.8883649396036306e-01
         - -7.1067044585426023e-02
         - 2.1996099058220282e+00
         - -5.9246988411538004e-01
         - 1.3082130107946184e+00
         - -1.7274617868547079e-01
         - -4.2313031569614994e+00
         - 1.3310834036213097e+00
         - 3.3925424841342794e-01
         - -1.0036990734548877e-01
         - 6.0871502276813627e-01
         - 1.2577695030341240e+00
         - -1.0167025365795264e-01
         - 1.6485411920358931e-01
         - 2.6519929011690175e+00
         - -6.4421680357413702e-01
         - -3.4180729310954492e+00
         - -1.0073435891113374e+00
         - -2.5658900167947967e+00
         - -4.9155025705108346e-01
         - 1.4273281662443002e-01
         - -4.2410041936347964e-01
         - 2.0497751634439598e-01
         - -1.4753151331642816e-01
         - -1.9417358814252133e+00
         - -1.7305303729458785e+00
         - 7.4142169916125567e-01
         - 1.0481092123234901e+00
         - -4.3596699003142475e-02
         - 3.6227138599387891e+00
         - -9.4223744103960416e-01
         - -1.3137504380760969e+00
         - -7.5352609997225262e-01
         - 1.9699474310868284e-01
         - 8.3780545157010489e-01
         - 6.3588030265824358e-01
         - 2.4568286137970006e+00
         - 5.5607636752659584e-01
         - -7.0260640012143449e-01
         - 2.7941440568031928e-01
         - -6.7264996634922747e-01
         - -1.5618840193950556e+00
         - 9.0605160498785742e-01
         - -9.0509263678360563e-01
         - 3.5386334541038783e-01
         - -6.7313330639619529e-01
         - -4.9214212143832331e-01
         - -9.4258095400262676e-01
         - 8.5042583612457134e-01
         - -1.5271866726712278e+00
         - -2.2889772923361867e-01
         - -3.1215495622153731e-02
         - -4.8128712320527144e-02
         - -7.9803228046359365e-01
         - 1.5257225862315078e+00
         - 2.4390367123062026e-01
         - 1.4407433504720770e+00
         - 8.3548231400942682e-02
         - -1.3457804024584769e-01
         - 7.2531791677680224e-01
         - 1.5861567505935232e+00
         - 1.5403164862638203e+00
         - 5.0163261100132939e-01
         - 1.5048820790505077e+00
         - 1.1570486886391027e+00
         - -6.7760718251403806e-01
         - -5.6867905144116426e-01
         - -2.7239548405207517e+00
         - -1.2138166657556155e+00
         - -4.9525832729179404e+00
         - -9.0833913190981030e-01
         - 5.5969469813548289e-01
         - 1.4937117441055063e+00
         - -1.5932517632685092e-01
         - -2.6196880297097143e+00
         - -3.7060489178737095e+00
         - 5.7839506547060926e-01
         - -4.3286175343844752e-01
         - 7.3112201855307324e-01
         - 4.1147289761663615e+00
         - -5.5908421624431337e-01
         - -5.7900516623293301e+00
         - -5.6312811982175881e-01
         - -1.1317379742155396e+00
         - 2.4534783334656436e+00
         - -1.0858071718868492e+00
         - 5.0393431649983969e+00
         - 1.0288895356518977e+00
         - -4.5704626131549125e-01
         - -2.4223639885174739e+00
         - -5.0532600442368680e-03
         - -8.3190173684169255e-01
         - -1.7937823686082657e+00
         - -6.4694664617518405e-01
         - -8.9139400161872884e-01
         - 8.9010215808387128e-01
         - -1.1235378226898893e+00
         - -8.7332125907181243e-02
         - 2.3869683160841473e-01
         - -1.2315506553781819e+00
         - 5.0654314890804475e-01
         - -4.5796957879604433e-01
         - -2.3646551699092586e+00
         - -8.9843434417395063e-01
         - 7.7387126701715336e-01
         - -2.5067397040480680e-02
         - 4.0759356567530975e+00
         - 1.1038118227990887e+00
         - -2.7241850917951443e-01
         - -4.2681466896171583e-01
         - 1.2730983440910326e+00
         - -6.0787134431029816e-02
         - -2.0496481294726410e-01
         - 4.7602610841618942e-01
         - 4.5858159423287137e-02
         - 6.6822376465059807e-01
         - -2.7106461021953323e+00
         - 9.5331837396425900e-01
         - 2.6338514913024169e-01
         - -9.4101363364705903e-01
         - 1.0492244407039224e+00
         - -1.3043779434487348e+00
         - -5.2903216736111736e-01
         - -1.9787712508658650e-01
         - 2.3519594214385586e-01
         - 2.5736686634356629e+00
         - -9.0605612705761418e-01
         - -1.2889619945014239e+00
         - -1.3233482392438578e+00
         - -1.0155359244299491e+00
         - 6.0941028866249869e-01
         - -2.5869236364715453e-01
         - -8.5425225036028918e-01
         - -1.2649619278367197e+00
         - -3.5130326030217343e+00
         - -4.9686698186511791e-01
         - 2.4273023101091001e-01
         - -2.1540159959409114e-01
         - 1.7237464378591574e+00
         - -4.9884919648739678e-01
         - 3.5396300922661311e-01
         - 4.4405438091509627e-04
         - 3.4134980533214920e-01
         - 3.4304350638610576e-01
         - -3.8226651583362681e-01
         - -1.0239870985460724e+00
         - 1.9474009113700060e-02
         - 7.3375521095557317e-01
         - 2.8894262495303485e-01
         - 4.0679425527323471e-01
         - -1.2056459429547108e+00
         - 1.0270225321528266e+00
         - -2.9287715773433182e-01
         - 1.6931671683576358e-02
