%YAML:1.0
---
opencv_ml_ann_mlp:
   format: 3
   layer_sizes: [ 75, 50, 20, 1 ]
   activation_function: SIGMOID_SYM
   f_param1: 5.0000000000000000e-01
   f_param2: 1.
   min_val: -9.4999999999999996e-01
   max_val: 9.4999999999999996e-01
   min_val1: -9.7999999999999998e-01
   max_val1: 9.7999999999999998e-01
   training_params:
      train_method: BACKPROP
      dw_scale: 1.0000000000000001e-01
      moment_scale: 1.0000000000000001e-01
      term_criteria:
         epsilon: 1.0000000000000000e-04
         iterations: 10000
   input_scale:
      - 3.3806859934770152e-02
      - -3.3754096875470787e+00
      - 2.8006708104835416e-02
      - -3.2616108031017443e+00
      - 2.6156492928548557e-02
      - -2.1827265074953099e+00
      - 3.3553769363410625e-02
      - -3.3582850239512920e+00
      - 2.8085448736911576e-02
      - -3.2599160326570180e+00
      - 2.6088367896593564e-02
      - -2.2011538558006003e+00
      - 3.2758401144948421e-02
      - -3.3151824420825347e+00
      - 2.7952842458218451e-02
      - -3.2621284592174256e+00
      - 2.5207181160678920e-02
      - -2.1825595603983214e+00
      - 3.2876261713181462e-02
      - -3.3221910594595601e+00
      - 2.8004338619969718e-02
      - -3.2760823200618403e+00
      - 2.5265508553641406e-02
      - -2.1762659157328450e+00
      - 3.3153856458212519e-02
      - -3.3388126228500572e+00
      - 2.8065757637672415e-02
      - -3.2887950750423052e+00
      - 2.5416750393561994e-02
      - -2.1665467960844533e+00
      - 3.3625514869134704e-02
      - -3.3573283722906164e+00
      - 2.8002467552195431e-02
      - -3.2522020186713596e+00
      - 2.6119324763241348e-02
      - -2.1885460875973326e+00
      - 3.3425608728902566e-02
      - -3.3444749167107890e+00
      - 2.8118466405075388e-02
      - -3.2535893063742614e+00
      - 2.6103785840187656e-02
      - -2.2123111516986058e+00
      - 3.2268706156430418e-02
      - -3.2871020819319492e+00
      - 2.7860894791029277e-02
      - -3.2635058270386459e+00
      - 2.4732577323172671e-02
      - -2.1761085646269733e+00
      - 3.2624553816899750e-02
      - -3.3045829600189505e+00
      - 2.7987793653300761e-02
      - -3.2730860823141574e+00
      - 2.5097996936789851e-02
      - -2.1801724456348390e+00
      - 3.3029873185005609e-02
      - -3.3254035695939557e+00
      - 2.8090857458702673e-02
      - -3.2831633947948804e+00
      - 2.5471394005976294e-02
      - -2.1746334397325917e+00
      - 3.3282595546124658e-02
      - -3.3320978761384343e+00
      - 2.7956436608552508e-02
      - -3.2469639853546348e+00
      - 2.5885575653682359e-02
      - -2.1863926028687848e+00
      - 3.2907018540179571e-02
      - -3.3120883759380213e+00
      - 2.7968369486909932e-02
      - -3.2465971122539741e+00
      - 2.5612620738531683e-02
      - -2.2016013436698314e+00
      - 3.0726102768563305e-02
      - -3.2063120012004664e+00
      - 2.7325000787871336e-02
      - -3.2659973423246389e+00
      - 2.3052554677007776e-02
      - -2.1171574619437497e+00
      - 3.2814472960804114e-02
      - -3.2997323400402605e+00
      - 2.8026198775747475e-02
      - -3.2517240641093341e+00
      - 2.5559330638775239e-02
      - -2.1996847896830132e+00
      - 3.3167632981179050e-02
      - -3.3231929384033689e+00
      - 2.8080218522199007e-02
      - -3.2626715597411260e+00
      - 2.5744672069673017e-02
      - -2.1829580280472536e+00
      - 3.3747599462338622e-02
      - -3.3797170476751952e+00
      - 2.7992820308098413e-02
      - -3.2778551474237374e+00
      - 2.5914151782249348e-02
      - -2.1729852241410268e+00
      - 3.3150931333981885e-02
      - -3.3437996183370804e+00
      - 2.7957817341569480e-02
      - -3.2782999116225948e+00
      - 2.5391228386532974e-02
      - -2.1760523066935535e+00
      - 3.2673588553503267e-02
      - -3.3116258537487733e+00
      - 2.7845981239010789e-02
      - -3.2700239207434487e+00
      - 2.4871240284201790e-02
      - -2.1636780459168774e+00
      - 3.3655989554585458e-02
      - -3.3520406615044598e+00
      - 2.8099978869678337e-02
      - -3.2575028104879049e+00
      - 2.6272318128883854e-02
      - -2.2007553878981940e+00
      - 3.3916598485935347e-02
      - -3.3787016754753898e+00
      - 2.8109476896321622e-02
      - -3.2764856340293864e+00
      - 2.6206648980966103e-02
      - -2.1768721307184604e+00
      - 3.4484966412408440e-02
      - -3.4443905428542778e+00
      - 2.8074624512240867e-02
      - -3.3094871369553012e+00
      - 2.6219902812475267e-02
      - -2.1657974884104143e+00
      - 3.3824540781527961e-02
      - -3.3944891338909069e+00
      - 2.7954425364646287e-02
      - -3.2959621322270070e+00
      - 2.5686635814323417e-02
      - -2.1551683353077506e+00
      - 3.3743936911533517e-02
      - -3.3887368788334054e+00
      - 2.8026067625659713e-02
      - -3.2965373219955363e+00
      - 2.5598889767763363e-02
      - -2.1620714090286217e+00
      - 3.4136380567510602e-02
      - -3.3944544857142316e+00
      - 2.8064986556472715e-02
      - -3.2807088946353580e+00
      - 2.6372733987888031e-02
      - -2.1723094489485106e+00
      - 3.4675886417334545e-02
      - -3.4473038083319953e+00
      - 2.8151825242666066e-02
      - -3.3070900951910285e+00
      - 2.6587646894455069e-02
      - -2.1697794612632233e+00
   output_scale:
      - 1.0526315789473684e+00
      - 0.
   inv_output_scale:
      - 9.4999999999999996e-01
      - 0.
   weights:
      -
         - -1.4502027413005254e+00
         - -1.8925867238272689e-01
         - 2.5128399372847804e-01
         - 6.1999831442770448e-01
         - 6.6922932852235306e-01
         - 3.3232858794959508e-01
         - -7.2651742825315635e-01
         - -3.5458649666570485e-01
         - 3.5257921759572472e-02
         - -8.9620979879705231e-01
         - -4.1059745881690368e-01
         - -6.2546359295455078e-01
         - -5.5016210436283153e-01
         - 6.3231202829680921e-01
         - 3.4617604439704158e-01
         - 5.0590287281392796e-02
         - 1.0984980738376615e-01
         - -9.1400229356273988e-01
         - 1.9759317592500467e-01
         - 2.0807461619202043e+00
         - 1.6322540576059202e-01
         - 2.9980497200304324e-01
         - -4.0819030519778993e-01
         - -6.9656228262593739e-02
         - 1.3753456836928998e-01
         - -1.3975292943800532e-01
         - 4.3686273657069219e-01
         - 4.5013744196659727e-01
         - -7.0312308725510886e-01
         - 2.7916564555406048e-01
         - 9.5396294621590183e-01
         - -7.3013129452802261e-01
         - -8.2154735890784669e-01
         - -1.0118075112915395e+00
         - -3.1064401707745568e+00
         - 6.1676705627810656e-02
         - 3.0192868261312172e-01
         - -1.5208874684331235e+00
         - -4.1141396870375466e+00
         - 1.8234859776122869e-01
         - 1.6804570276299067e+00
         - 2.6190150417591651e+00
         - 1.3829246275144058e-01
         - 1.2850768208250743e-01
         - -4.7746412254482591e+00
         - 6.7758802261347340e-01
         - -5.8163038491793002e-02
         - -2.2646594372837206e-01
         - -1.8537005128913497e-01
         - 1.6638946691561397e-02
         - -4.7808651736639248e-03
         - -6.5939390673176124e-01
         - -3.2219466984376754e-01
         - -3.4653681229977540e-01
         - 1.9670048969920717e+00
         - 2.7219281845252991e-01
         - 1.6761277695375423e+00
         - -6.5496855691743017e-02
         - 5.7463926140872978e-01
         - 5.0176455564873979e-01
         - -2.9964094025214721e-01
         - 3.6740283155605358e-01
         - -4.4784346376889428e-01
         - 3.5731430445139944e-01
         - -1.7721050105550489e+00
         - 2.0201897487998247e-01
         - 9.8503986631123786e-01
         - -1.9982406035266306e-01
         - 8.1206560084520629e-01
         - 4.7950619318371537e+00
         - -7.9405419938150257e-03
         - 3.4064215727590480e-01
         - -3.9111556660945557e-01
         - 5.8289783158504682e-01
         - 2.2567933313147191e-02
         - -9.4916329933554963e-02
         - 1.0186524205262575e+00
         - -9.5662343340227207e-01
         - 2.8613117647971489e-02
         - 2.1725441664748555e+00
         - 3.0361052184604131e-01
         - 1.4698090126910512e+00
         - -6.1607701551117766e-01
         - 8.4469073885551504e-01
         - -2.1227758500225513e+00
         - -8.2046667642029505e-04
         - 8.4480479118810314e-01
         - -8.8192414690753163e-01
         - -5.8492614383564625e+00
         - 1.4382730172910449e-01
         - 1.9940971176520987e+00
         - 1.5272354750928567e+00
         - -3.0431042078774134e-01
         - -2.4870727618323551e-01
         - -2.6178381363739303e+00
         - 1.9579772536981205e-02
         - -1.2155194697145359e-01
         - 2.7772299731790373e-01
         - 8.1178585171545770e-01
         - -9.3611688028167730e-02
         - 1.5544514317952924e+00
         - 7.5940509106502596e-01
         - -3.8019175861628396e-01
         - -1.8972005402855002e-01
         - 3.3026374181238349e-01
         - 4.8763864169528198e-01
         - -1.7025404868077525e+00
         - -1.0494695436364361e+00
         - -5.7556732664202651e-02
         - 4.9106834902651519e-01
         - -8.3181353349797482e-02
         - 1.4300724399390501e+00
         - 1.8078146435827711e+00
         - 7.1246947864035326e-01
         - 6.8344652921477866e-01
         - 9.1953707208561664e-02
         - -1.7969720875693515e-01
         - -6.7296755954591281e-01
         - -5.0507847039549181e-01
         - -1.3048606997684038e+00
         - 1.3201782920025837e-01
         - -9.9500104976945747e-01
         - -8.5418016220333251e-02
         - -4.0536116025927249e-01
         - -2.0712719586903358e-01
         - -4.1735080380399836e-01
         - 5.4399533320769522e-01
         - -1.0622008284247137e+00
         - 1.0015225195301414e+00
         - 4.6123127684612919e-01
         - 1.5764268107455017e+00
         - -6.9192343807539625e-01
         - -1.9565594967642379e+00
         - 1.9349847773007938e+00
         - -3.2757073494997120e+00
         - -1.1894679715646882e-01
         - 3.2367789614889467e-02
         - 2.5576180558834205e-01
         - -3.0531487788439184e+00
         - -6.3788901932061370e-01
         - -9.2542967060914097e-02
         - 4.5592969610695437e+00
         - -2.1715994096902930e-01
         - 3.2599812513060517e-02
         - 6.1811778116410432e-01
         - 2.0997288248136189e-01
         - 9.8064690987537806e-01
         - -1.7770103373513377e-01
         - -1.0833445571512501e-01
         - 1.0076693291092722e-02
         - -9.9420961629547588e-01
         - -1.2112952244953434e+00
         - 5.6450087821563610e-01
         - 7.4865398556781682e-01
         - -1.4493210414811220e-01
         - -3.1742009711880576e-01
         - -5.2384358097872719e-01
         - -3.9266280802931364e-01
         - 3.5748454624348480e-01
         - 1.6460565142610231e-01
         - 1.4741688575045025e-01
         - -1.8198493892565762e-01
         - -5.5348120675041401e-01
         - 2.6816473135480140e-01
         - 8.0347007898721767e-01
         - -4.0872792539578112e-01
         - 4.0025202449371450e-01
         - -4.0456842899498563e-01
         - 3.6677932408167840e-01
         - 1.2724935139565938e+00
         - -6.7362897344291894e-01
         - -3.7933020063137984e-01
         - -2.9660384933693529e-01
         - 3.5695382233854690e-02
         - 2.2882727352835694e-01
         - 5.4337143784985231e-01
         - 3.7969589936430947e-01
         - -2.4407738267579204e-01
         - -4.2624814510472409e-01
         - 2.2436488096801255e+00
         - 1.7667546067189746e+00
         - -4.1308584941367377e-01
         - 7.5159149176793194e-01
         - -1.2729444114536255e+00
         - -1.6857687703335347e+00
         - 5.2723428562625341e-01
         - -4.8672535500434731e-02
         - -1.1097825377113875e+00
         - 8.4506344289529287e-02
         - 5.6445117884614107e-02
         - 1.6241893442728468e+00
         - -1.2429830556222123e+00
         - 4.5697702198793533e-01
         - 6.4010029051153128e-01
         - 9.7290799549570917e-01
         - 2.9301163225156068e-01
         - 7.8547082070780316e-01
         - 3.8638804862327075e-01
         - 2.8543172675484504e-02
         - -5.5264882312357044e-01
         - 5.6274020662331947e-01
         - -2.8478726688506808e+00
         - 2.7875674164685969e-02
         - -1.3122913197455757e-01
         - -1.0253319828707830e+00
         - -1.9338907602822625e-01
         - 1.4953766321375539e-01
         - -1.3005310282076360e-01
         - 8.1814282603336363e-01
         - 3.4833120807165789e+00
         - -2.0635831607856123e-01
         - -4.7615150444366877e-01
         - 5.2376343318347429e-01
         - 6.3725447511739697e-01
         - 1.2150126890937647e+00
         - 9.8444437730455317e-02
         - 1.0165279704766237e+00
         - -4.7990064288616469e-01
         - 8.9465389400439799e-01
         - 3.4307506051583094e+00
         - -3.2177402699499286e-02
         - 1.5770501333571901e-01
         - -5.6821378868338157e-01
         - 6.1762062098641446e-01
         - -6.2376218055235855e-01
         - 2.2718292525815226e-01
         - 3.9976775825389221e-01
         - -1.2239330008712852e+00
         - -5.9972197221058732e-01
         - 3.0748167986103394e+00
         - 1.6636288930949195e+00
         - 8.9184443402389613e-01
         - -1.6464898900907894e+00
         - 9.9342394193414596e-01
         - -2.1723500728453726e+00
         - 2.5850280246603341e-01
         - -1.0993670898738861e-01
         - 7.3738222713869062e-01
         - -3.0101586160124159e+00
         - 3.5090641271430173e-01
         - 1.5112693576081251e-01
         - 1.1945877757172598e-02
         - -9.4262774925747445e-02
         - 2.2440001978371135e-01
         - 7.7743834948622326e-01
         - -3.1604051344348744e-01
         - 3.2029484024642185e-01
         - 9.4492489329792617e-01
         - -7.8706069977337693e-03
         - -1.4803099413084400e-01
         - 8.5987194186676219e-01
         - -1.6369587495296919e-01
         - -1.4631790843294212e-01
         - -1.8293585596936404e-01
         - 3.6704995638143958e-02
         - -1.3726699957080088e-01
         - -2.4215571464983019e+00
         - -1.3350725493428313e+00
         - 3.6609848143782314e-01
         - -2.3028387204367222e+00
         - 6.3250151102734520e-01
         - 1.3840584415294686e+00
         - -4.2696785641886614e-01
         - 3.6451820050920014e-01
         - -2.0123913730538634e-01
         - -2.2568947330733607e-01
         - 7.2650395435160334e-03
         - -3.3807148089239036e-01
         - -3.4335731461691088e-01
         - -2.3387067006884887e+00
         - 3.2959052789438607e-02
         - -1.4540692317959083e+00
         - -2.8345264528134917e-01
         - -2.5973082285105914e-01
         - -3.7061259174643246e-01
         - 1.6323763219132539e-01
         - -1.9689651735100407e-02
         - -8.3597342272452690e-01
         - 9.7042028031297389e-01
         - 4.0233091876927968e-01
         - -4.9121873740807853e-01
         - 6.0997662844145806e-01
         - -9.3022754182862322e-02
         - 1.4534242380872645e-01
         - -6.6722978170252043e+00
         - 2.6539506985801042e-01
         - -3.0502346455578722e-01
         - 1.4477155077971560e-01
         - -9.1815548093842947e-01
         - -5.6348836142324021e-01
         - -1.1716831416375357e+00
         - -9.0990173802074648e-01
         - 3.1525559159586901e-02
         - 5.1767160361944187e-01
         - 3.4755904629178680e-01
         - 5.7366697485860174e-01
         - 1.5863191221111199e+00
         - 6.7024201406142481e-01
         - 4.5687676636155006e-01
         - -1.3767401254041825e-01
         - -2.4605060672219625e-01
         - -9.0673703562881369e-01
         - 2.1566686486480613e-01
         - 8.7326033965936978e-01
         - 1.8965170162747051e+00
         - 2.3894487643252910e-01
         - 3.7759673842717931e+00
         - 3.2970370225471897e-02
         - 5.8865983233742029e-02
         - 2.7199447515587196e-02
         - -3.7800625191742904e-01
         - -4.8733316163266267e-02
         - -1.1187555089234906e+00
         - -5.4644766125742317e-02
         - 1.9204818621718525e+00
         - -1.8145181502803620e-01
         - 1.8168112715650211e-01
         - -3.5282707066622045e-02
         - -5.3254350095903402e-02
         - 1.3178348208050765e+00
         - -5.0033979090816072e-01
         - 4.4841989400551591e-01
         - -6.8678348173606268e-02
         - -1.3890366826944472e-01
         - 1.8758325559166056e-01
         - 1.1869725899736848e-01
         - -9.9360969656845211e-02
         - -9.7114646313928799e-01
         - -5.0647313669115823e-01
         - 1.0954712136458755e+00
         - 3.2343973802877679e-01
         - -8.9702022636894127e-02
         - 1.3388070061691073e+00
         - -1.2222185522545381e+00
         - -1.2778067954597629e+00
         - 3.0507761927646793e-01
         - -3.5837563791873539e-01
         - -1.4823704732627032e+00
         - 1.7645981443738656e-01
         - 2.7517702041781164e-03
         - 2.3119076451527296e+00
         - -1.7210454246299909e+00
         - 4.8352731385961523e-01
         - -1.7718563722877223e-01
         - 4.5510971087526081e-01
         - -1.3814449414261337e-01
         - -3.1267729110519610e-01
         - -6.4414716416730633e-01
         - -2.7158913345625896e-01
         - -2.7612083651240532e-01
         - 1.9712757669730521e+00
         - -1.3974820994312223e+00
         - -8.4195904233037611e-01
         - -1.4249039785495605e+00
         - -1.9273334900728752e-02
         - -1.1254528453347093e-01
         - 4.3895001092414017e+00
         - 2.7338076168801523e-01
         - 2.2431514397523075e-01
         - 1.8743958670620300e-01
         - -1.5063951745085022e-01
         - -7.2891034034831292e-01
         - 1.1100821577190143e+00
         - 1.5913928329902757e-01
         - 1.4726061165986248e+00
         - -5.1722271641481125e-02
         - 2.5168875154360953e-01
         - -2.5251248132355730e-01
         - 1.4684659258321034e-01
         - 1.4899522720604306e+00
         - 7.1320942333226800e-01
         - 4.9020041448660484e-01
         - -3.5159177688505966e-01
         - -6.1425111531594044e-02
         - -6.3566991113318994e-01
         - 6.6280111227880148e-02
         - -7.3831211209437064e-01
         - -1.5939751487729656e+00
         - -5.7563650513044229e-01
         - 5.2549477719000626e-01
         - -1.3080460071537734e+00
         - 4.0419508632589873e-01
         - -7.1047652425890806e-01
         - 1.8530396626802845e+00
         - -6.7758066589614341e-01
         - 1.6910079757923155e-01
         - 3.0116419012683809e-01
         - -1.1766802096948561e+00
         - -1.5545409687676430e+00
         - -4.1739905001829353e-01
         - -2.5670901053359402e-01
         - -1.4799080087371823e+00
         - -3.8101797524112371e-02
         - -6.4285982553969945e-02
         - 1.6867930719022184e+00
         - -1.0978163900996751e+00
         - -1.6491538529173225e-01
         - 2.3289200833507346e-02
         - -2.9899764925863287e-01
         - 3.8037100507934274e-01
         - 2.2174847048268269e+00
         - 1.6015398321889218e+00
         - -9.0409121142475568e-01
         - -8.5288335823923234e-01
         - -7.7947952662139475e-01
         - 3.3958743161553458e-02
         - 2.7557663828129026e+00
         - -1.6562079026971785e-01
         - -1.6334984935930441e-02
         - -1.0888335851824595e+00
         - 2.1279722621078936e-01
         - -1.0112762511555136e-02
         - -9.2597102854685231e-01
         - -2.3191536042382457e-01
         - -1.6497462757975543e+00
         - -2.2162961588608557e-01
         - -3.3521347228489784e-01
         - 1.9152390028114352e-01
         - -7.8455054224213350e-01
         - -1.1255469318017790e+00
         - 9.6430491243455008e-01
         - -2.7947200979676962e-01
         - 6.0087492732556744e-02
         - -4.1315838455574744e-01
         - -1.3773452488331408e+00
         - -4.2661455598451005e-02
         - -7.9395200756444773e-01
         - -2.1845241689348760e-02
         - -7.8170811346717856e-02
         - 2.9760996182549238e-01
         - 2.5679647495775942e-01
         - -4.0471680495090839e-01
         - 1.3727525826654290e+00
         - 2.8778107650369820e+00
         - -1.6185555599306973e+00
         - 1.8266324396148118e-01
         - 1.2501043162666103e-01
         - 3.5539857914322071e-01
         - -1.9818087612497868e+00
         - -3.0696800951673980e-01
         - -1.6182140612621456e+00
         - -1.8222087654768226e+00
         - 6.8577799805455253e-02
         - 1.1663932372998873e-02
         - -5.9775497421689183e-01
         - -7.1600750661013590e-01
         - -3.8342907004593335e-02
         - -3.8297819957124957e-01
         - -2.9407297966838902e-01
         - 1.2746611683562503e-01
         - -6.2857201973433297e-01
         - 6.3706422740207080e-01
         - 2.0636926273894995e-01
         - 5.1993738874166850e-01
         - 3.6970156121929376e-01
         - -7.4089933618089993e-02
         - 2.1866934715272119e+00
         - 4.9311533298283156e-01
         - 1.7780792528033992e-02
         - 1.7097404252544559e+00
         - 3.3684307191793100e-01
         - 5.3417789643156255e-01
         - 1.0645345112385834e-01
         - -3.4113103969807290e-01
         - 3.5337651533754029e+00
         - -7.8762608149205618e-02
         - 2.5182953564876803e-01
         - 4.6406942453069300e-01
         - 2.6033636566699947e-01
         - 7.2719950904547159e-01
         - -1.7859567897835574e-01
         - 3.9189954393626336e-01
         - 1.2439463787402567e-01
         - 4.7960044903124455e-01
         - 1.9539321368444848e-01
         - 1.9258240529991055e-01
         - 7.9621436308622584e-01
         - -3.2113299645576154e-01
         - -8.5481244115210256e-02
         - 9.0806637037636273e-01
         - -5.7490073752997550e-01
         - -2.9747635934079936e-01
         - -1.1096511601541452e+00
         - -1.2155007400200157e-01
         - 5.6429126754760395e-01
         - -5.9775165463451341e-01
         - 7.0629032808630821e-01
         - -1.1544337689859787e+00
         - 1.9835602510843109e-01
         - 2.4797346479307183e-01
         - 5.7221067538711612e-01
         - 1.7961693857237335e-01
         - -5.7793242614271556e-01
         - 2.1349173476110136e-01
         - 1.1427233783767220e-01
         - 2.0543897830980242e+00
         - -8.3497963495814631e-01
         - 2.7594574717361592e-01
         - -1.2777856410510485e-01
         - -1.9304506278582606e-01
         - 7.9608765392018910e-01
         - 9.2271336984914398e-01
         - 4.3834660776919075e-02
         - 4.1445157353879902e-01
         - -6.9441831639286988e-01
         - 2.1427331096184668e-01
         - 2.3457330339203413e+00
         - 9.5104027411388237e-01
         - 1.9866260469840716e-01
         - -9.2251621735016032e-01
         - 4.0619621893576630e-01
         - -1.0717015002126264e+00
         - 1.8035830530256025e+00
         - -2.3321337985061008e-01
         - 6.4501605136836526e-01
         - -3.2241713803428496e-02
         - 4.9078641657372613e-01
         - 3.3925279677553383e-01
         - 6.3282619015650687e-02
         - 2.0469304730559879e+00
         - 2.6808321151362325e-02
         - 1.0767697267334428e+00
         - -2.1378786683818513e-01
         - 5.6181827101110726e-01
         - 4.8827033991269708e-01
         - 5.0002265126312295e-01
         - -2.5481870380655020e-01
         - -7.0811131134655469e-01
         - -7.7633252311119072e-01
         - -6.7156071946876517e-01
         - -1.5668006114947857e+00
         - -4.4611829746061182e-01
         - -7.5132959485153505e-01
         - 1.1588187118387197e+00
         - 8.2872392279986207e-01
         - -1.0221174677969232e-01
         - 6.7928913094696308e-01
         - -7.2230148216262635e-01
         - -3.9804981891297020e-01
         - 1.1350895425255694e-01
         - -2.2641337210156576e+00
         - 3.4087701075169946e-01
         - -3.9989490509240283e-01
         - 2.9978469422178272e-01
         - 1.4184627868750768e+00
         - 1.3213428573409369e+00
         - -4.4435678615173169e-01
         - 8.3969166611170398e-01
         - -3.5305407384817483e-01
         - 1.3283615612456301e-01
         - 8.3864809195517154e-01
         - -5.6864961484711207e-01
         - -5.9022162346230633e-01
         - -3.2127234088708456e-01
         - 1.7411752737061156e-01
         - -4.5462500437685943e-01
         - 1.2220905336636230e+00
         - 5.8909182360984713e-01
         - -5.9690213515421842e-01
         - 2.0883399789161570e+00
         - 1.3766568186391943e+00
         - 7.3059297747827145e-01
         - 7.9824024877096811e-01
         - -1.5245140942849871e+00
         - -3.1723688385654456e+00
         - -3.8119919308705175e-01
         - -8.4061718064621027e-01
         - 1.8474751451183333e+00
         - -9.6398594212097399e-01
         - -1.4169171744578126e+00
         - 4.3304581697537631e-01
         - -5.5233020370629893e-01
         - 9.1145950266900577e-01
         - -3.4773615299639188e-01
         - -9.5306573511850301e-01
         - 5.9407497461898073e-01
         - 7.2574685221343693e-01
         - 1.7977224862343089e-01
         - 3.9291754501101173e-01
         - 1.4459888334306945e+00
         - 3.6165518556865062e-01
         - -6.5896998815220009e-01
         - 8.3272234541046974e-01
         - 1.7766610010352086e+00
         - 1.3628855454578785e+00
         - -2.8875856816296236e-01
         - 1.4970886401304395e+00
         - -1.8913399781390550e+00
         - 5.1864263535670430e-01
         - -5.3474684571048192e-01
         - -4.3881604245073103e-01
         - 6.4898886931032879e-02
         - -5.8293810940305146e-01
         - 7.7498236704910350e-01
         - -2.3639260104728410e+00
         - 3.5889203092404762e+00
         - 2.4800764252342589e-01
         - -8.1570081056619737e-01
         - -1.6778081668790246e-02
         - 2.1406722088159080e-01
         - -7.4323242140913548e-01
         - -5.1292784296456839e-01
         - 2.9615620638966239e-01
         - -9.5207818302538183e-01
         - -6.3975020265219362e-01
         - 5.3285339540081234e-01
         - 3.5676396156534790e-01
         - -3.0132325805190802e-01
         - 2.6751030985493396e-01
         - 1.7928753690543457e+00
         - -2.3842002221312147e-01
         - -2.5111922709829360e-01
         - -1.0632576649285501e+00
         - 5.8920929304295111e-01
         - 9.2615082581137864e-01
         - -1.4381269640724574e-02
         - 3.3137422150790324e-01
         - -9.5390067102206255e-01
         - 2.8459519522915991e-02
         - 4.6532554876654725e-01
         - -5.7289540457183608e-01
         - 4.7617268200706930e-01
         - -4.5421825180620212e-01
         - 2.4201934638314646e-01
         - 1.0999164418997693e+00
         - 1.2940868709470715e-01
         - 4.5585029104710184e-01
         - -3.7524961942436641e-01
         - 1.0559103161461997e-02
         - 2.6878105420986287e-01
         - 2.6762535363571942e+00
         - -1.2076023018330562e+00
         - -2.4733717724879720e+00
         - -1.5635380483055323e+00
         - -2.0326749751840674e+00
         - 1.2292728328954551e-01
         - -3.5770134670189946e-01
         - -9.4682910395191022e-01
         - 4.5348009746797069e-01
         - 6.9782449562799576e-01
         - 4.6683107377293265e-01
         - -9.7381796568223800e-01
         - 3.6912997584913293e-01
         - 2.2976546347657355e-02
         - 7.9647996302502733e-01
         - 8.5523495269796057e-01
         - -1.0432920803951025e+00
         - 1.2911747171477883e+00
         - 3.6918221385037009e-01
         - -6.5150535575988755e-01
         - -4.2674092365922356e-01
         - -8.2898970565923813e-01
         - -3.5643420595299502e-01
         - 6.0031878412550499e-01
         - -5.6087716885216699e-01
         - 4.9724347101551153e-01
         - 8.9357482064400451e-01
         - 2.3782759989540983e-01
         - -4.2559563691557395e-01
         - 1.7334462450605606e+00
         - -3.7884907325450878e-01
         - -9.1870748645531145e-02
         - 2.6712009553470644e+00
         - -3.6817967996811357e-01
         - -1.3711635975267273e+00
         - 2.2081119956469503e-01
         - -2.2268046664485244e-01
         - 1.4045605704039443e-01
         - -4.5165842869795175e-01
         - 1.3192330895991020e+00
         - 2.9510643565197531e-01
         - 4.6536063742293399e-01
         - 1.1299567294240542e-01
         - -2.6779483075214522e-01
         - -1.6255617041537088e-01
         - 1.3778456665968297e-01
         - -3.2559041557887636e-01
         - 4.2199691361853481e-01
         - -2.1389218971650564e-01
         - 1.8896544193791918e+00
         - 1.5447392372366482e+00
         - 3.8619174746819251e-01
         - 1.1749021721481036e-01
         - -1.1759592384861564e+00
         - -2.5586492887164898e+00
         - 5.0548922906552174e-01
         - -1.0890681139789883e-01
         - -5.2214777552155767e-01
         - -4.2899611683499483e-01
         - -5.0390907760125758e-01
         - -1.9950213788423301e+00
         - 1.2111389371004702e+00
         - 3.2217715355216459e-01
         - 1.1519262546378758e-01
         - 2.8298960318163813e-02
         - -9.1284981794898590e-01
         - -2.9417262777695080e-01
         - -1.5169847034622258e-02
         - -4.7909541430300884e-01
         - 5.6445047624490707e-01
         - -1.0130657856753380e+00
         - -5.8364120671051867e-01
         - 1.4444059528667965e+00
         - 1.7914202193949938e-01
         - 1.8826438995323709e+00
         - 1.5117996779697571e-01
         - 2.5931218972104725e-01
         - 2.6350982909919324e-01
         - -9.1671719368508919e-01
         - -1.2135366876904736e+00
         - 1.1454885328765134e-01
         - -6.8657355318202398e-02
         - -1.1615212167648146e+00
         - -3.0283512689167574e-01
         - 1.2985956139583026e+00
         - 3.1776313029534420e-01
         - -1.3031463976950981e+00
         - 1.6610650465030231e-02
         - -5.7929234968295440e-01
         - -5.2208927348817380e-01
         - -1.5234362617516268e+00
         - -2.4321155694333654e-01
         - 7.3521588443867936e-01
         - -7.7716186671516574e-01
         - 2.0710155015970226e+00
         - -3.0507717855637390e-01
         - 4.0651616492102965e-01
         - 1.1807828005066647e+00
         - 2.9535664280274937e-01
         - -1.3250480571425800e+00
         - -7.2264451955704556e-01
         - -9.5928582436209231e-01
         - 7.5033609954811631e-01
         - -1.2389956882675255e+00
         - -1.0745248875148119e+00
         - -8.4392728636379011e-01
         - -3.2336146555006884e-01
         - -4.8068619695340131e-01
         - -1.8298290441198737e+00
         - 1.9255850832813684e-01
         - -3.4054815505935032e-02
         - -5.9878121079897717e-01
         - 1.9155833484179008e-01
         - 6.5740223334435677e-01
         - 4.7281560866640826e-01
         - 1.9946769162045497e+00
         - 6.4820068613995219e-01
         - -3.9124345820384088e-01
         - -7.3747523856288366e-01
         - -3.3816922405281516e-02
         - -1.2153592721709086e+00
         - -2.6807485390684369e+00
         - 1.2069179949511182e+00
         - 1.3713414008360201e+00
         - 1.6945982150779277e+00
         - 4.4914527798207010e-01
         - -5.6259336217081102e-01
         - -1.5332543945321991e-01
         - 2.5946386198340204e-01
         - -2.6779668150008906e-01
         - -3.2616318812681711e-01
         - -4.5078278208045630e-01
         - -2.1325867418383977e+00
         - 5.2312316646241042e-01
         - -1.8682997914031269e-01
         - 1.9363021362983146e-01
         - 2.9927106604050469e-01
         - -5.1028805579952785e-01
         - 6.3916336292080900e-01
         - -3.1312681536550688e-02
         - 8.2079451357558323e-04
         - -3.3639488731415518e-01
         - -3.6454525503772656e-01
         - 1.6016770650970877e-01
         - 4.2973282697120883e-02
         - 1.5901418792444938e-01
         - 6.6928139924401275e-01
         - -4.7457019348241497e-01
         - -3.3482961121887622e-01
         - -1.3118070570637996e+00
         - 1.4445376873252445e+00
         - -1.1029043554640434e+00
         - 1.9009667095768470e+00
         - -1.1115007841938511e+00
         - 5.0125615990357653e-01
         - 1.5134288763693871e-01
         - 9.0637074882340229e-01
         - -1.3559857524164289e+00
         - -3.3006746791216190e-01
         - -6.4243351018223682e-01
         - 9.0779496908413737e-01
         - -2.3193721793445312e+00
         - 2.6872670613843680e-01
         - 2.1625670407753003e-01
         - -4.5077345812265373e+00
         - 1.7524577741617239e-01
         - 8.6561149043080488e-01
         - 6.1425003044853077e-01
         - 8.6355835648538470e-01
         - 4.8575944881199068e-01
         - 8.2410710413452393e-01
         - -3.9174074545444135e+00
         - 7.2547039422300352e-01
         - -1.4059048067835744e-01
         - -7.6250771367702685e-01
         - 1.0593861582804828e-01
         - 7.0087235290974548e-01
         - 1.1628203576067005e-01
         - -3.5293359810107720e-02
         - 2.8357279751287119e+00
         - -6.0645947593365068e-01
         - 2.9420673097074101e-01
         - 7.6412268986554878e-03
         - -2.4987536695596807e-01
         - 3.1206618459491070e-01
         - 6.0952560974612968e-01
         - 3.7366072877295065e-01
         - 4.4396395380102194e-01
         - 9.4325317555950328e-01
         - 1.9048094731246532e-01
         - -1.0177289145422418e-01
         - 9.9685151675608069e-02
         - 1.4184990842734113e-01
         - 3.7749532078375891e-01
         - -5.6464872455560422e-02
         - -3.8986579821274381e-01
         - 9.4779033146609692e-01
         - -1.5612533431084823e+00
         - -1.8734075634650399e-01
         - 1.2147218818552716e+00
         - -4.8248926284964755e-01
         - 6.7638474919135205e-01
         - 1.4906520125529630e+00
         - 1.5119382367543777e+00
         - -1.2764172196056462e+00
         - -4.9525824886897374e-01
         - 1.8764431540443033e-01
         - -4.4379595134856858e-01
         - -9.5771072625271869e-01
         - -4.0890416568928646e-02
         - -2.7997700496026103e-02
         - -3.4278352501412095e+00
         - -4.7557471828172693e-01
         - -2.9352189394974970e-01
         - -4.0486799901965167e+00
         - -8.1295730846530800e-01
         - 6.9324245297895892e-01
         - -1.1357645114499519e-02
         - 3.4818761218193878e-01
         - 2.6890553238303017e-01
         - 7.2057277235040385e-01
         - -1.8406400384409292e+00
         - -3.8446074443856326e-01
         - 3.2429722259382271e-01
         - 1.4222113302911730e+00
         - -4.5335495246940949e-01
         - 1.2576111489711559e+00
         - 3.9941200888706499e-03
         - -6.7073434628278172e-01
         - -1.8793389834681904e+00
         - 4.9131620636623202e-01
         - 4.2188365354854346e-01
         - -5.9260613013763941e-01
         - -1.6516783268006138e-01
         - -8.6550569162262090e-03
         - -3.0029570841050274e-01
         - -7.8834792967477985e-01
         - 5.6542479450275496e-01
         - -8.5849183989318933e-01
         - -9.1674939568127956e-01
         - -2.1293592938552128e-01
         - -6.1980681358568301e-01
         - 9.2523322062614111e-01
         - -8.2478466976483444e-01
         - 6.6200645215736553e-01
         - -1.7587791610628714e-01
         - -4.4989554684793059e-01
         - -6.4096068596270772e-01
         - 3.7270821488856309e-01
         - 1.4161269278689909e-01
         - 7.9500027333038992e-01
         - 4.8592046525559540e-01
         - -3.0912058820360960e-01
         - 4.0142652946780372e-01
         - -1.7535899983992043e+00
         - -1.2269077918770556e-01
         - -4.4455410123051037e-01
         - 5.1974159781185325e-01
         - 6.8078428571843486e-01
         - -3.5110004121890398e-01
         - -1.5910824760534583e+00
         - 1.3540737076677829e+00
         - 5.5016927677051873e-02
         - 6.9521951137209259e-01
         - -1.3345313786711914e+00
         - -4.5402709117020107e-01
         - 9.0414306557934754e-01
         - -4.3580152269790767e-01
         - 2.1176359135954234e-01
         - -2.1326350831744781e-01
         - -1.1853025888801234e+00
         - -1.2785657669383037e+00
         - -1.7563062797584647e-01
         - 6.4434830633887863e-01
         - 1.0438570479278682e+00
         - -2.8203989072794677e-01
         - 5.5188369238909696e-01
         - 6.5882273482017140e-01
         - -7.6091561043987577e-01
         - 5.9818865670613863e-01
         - 2.8018849750944247e-01
         - 2.5430104741238871e-02
         - -4.8050455659490784e-03
         - -1.1450615271601681e+00
         - 3.5422883505268760e-01
         - -1.8799394039974485e-01
         - -5.6797197332207039e-01
         - 1.3277236399737606e+00
         - -2.0033045963399207e-01
         - 5.2737917259002975e-01
         - 1.1400499191531602e-01
         - 1.6427764226904315e-01
         - 6.9224954247883574e-01
         - -7.1723381314261181e-01
         - -1.2918812132064442e-01
         - 3.8133743376303819e-01
         - -4.3534624905681657e-01
         - 8.2169291903227748e-01
         - -3.7847612952683823e-01
         - 2.1947564081468056e+00
         - 2.2037061366229911e+00
         - -3.8423898493174041e-01
         - 1.1647374507411403e+00
         - -6.3064096653822593e-02
         - -7.9059970989515116e-01
         - 5.9073398081557627e-01
         - -1.5571386895618200e-01
         - 1.5272552461974753e+00
         - 3.7584477478921297e-01
         - 4.8294458604147333e-01
         - 1.5845503918014641e+00
         - -2.9559732647684918e+00
         - 1.6587094669925823e-01
         - -1.0725594596152669e-02
         - -2.1313946734006897e-01
         - 2.3202217688378757e-02
         - -9.7488323097463214e-01
         - -1.4802547924455597e-01
         - -3.7128119891953382e-01
         - -2.2494059030328573e-01
         - 3.3425538888103234e-01
         - -2.3434689380453357e+00
         - -5.3092629042655293e-01
         - -5.5053789274707199e-01
         - -2.7576394448505956e+00
         - -2.7032594120232162e-01
         - -5.0877451758807235e-01
         - 9.4021795087356574e-01
         - -4.2248089308819953e-01
         - 4.6818869357950295e+00
         - -8.5063373755458957e-02
         - -7.3185523043596745e-01
         - 1.4992482857158616e+00
         - -6.9751186153358380e-01
         - -1.1459103897296077e+00
         - 5.2838276430347442e-01
         - -1.6356362756440457e-01
         - 7.4806204461473857e-01
         - 2.0426760607687577e-01
         - 1.4990159289303786e+00
         - 1.9078653212354144e-01
         - 8.0978400990411825e-01
         - 2.9841787369663236e-01
         - -2.9138805005083096e-01
         - -6.4252701716428895e-01
         - -4.7462742497696150e-02
         - -7.0132124718757349e-01
         - -3.9327593791040949e-01
         - -1.0423105024704593e+00
         - 4.0540956204306005e+00
         - 1.0749304757553548e+00
         - 5.6375933681687995e-01
         - -1.7179053503881497e-01
         - 2.1624004336953466e+00
         - -1.3416346540702180e+00
         - 9.2053774003748035e-02
         - -9.2506334169267246e-01
         - 2.6557172355629359e+00
         - -6.4767514186048858e-01
         - 7.6368705403754433e-01
         - -2.8110121953589545e-01
         - -1.9029237526216676e+00
         - -2.2687286190924918e-01
         - -2.4866194599519115e-01
         - -2.0922061207235018e-01
         - -1.2109545958543121e-01
         - -1.1903142098429853e+00
         - 1.9884744639301927e-01
         - -9.9181179953052145e-01
         - -6.0988284229697286e-02
         - -8.4176765153305333e-01
         - 5.5053367289661903e-01
         - -4.5158786072638152e-01
         - 2.4594676262952339e-01
         - 2.2499547901805599e+00
         - 2.8465844825155451e-01
         - -1.3941620113339614e-01
         - -3.8015511510969169e-01
         - 4.7737723296698092e-01
         - -5.0029570515718369e+00
         - 6.4161285353544018e-01
         - 4.9540291588106500e-01
         - 6.7680513243415119e-01
         - -2.8003617370173728e-01
         - -2.1026322954124139e+00
         - 6.9059918027752576e-01
         - 4.6159712556661797e-01
         - 6.7379754300275463e-01
         - 5.4285264376818583e-02
         - -1.2407384479697172e+00
         - 5.3767308968095995e-01
         - -6.4228475252148709e-01
         - -2.6153567931337079e-01
         - 1.9331334939706699e-01
         - -1.0356267419671189e-01
         - -6.1414445363164073e-02
         - -7.7201537343870752e-01
         - 4.0417389504448994e-02
         - 1.8771310997846732e-01
         - -5.6037845243442308e-01
         - 1.1279725989777019e+00
         - -4.8450182428971544e-01
         - 8.5839800091930341e-01
         - -7.2510375972763175e-01
         - -6.7813380677477824e+00
         - 7.8369300059765210e-02
         - -4.7379521883639675e-01
         - 2.9415635843215435e+00
         - 8.8036930289337434e-01
         - -1.0674427812630309e+00
         - -2.1991821985223980e+00
         - -8.3669669910350575e-01
         - 1.2523068379228142e-01
         - -1.6945245284689087e-01
         - -5.5270405633425945e-01
         - 3.9006234379710852e-01
         - 8.0108263034952221e-01
         - 4.6006419921394964e-01
         - 2.2888695669813511e-01
         - 7.0003287384512680e-01
         - -1.0685979879159002e+00
         - -1.7848232911816944e+00
         - 5.2535275060140985e-01
         - 5.4033866105971839e-01
         - -1.5955508874262210e+00
         - 8.0079713515139361e-01
         - 3.2029756208286018e+00
         - 9.1947170718033808e-02
         - 5.5825487835583032e-01
         - -3.6669752274136496e+00
         - -1.1454612986571633e+00
         - -2.8659279574271096e-01
         - 1.7032047487797700e-01
         - 1.7901502926869706e-01
         - -1.1557961161201755e+00
         - -6.0511460733849143e-01
         - 7.4191372295708458e-01
         - -3.1939195598801623e-01
         - 2.7521430024616517e-01
         - 1.7784803636503788e+00
         - -1.0338131250592816e-01
         - -1.1908227661008856e-01
         - -7.4639648392192415e-01
         - 8.3943146332044161e-01
         - -8.3857130044322770e-02
         - -1.1008526159906137e-01
         - 2.4171960523650693e-01
         - -9.1171805659399974e-01
         - 1.0502893404661040e-01
         - -8.6225564863365478e-01
         - -5.1860416423168154e-01
         - -7.9758096237454190e-01
         - -6.5758868976508256e-01
         - -4.8301624815911470e-01
         - -1.1285368664636601e+00
         - 1.7715052792051600e-01
         - 1.2827591533753291e+00
         - -2.8581413912752196e+00
         - 1.0873853710463786e+00
         - -1.4510616437816365e-01
         - -3.3262679081730095e-01
         - 8.3841960457457354e-01
         - 4.3376738188847203e-01
         - -3.9271163625162797e-01
         - -1.0309179678481797e+00
         - -7.6313802312984269e-01
         - -8.0379049705938377e-01
         - 1.9394841603461602e-01
         - 5.4782959380346385e-01
         - -4.5202682204725292e-01
         - 6.0382665230359367e-01
         - -1.0556560096795291e+00
         - -4.2534929161301177e-01
         - -1.5849983452189769e+00
         - -6.4011974642212055e-01
         - -1.3068714013075083e-01
         - 1.4527789265294082e+00
         - 1.0274733945825758e+00
         - -4.1036227829431240e-02
         - 1.2864236942104130e+00
         - -4.3920372275163427e-01
         - -1.7781892218924784e+00
         - 1.2681804113838793e+00
         - -3.6283685568058799e-01
         - 9.7014400278650315e-01
         - -9.5634320751295532e-01
         - -6.5027575529389391e-04
         - 1.1340020991865490e-01
         - -1.1770878474952427e-01
         - 1.5505581924725991e+00
         - 7.1317546835470591e-02
         - 7.7008003068901743e-01
         - -1.8810548108955324e-01
         - 5.2369622407703091e-02
         - 1.3905639095223071e-01
         - 2.3597781535999296e-01
         - -8.7615653043315422e-01
         - -1.2855896286307638e+00
         - -1.1194154584099516e+00
         - 1.0428075442122127e+00
         - 1.2489126149762773e-01
         - -6.3515642005088435e-01
         - -2.3717883517411824e+00
         - 1.7726953202482798e+00
         - 2.8254110577788172e+00
         - 5.2805399320698987e-01
         - 1.7865109850996938e-01
         - -1.4814983412662306e+00
         - 3.2114526275184568e-01
         - 6.7169413222849739e-01
         - -1.6451243214132729e+00
         - -4.1405928990262963e-01
         - 4.0002565530107742e-01
         - 2.0736366717991997e-01
         - 2.9300603482998788e+00
         - -1.3035329143647982e+00
         - -1.1807174200581254e+00
         - -5.2111723679351385e-01
         - -1.0927250609019623e+00
         - -7.8177376516190655e-01
         - 6.3676799665952488e-01
         - 9.2599195445620119e-02
         - -6.9193154454069816e-01
         - 2.2754543390311824e-01
         - 2.3766537153969063e+00
         - -2.2513274071663769e-01
         - 4.8643401694332074e+00
         - 8.8088250511525035e-01
         - -4.1939533487955827e-01
         - -8.9388960854038968e-02
         - -5.6072034466251627e-02
         - -1.5121786450834143e+00
         - -4.5640855473254965e-01
         - -9.8685199375866084e-01
         - 1.5158375279766212e-01
         - -1.3847277799129121e+00
         - -5.0822141229561912e-01
         - 9.5586434333823800e-01
         - -9.9616309797142388e-01
         - 1.0063645425896983e+00
         - 5.0068083189924462e-01
         - 2.0253715043659201e-01
         - 4.3948360898523170e-01
         - -2.9973285724689303e-01
         - -7.1824493853697879e-01
         - 5.4479591483526890e-01
         - -6.7280764860018494e-01
         - 1.3093991553253939e-01
         - -6.4692443610701489e-01
         - 6.8428879143070565e-01
         - -1.7003713481640889e-01
         - -1.5385080132873028e+00
         - -9.5981808962494153e-01
         - 2.6171779233722696e+00
         - 1.4804245722495148e+00
         - 6.9916250123437429e-01
         - 3.1001354458200853e-01
         - -2.8888749012219161e-01
         - -1.9738999743073287e+00
         - 2.1866957848417998e-01
         - -1.3243594817822668e+00
         - 6.7621210069332660e-01
         - 6.3096500603150341e-01
         - 3.6211924044941474e-01
         - 1.8642261733167687e+00
         - 3.3206678785878319e-01
         - -1.2004989684091669e+00
         - -1.3145812593633481e+00
         - -2.8489487413973280e-01
         - -9.2545058128113145e-01
         - -1.1980423755344589e+00
         - -1.3667897082598466e+00
         - 5.2551317081071525e-01
         - 5.7247164430118080e-01
         - -1.2050859903540247e+00
         - -1.5537394199370330e-01
         - -3.7683224925901198e+00
         - -6.6802765327468605e-01
         - 3.7110900642199224e-01
         - -2.4694456284960600e+00
         - 8.0459767772117130e-01
         - 3.3067177429227668e-01
         - -3.4841508639408708e-01
         - 7.9307530892179756e-01
         - 2.6574839830977176e-01
         - 1.8045466515284087e-01
         - 6.1701355626501164e-01
         - 2.7068017041599800e-02
         - 1.7738100579817997e+00
         - -8.2472237863348075e-01
         - -8.7606300448422048e-01
         - 2.8151970951265437e-01
         - -7.3455905701749133e-02
         - 4.9311377340840323e-01
         - 8.8900028713143209e-01
         - 2.3400618373781029e-01
         - 9.0391260716736288e-01
         - -1.9306740625533829e+00
         - -7.6646457850091582e-02
         - 1.1721697910405754e-01
         - -7.3851543313415802e-01
         - -7.3798783292541370e-01
         - -3.4829147018875017e-01
         - -2.6991780333747739e-01
         - 3.2530338976719564e-01
         - -1.8440595379683949e-01
         - -6.2164394475729956e-01
         - -7.9777095839882139e-01
         - -3.7776926887994466e-01
         - 9.5090560969314120e-01
         - 1.9814611833255793e+00
         - 9.5284997263084692e-01
         - 3.0050746209495666e-01
         - 8.2721487256074477e-02
         - -1.5382673361512519e-01
         - 2.7953581914263901e+00
         - -9.6281807533227737e-01
         - 4.6042404454117969e-01
         - 1.9773375757614781e-01
         - -6.7944502028978848e-01
         - -1.0629099774991808e-01
         - -1.1230670447286837e+00
         - 5.6778911024950651e-01
         - 1.2727733241544827e+00
         - 4.4209180392853742e-01
         - -2.5912602603385348e-01
         - -3.8042327934310767e+00
         - 4.0923115937761884e-01
         - -2.4158626564594890e-01
         - -2.3550281603294327e+00
         - 3.2719741258617424e-01
         - -9.8133800131288840e-01
         - 9.0488220063644043e-01
         - -3.3724674834382101e-01
         - 2.4344620050632808e+00
         - 1.4108682015297599e-01
         - -1.4582965201713928e-02
         - 5.7041666787310019e-01
         - 2.4752516099970792e-01
         - -3.3033508611754220e-01
         - -9.2340456625092671e-01
         - 1.0267716751303668e+00
         - 2.1830721947375156e-01
         - 1.5497799806982915e-01
         - 1.3507692553937789e+00
         - 2.1349170561240297e-01
         - 1.7217273298061361e-01
         - -1.3335464438194717e+00
         - -8.8469789612177607e-01
         - -8.3003991509219066e-01
         - -1.4994022944995100e+00
         - -6.7596770071127099e-01
         - 7.5332750487253286e-01
         - 4.9005641391416271e-01
         - 1.5333145688789844e+00
         - 6.5970736149024087e-03
         - -1.0522265546571150e+00
         - -5.8327617361813011e-01
         - -2.0315702055145994e+00
         - 9.0739673357571426e-01
         - -2.1270444970082329e+00
         - -6.6811588661654930e-01
         - 3.8212381823973768e-01
         - 3.4063319495547073e-01
         - 1.5942505112811118e+00
         - 2.3920566209725709e+00
         - -6.2306418393753327e-01
         - -2.5770466822768134e-01
         - -1.0364553963780518e+00
         - -3.8530590923351982e-01
         - -1.9313406179695820e+00
         - -2.5572575225862859e-01
         - 4.0321045573762970e-01
         - 4.9780433356170462e-01
         - 2.2697733842188343e+00
         - -1.0187449296378071e+00
         - -2.5606656184447578e+00
         - 4.3688368938717297e-02
         - -5.9631686481886215e-01
         - -4.6027665357195791e-01
         - 1.2057230080857961e+00
         - 8.3662714065123725e-02
         - 1.4176934672321819e+00
         - -5.1965462444925270e-01
         - 1.1730363991250630e+00
         - 2.9998736517913838e-01
         - -6.3042831666048182e-01
         - 1.3998586992511690e+00
         - 8.2404446112908458e-01
         - -5.1336202000687436e-01
         - -1.1856703382946470e+00
         - -5.4543327976800604e-01
         - 1.0135539880890536e+00
         - -4.9789321882488774e-01
         - 1.2122894534535544e+00
         - 3.5248310182640569e-01
         - 1.4689358178336786e-02
         - -1.5017078348874890e+00
         - 1.9471930215506730e-03
         - -1.0645877035084943e-02
         - 6.4504583087511935e-01
         - -7.2744252825051670e-01
         - 8.4996292336593326e-01
         - -7.8597346466598539e-01
         - 2.9885729674436448e+00
         - -4.3168441156299714e-01
         - -6.5412228105395065e-01
         - -4.3160470254672839e-01
         - -6.9475480243826426e-01
         - 5.3193222993321498e-01
         - 5.3406643905275952e-01
         - -8.9510416743831089e-02
         - 6.5268535741876077e-01
         - 8.9615161012025302e-01
         - 3.2396893472698990e-01
         - 3.6111547681503540e+00
         - -2.7721147364138259e-02
         - -1.4331276031958342e+00
         - -6.5546355560611780e-01
         - -1.3621697034990662e-01
         - 6.9823620363877137e-01
         - 7.9536045816441037e-01
         - -6.5637762217857376e-01
         - -2.8803723058891123e-01
         - -3.5552944960789246e-01
         - -7.3889592121538339e-02
         - -1.0104746848938659e+00
         - -3.3561787484412624e-02
         - 4.6702308076965154e-01
         - -9.0483800769188183e-01
         - 7.9740745934963886e-01
         - -4.1370966515532220e-01
         - -6.1385304047814337e-01
         - 3.5875170771409470e-01
         - -2.4269098555366595e+00
         - -9.3229676465925726e-01
         - 8.7105105892888468e-01
         - -2.5656480321231701e-01
         - 7.4720722865215500e-02
         - -6.3248745496357173e-01
         - -1.4533324995480404e-01
         - 5.3951849782600314e-01
         - -3.6279260471592523e-01
         - 1.9894883244101866e-01
         - -9.2071036658633351e-02
         - 3.8676431966364705e-01
         - -4.5202466579867756e-01
         - -2.1868809584374327e-01
         - -4.8014136620377651e-01
         - -6.1964877706602806e-01
         - 8.4950111186532640e-01
         - -1.1338980855525731e+00
         - -1.1521880695754325e-01
         - -4.1808191144088225e-01
         - 6.6580798326447832e-01
         - 5.6604322702228538e-01
         - -5.5209436763781330e-02
         - -1.6023904898976089e+00
         - -1.4453393114400024e+00
         - 5.1745838064705363e-01
         - 4.6047489067598973e-01
         - 2.4380765405385842e+00
         - 5.5668454465182726e-01
         - 2.9981440496126815e-01
         - 8.7823310854867137e-02
         - -3.0651230861210872e-02
         - -9.3426398676847067e-01
         - 2.1380233315812294e-01
         - 4.2340745196538448e-01
         - -8.3868651511165604e-01
         - 1.8757665808018755e+00
         - -9.0075839555389126e-01
         - -2.8344924563876273e-01
         - 1.1198473321014930e+00
         - 2.4569146437402742e+00
         - 3.3988009930145824e-01
         - -1.1716583972187840e+00
         - 3.7109044652480022e-01
         - 3.0123110781260420e-01
         - 2.6190411053074012e+00
         - -6.8060823218052999e-02
         - -1.0710069321992004e+00
         - 2.2071398028064553e+00
         - -3.3846620845525949e-01
         - -4.1880613286522711e-01
         - -1.6634078358570764e-01
         - 5.9571880067716398e-01
         - -1.2049462091093399e-01
         - -2.8810495093991045e-01
         - 4.8378741306277306e-01
         - 6.5721162556516510e-01
         - 7.9258809716827716e-01
         - -3.7417458922462904e-01
         - 1.5154763743679517e-01
         - -1.0190203543758807e+00
         - -5.8979560377194297e-02
         - 5.2291071155128299e-01
         - 4.0871272151268850e-01
         - -8.3580011039709168e-01
         - 3.9275481068812113e-01
         - -5.0505872849102551e-01
         - 1.0881035548606655e+00
         - 1.8225946706262077e+00
         - -4.2322592002039822e-01
         - 1.6816391455074922e+00
         - 3.7795179338030310e-01
         - -4.1666043363991895e-01
         - -4.2777312573537618e-01
         - 1.6651059686771514e+00
         - -1.3213284930757674e-01
         - -1.4992693850389429e+00
         - 2.0320555223216776e+00
         - 5.5213289015959573e-02
         - -1.8332031187483128e-02
         - -1.5874425365540537e+00
         - -1.0527507410850632e+00
         - -1.6655341285395620e-01
         - -5.5818486625728447e-01
         - -9.9348830189475079e-01
         - -2.1234023052116493e-03
         - 2.2542529874659132e-02
         - 2.1013077166505885e+00
         - 6.9651479792238158e-01
         - -3.8861607830434097e-01
         - 2.1477546592297445e+00
         - -1.6431900526661516e-01
         - -1.1093722664977925e+00
         - 2.6985994354740839e-01
         - -4.3394261712783694e-01
         - -1.9436570864214708e-01
         - 5.7499617291501903e-01
         - -3.2468675382737194e-01
         - -4.5245479062559041e-01
         - 8.5983239969533398e-01
         - 1.8327490860488975e+00
         - 9.7701718570342669e-02
         - -2.5068807572889257e-01
         - -5.2926713045839957e-01
         - 2.7149834785146382e-01
         - -1.5216053689994322e+00
         - -1.2725977662372268e+00
         - -6.1247516679940668e-02
         - 4.4326799003424511e-01
         - -4.7326753256926851e-01
         - 1.5065152822169838e+00
         - -1.6519069401377412e-01
         - -1.3005195975468231e+00
         - -3.1434960738334838e-01
         - -1.4954307513238158e-01
         - 9.7238462743380882e-01
         - -1.9576938982193670e+00
         - -9.2012382949950533e-01
         - 2.8969729511693881e-01
         - -1.0349558258481777e+00
         - 1.6308617251517545e+00
         - -4.6556635596708007e-01
         - 3.2397725983290337e-01
         - -1.7530834749452329e+00
         - 8.2694115718207095e-01
         - 1.6173230869843963e-01
         - -2.2605383408066790e-01
         - 7.8065708417407109e-01
         - 4.2311557499422453e-01
         - 8.1778078523051445e-01
         - 7.0758208587878313e-01
         - 4.9074724811108555e-02
         - 7.9870265793383111e-01
         - -8.9409198309115701e-01
         - -4.0521507533119622e-01
         - -9.7255974197928322e-02
         - -1.0061974115583989e+00
         - 2.5290902847489227e-01
         - 2.1364299909725851e-01
         - -3.2298629536236745e-01
         - 9.2059473619728005e-01
         - 7.8280633018324386e-01
         - -1.5342202711296817e+00
         - 9.9305814476265897e-01
         - -7.8100878663010104e-02
         - -2.4241378175024466e+00
         - 2.3376477125562376e-02
         - -9.6843400223003628e-01
         - 2.0599109216429892e-01
         - -8.7166301098130150e-01
         - 1.7350073068204452e+00
         - -7.4557196423731908e-01
         - -1.5106316319545777e-02
         - 3.3783178410428560e-01
         - -2.5976789762117819e-01
         - 5.2050457253077442e-01
         - 5.1302996615107210e-01
         - 9.3635155892612798e-01
         - 8.3835042843584506e-02
         - 1.1188034890115503e-01
         - -4.3498415393445206e-01
         - 5.0245207696252225e-01
         - 1.2468565006232013e+00
         - -2.5889929782996918e-01
         - -1.5669754656438279e+00
         - -3.4785792059811125e+00
         - 2.8356037003128431e+00
         - -1.1691881846725261e+00
         - 4.1916646415237988e+00
         - -8.0081267580598081e-01
         - 2.3057900845139430e+00
         - 4.5740704750410294e-01
         - -1.0228685678217901e+00
         - 1.2074239100243697e-01
         - -3.4754796663987057e-02
         - -7.1652222545210933e-02
         - 1.9713673066397372e-01
         - 2.1575641652203883e+00
         - 5.4000676914893610e-02
         - -3.5274322424540555e-01
         - 7.0889067130793837e-01
         - -2.9963555600202235e-01
         - -1.0419891022690688e+00
         - -1.5085337828673395e-01
         - -2.4261701647388373e-01
         - 6.1680743917501203e-02
         - 1.2362725571819349e+00
         - -1.5690630641382692e+00
         - 1.1046435347601162e-01
         - -4.5841251573117958e-01
         - -1.2289256490189069e+00
         - 8.2070337488672684e-01
         - -1.6991016753797761e+00
         - 6.5473302069204353e-01
         - 1.9578282234494515e-01
         - 2.6322394082825498e+00
         - -4.7046890798369645e-01
         - -2.2104771942998797e-01
         - 5.1192607518942512e-01
         - -6.1574701648840435e-01
         - 9.3702381107328325e-01
         - 2.6504344059265893e-03
         - 5.5046382781765635e-01
         - 3.3406450145713512e-01
         - 2.4570498880158519e-02
         - 6.7556349601768129e-01
         - 3.0108056186870752e-01
         - 1.0355292642933278e+00
         - 1.5310365039916599e-01
         - 6.5978492219970231e-01
         - 7.1267457698374947e-02
         - -3.3841144490945091e-01
         - 1.3420548527767020e+00
         - -7.9463701085704896e-01
         - -1.3973986747345690e+00
         - 7.8093570761754316e-01
         - 3.0495201537531580e+00
         - 1.1696879609298977e-01
         - 3.0267601964140556e+00
         - 6.2060006511888088e-01
         - 1.6742644518346499e+00
         - -4.1155256099614868e-01
         - -1.5623398518757214e+00
         - 9.3220365959650764e-01
         - -5.5666394452472923e-01
         - -1.0756249793589084e-01
         - 2.4559599725290363e-01
         - -3.5496821349359081e-01
         - -4.0545286291660715e-01
         - -9.5958445011285942e-01
         - -4.9041724196608100e-01
         - -3.6431901625062024e-01
         - -2.3643780639723444e-01
         - 9.6121691165854298e-02
         - -4.4546808914591585e-01
         - 2.4629272647280959e-01
         - -6.8683605202470543e-01
         - 1.4307919202581805e+00
         - -8.4821548693012438e-01
         - -1.9923607037431297e+00
         - 5.5044673415287772e-02
         - 1.8333231405426026e-01
         - 5.0086282374971891e-01
         - 5.9257044166487360e-01
         - -1.4184875057648783e-01
         - -7.9265473271417763e-01
         - 2.3402990526474116e-01
         - 3.3282146283049657e-01
         - 5.8324672627286700e-01
         - -6.0582339620061332e-01
         - 2.4330748844874623e+00
         - -4.8817274038887060e-01
         - -4.0586769166237539e-02
         - 1.4433436004693576e-01
         - -7.9663598668368385e-01
         - -9.3870113929373430e-02
         - 3.5861036043758021e-01
         - 1.6208985815293642e-01
         - 3.1689709574365371e-01
         - 6.2073052190460179e-02
         - 2.4568734611245979e-01
         - -1.2286687098830093e-01
         - 3.8787829705793286e-01
         - -1.1210953667808004e+00
         - -5.2069646894235611e-01
         - -2.6867541968708646e+00
         - 1.7273578114596252e-01
         - -3.3555564210815354e-02
         - 1.2969980680672648e+00
         - -1.1915372366761250e+00
         - -6.7789692262322898e-02
         - -3.9007482034979141e-02
         - -1.0708537110994796e+00
         - 1.6246176550521934e+00
         - 2.8680764846389315e+00
         - -4.0093679591377757e-01
         - -9.1986202537097939e-01
         - 1.1195836197822637e+00
         - -3.1143104028489227e-01
         - -1.7913473776929084e-01
         - 4.1872108281230197e-01
         - -8.9257558187243125e-01
         - -8.0329841091051832e-02
         - -6.5575065789310660e-01
         - -4.0741143613346253e-01
         - 1.4389929407214516e-01
         - -5.2392197130477935e-01
         - -1.1374108790465929e+00
         - -1.0592837321969333e-01
         - -2.4010989186596235e-01
         - -2.2743289874350126e+00
         - -1.2784652247104751e+00
         - -1.6852355280639886e+00
         - -1.2245161674380571e-02
         - -1.3752004997883482e+00
         - -1.9769333917677920e+00
         - 1.1624255127358236e+00
         - 5.6800627226646760e-01
         - 3.3803681666635366e-01
         - -8.8655054963605573e-01
         - 2.2655227849253192e+00
         - -1.4350568987782811e-01
         - -1.6259839850181541e+00
         - 1.0426702147676248e+00
         - -2.3325938735342219e-01
         - -5.4300302421703051e-01
         - -7.2500651410119088e-01
         - -2.8097763860128577e-01
         - 1.0948991466353803e+00
         - -1.9693131094156775e+00
         - 6.8870465608691134e-01
         - 1.6020203623398574e-01
         - -4.7055577586367275e-01
         - -6.0782272800592207e-01
         - 8.4099413764682873e-01
         - -9.2724291411749682e-01
         - 2.5239155690990051e-01
         - 6.2865294424485019e-01
         - 3.8011750563538493e+00
         - -2.0852664452227203e+00
         - 8.4679965483603548e-01
         - -1.1596324495628942e-01
         - 9.8724689572174129e-01
         - -8.4626546026714844e-01
         - -2.9770986146691674e+00
         - 1.6411304002849039e-01
         - 1.3465183747364231e+00
         - -6.6040507405345039e-01
         - 1.6646071047023200e-01
         - 1.0576735211199666e+00
         - 2.7224532977241128e-01
         - -9.7095124822778622e-01
         - 3.3039238312955199e-01
         - -3.2776512616199327e-01
         - 7.4453804298530291e-01
         - 1.8532567453402660e-01
         - 2.7141135777250441e-01
         - -3.4205718866595086e-01
         - -2.9127774202257006e-01
         - -2.4023150733408554e+00
         - -1.8534415088826148e+00
         - -1.2675506511643744e+00
         - -3.4998092065852799e+00
         - 1.0557742088475541e+00
         - -1.1599162511631296e+00
         - 3.9294022937470530e+00
         - 7.6167276752086244e-01
         - -1.8722615546420276e-01
         - 7.9116069700843772e-01
         - -9.7816612220130916e-01
         - -9.4133282675217600e-01
         - 2.9734730832387984e-01
         - -1.0236238936712676e+00
         - 9.0463372711507195e-01
         - -1.1624102070479453e-01
         - 4.2418446097998252e-01
         - -1.2093706072362453e+00
         - 1.0470548922215477e+00
         - 8.8453109250223438e-01
         - -1.4502815716531121e+00
         - 1.0559788860772745e+00
         - -7.7698325884867164e-02
         - -1.1410545914918173e+00
         - -7.7202594189852147e-01
         - -6.8904931030965144e-01
         - 2.2963029533326482e+00
         - -1.3090303432127937e+00
         - 9.2369341215205292e-01
         - 2.9985134435143954e+00
         - -7.3274519515995384e-01
         - 9.4123946546742221e-02
         - -2.7624326685931783e-01
         - -9.4091622043685985e-01
         - 1.2463286926717125e+00
         - -2.7609084812794765e-01
         - 8.0764525077955251e-01
         - 5.8668495610790949e-01
         - 3.8062046659424487e-01
         - 3.3077260783399776e-01
         - 7.8753097208972811e-01
         - 7.3858211156216280e-01
         - -3.5910416553632934e-01
         - -3.6266969035212016e-01
         - -9.4498070420407504e-02
         - -7.2032156541828829e-01
         - -1.4366293350365750e-01
         - -1.2392781318997037e+00
         - -1.7044478538977825e-01
         - -8.9629678406363722e-01
         - -3.0724919979592284e+00
         - 1.1524948255152754e+00
         - -1.0064477077729321e+00
         - -1.9598032701760435e+00
         - -1.4581750106538552e-01
         - -3.5158112982471701e-01
         - -5.4252265840819880e-01
         - 1.3233474470569182e+00
         - 6.8152349130199041e-01
         - 7.2681362694262730e-01
         - -3.7946675501092353e-01
         - 1.3528877778344786e+00
         - 4.8798093781544993e-01
         - -5.9056777153382756e-01
         - 3.6133212911999568e-01
         - 3.2168827126935147e-02
         - -4.9363072455887491e-01
         - -8.5425791316964328e-01
         - -8.1573870384349823e-01
         - 2.5306028535345670e-01
         - -1.0617264045162786e+00
         - 1.1915534660491789e+00
         - 3.5583518116960283e-01
         - -5.3748526742549163e-01
         - -1.2049354467903011e+00
         - 7.9905981006726712e-01
         - 4.3919034832290738e-01
         - 9.5847671983713190e-01
         - 5.9247633004382949e-01
         - 2.2577190343616893e+00
         - -4.0930142100514999e+00
         - -2.7678047130098946e+00
         - 1.6952444152798321e-01
         - 4.1709599235601924e-01
         - 1.6365390936208208e+00
         - 5.9708643155873531e-01
         - -4.2414455646292343e-01
         - -5.1781123126184669e-01
         - -6.6994170447399443e-02
         - 5.1623558562131211e-01
         - 7.9213931379240743e-01
         - 1.9813622795243100e+00
         - -6.6094868213201408e-01
         - 9.0987638306272600e-01
         - -8.0931034806453617e-01
         - 3.9555845773097981e-01
         - 1.9710246342607868e-01
         - -1.6242727215293682e+00
         - 4.4018971190413475e-01
         - 5.2646951645967810e-01
         - 6.2561911446176655e-01
         - -9.1486188036323615e+00
         - 1.3179126478697543e+00
         - -5.3086317082135726e-01
         - -2.8937670829264155e+00
         - 2.6287325133090693e+00
         - -1.2220536627734978e+01
         - -6.4168647684733149e-01
         - 4.4968034226281111e+00
         - 3.3832910507843548e+00
         - 2.5760237665050232e+00
         - -2.3908207752585557e+00
         - 3.8109854999667481e-01
         - 2.6613225638336702e+00
         - -2.3256792265864146e+00
         - 8.2574692421290452e-01
         - -2.4510535294267141e-01
         - 7.1411489005270179e-01
         - -3.9613792359368696e+00
         - -2.7709739068711889e+00
         - 1.8464156464258579e+00
         - -8.7557505539603242e-01
         - -2.8304806744648126e-01
         - 6.9889183545430877e-01
         - -2.7579842513968691e+00
         - 4.1406108611316936e+00
         - -9.8109832077063484e+00
         - -2.8025401057988772e+00
         - -1.3702370929752430e+00
         - -3.7898814358107109e+00
         - -2.0110211600445456e+00
         - -4.7055006494906410e-01
         - -4.6872877170698496e-01
         - 4.6519707263837020e+00
         - -1.7612837229751963e+00
         - 1.3535458823608697e+00
         - -3.0203104471120779e+00
         - -2.0022344655265183e+00
         - -1.2228462067036452e+00
         - -1.5841196276730826e-01
         - -7.0770202063012544e-01
         - -3.5456666690742376e+00
         - 1.4642899894037631e+00
         - 2.4150179484907395e+00
         - 5.0411508298755656e+00
         - 5.0659249495370791e+00
         - 2.1665597164430630e+00
         - 1.9760293999309446e+00
         - 4.5663829964866469e+00
         - 7.1401738727795627e-01
         - 2.0599840216013701e+00
         - 2.8392539347092165e+00
         - 9.7410044316527111e-02
         - -4.7534681481304988e+00
         - -9.4654398745012380e-01
         - 7.2578342734421808e-01
         - 2.4433410974729317e+00
         - -3.6558976182419689e-01
         - 1.6978471003917823e+00
         - 2.0710670950524426e+00
         - 1.2297153663438336e+00
         - 3.0002674844535209e+00
         - -1.4966538802176932e-01
         - 7.3754045501999055e-01
         - -1.3400667428421413e+00
         - 3.7314602399051072e-01
         - -2.1053352286297078e+00
         - 1.4358795791340523e-01
         - -1.3511335819902508e+00
         - -9.6517268319885741e-01
         - 2.5647780077260646e-01
         - -3.1176941169469047e-01
         - -1.2265057242952231e-01
         - 1.9304907083739561e-01
         - -2.4504023249187554e+00
         - 1.7762792118420574e+00
         - -8.2416831788537315e-01
         - -3.2234913209045468e-01
         - -9.2532597612663015e-03
         - -6.3253154166016099e+00
         - 1.7662826246207541e+00
         - 6.2403859139012106e+00
         - -3.0384128030734325e-01
         - 8.4772363385135907e-01
         - -3.3990108945600944e-01
         - -2.4578893942837214e+00
         - -5.4636669560616802e-01
         - 1.4438784883424247e-01
         - -5.5068760406365174e+00
         - -1.8690945202301429e-01
         - 8.1471345547533103e-02
         - 5.6771898083835186e+00
         - -2.7884896926941266e-01
         - 8.3953231297752529e-01
         - 2.6651518233188294e+00
         - 1.3880616085481834e+00
         - 6.2210338116886332e-01
         - 3.7677214171175284e+00
         - 7.4929934785364436e+00
         - -1.0528074545865442e+00
         - 4.1256204604610822e+00
         - 6.4530431451126766e+00
         - -1.8205868798865481e+00
         - -1.0232824363701853e+00
         - 1.0959428158461375e+00
         - -1.3838324803509006e+00
         - 1.1607486449428997e+01
         - 7.1215868150395434e-01
         - 2.6885405980452076e-01
         - -1.5473421591448964e+00
         - -8.7097317922618578e-01
         - 1.0054966241154863e+01
         - -1.9962755340016229e+00
         - -1.7182652364030164e+00
         - 8.9675725980675636e-01
         - -1.7633046498668987e+00
         - -6.6096266224222477e-01
         - 1.3097708263189672e-01
         - 8.8426304458530225e-02
         - 1.4948701691532853e+00
         - -2.0835929896504028e+00
         - -9.0705682048408665e-01
         - 6.4557490639214543e-01
         - -7.7877260338480436e-01
         - 2.4523095459006108e-01
         - 3.6376130111456534e-01
         - -1.5345987969729025e+00
         - 8.6838251734668077e+00
         - 5.0166211018437734e-01
         - -7.1066420028482851e+00
         - 5.4979600831850473e+00
         - 9.2450985848780505e+00
         - 5.1633463911327249e-01
         - -1.2081051493743220e+00
         - 6.1157286705462721e-01
         - -4.8582754812770945e+00
         - 1.9898151875816679e+00
         - 2.4765823084574983e+00
         - -9.8248510676972884e+00
         - -2.7728641091831391e-01
         - 1.4491980296593414e+00
         - 9.1513764318728441e+00
         - -3.0006172169025186e-01
         - -2.1389283288855960e+00
         - -2.8608597107488215e-01
         - -4.6755040418551458e-01
         - -1.5760477909034494e+00
         - -1.6202638307163442e+00
         - 1.5457496862521622e+00
         - -1.8494324774892759e+00
         - -1.1142930693838360e+00
         - -7.0874095553291228e-01
         - -6.0611767851048859e-01
         - -2.3313146848157862e+00
         - -1.4964090954004203e-01
         - -3.4145753544379082e-01
         - -1.1638245976856465e+00
         - 1.2617681256068064e-01
         - 4.9168075013898077e-01
         - 5.2054733272804431e-02
         - 7.4157220111199140e-01
         - -4.0067874433402899e+00
         - 3.9159073022598678e-01
         - -4.6063162524636608e-01
         - -4.6840825317590584e-01
         - 9.0513481133981899e-01
         - 3.5787841336894871e-01
         - 3.1536239063345417e-01
         - -5.7311042995264794e-01
         - 3.2177098179942532e-01
         - 4.1571428572566910e-01
         - -1.0279099199665467e+00
         - 2.5472829992004203e-01
         - -1.8046562128357722e+00
         - -1.0504050454505152e+00
         - 2.1320858214994162e-01
         - -4.8237554238470925e-01
         - -6.5849490402635724e-01
         - 9.0261091487508438e-01
         - 9.2295698745499988e-01
         - -1.1129461364750675e+00
         - -1.2507454673277068e+00
         - 4.0986450628926335e-01
         - -3.3103602498962131e-01
         - -8.0268820539233965e-01
         - -1.1057550198305139e+00
         - -3.6136641274186525e-02
         - 1.6700202000239637e+00
         - -2.5227298430810102e-02
         - 6.6395239200794529e-02
         - -3.7281262460643938e-01
         - -1.7646549818970164e-01
         - -2.9335778951782241e+00
         - 1.1582002025522391e-01
         - -4.6251993345388132e-01
         - -1.9177897559914109e-01
         - -1.7191781673855239e-01
         - 2.6381916882065970e-01
         - 1.3834224661107977e+00
         - -1.6119093529223749e+00
         - 1.5215041105731939e+00
         - 2.0671042638685879e+00
         - -5.1084171404590284e-01
         - -1.7373111770440455e+00
         - 8.1144006260457624e-01
         - -7.3959722808615813e-01
         - -1.9168719733146671e+00
         - 1.7998592135416822e-01
         - -1.2168534361727168e+00
         - 7.3662834845484393e-01
         - -9.5648990883022622e-01
         - -2.8030816147948068e-01
         - 1.8936407764214241e-01
         - -6.5471592808233292e-01
         - 7.6147595430901094e-01
         - -7.4213303389591034e-01
         - 1.4451732750194763e+00
         - -6.4928380806544936e-02
         - 8.1046189318961226e-01
         - 7.4649526259576726e-01
         - 1.5658303848502977e-01
         - 2.0668048626328915e-03
         - 9.9005297569714254e-02
         - -1.1401689619742503e+00
         - 6.1720620451516578e-02
         - -8.4040858049536893e-01
         - 5.4865332503091890e-01
         - -1.4226650283762934e+00
         - 9.9186109841732850e-01
         - 1.8713974315488495e+00
         - -1.0265019591465476e+00
         - -1.3608222615747101e+00
         - 2.0531638560040918e-01
         - -1.2495944558980561e+00
         - 3.3039729281628981e-02
         - -1.6608894627846078e+00
         - 1.7782824118917198e-02
         - -1.5808787795431645e+00
         - 4.0402546112106724e-01
         - -9.9262194925481578e-02
         - -2.3978093462630568e-02
         - 1.7811428707554431e+00
         - -2.3573970037630079e+00
         - 4.2614130653562959e-01
         - -1.2831786900889846e+00
         - -1.0800840523358333e+00
         - -2.2367417161235040e-01
         - -2.0887872941364014e+00
         - 5.9716947200860493e-01
         - -1.9349163530337561e+00
         - -3.9447187682192828e+00
         - 1.0640596364524559e-02
         - -1.2813501817791233e+00
         - -2.1485530052834640e+00
         - -2.1611073296227420e-01
         - -3.7321390591679160e-01
         - 5.7849549673638989e-01
         - 6.6472683061116788e-01
         - 8.9008198164577357e-01
         - 2.0623987903343202e+00
         - -2.4999524723834829e-01
         - -1.0829805142939819e+00
         - 8.2456945259844516e-01
         - -5.4373045548315857e-01
         - 8.0617857074308286e-01
         - 4.6567372546548147e-01
         - 1.9673692728898422e+00
         - -4.0499291935806520e-01
         - -1.6211424396765961e+00
         - 6.0723316933721339e-01
         - -1.2930624684956951e-01
         - 8.2630864257978068e-02
         - 8.4468715814289363e-01
         - -2.2801345407747982e+00
         - -1.3568516182104047e+00
         - 5.4700535259453564e-01
         - 1.1124149283719034e+00
         - 1.4239293286636570e+00
         - 1.1465189700236549e+00
         - 2.0688237746824581e-01
         - -1.9419455813033883e+00
         - 1.7187631018074465e+00
         - 7.4486793165770770e-01
         - 6.8607925260776026e-01
         - -1.2594134040739617e+00
         - 4.6645220737791054e-01
         - -9.8414369344740049e-01
         - -7.4076900656254963e-01
         - 8.5695618633934845e-01
         - 4.4630210235693196e-01
         - 2.1821172848680778e-01
         - -2.6101035458268940e-01
         - -2.7768667664114850e+00
         - 1.5828485142897823e+00
         - -1.5461375236007087e+00
         - -1.3019840935482035e-01
         - 7.4359335314267272e-01
         - -3.9793940446435988e-01
         - 1.6520276771588145e+00
         - -8.7203765258519161e-01
         - -1.5606812005608937e+00
         - 1.1727979444278815e+00
         - -3.9924192464519070e-01
         - -2.3528273352518920e+00
         - -3.6899641987144516e-01
         - 1.6395392980052087e-01
         - -4.8833514521907782e-02
         - 7.4094341516582618e-02
         - -9.1377611256525715e-01
         - 1.6593812099247913e+00
         - -1.2292380384500087e-01
         - 2.0919540652848956e-01
         - -3.4987764386465070e-01
         - 3.0086409760145524e-02
         - 4.9208305039002964e-01
         - -2.5886746626216561e-01
         - 4.9585873315156799e-03
         - 3.7525307677893860e-01
         - 2.2463335010102815e-02
         - 1.0193572928833788e-01
         - 1.8348537287274211e-01
         - -2.7517114733820158e-01
         - 4.4331583929073248e-01
         - -6.9001358265224977e-01
         - -1.5009622688222690e-01
         - -1.1052124793219335e-01
         - 9.5922486714489363e-01
         - -4.0476248201663712e-01
         - -5.5529993227134300e-01
         - -1.2316865841483055e-01
         - 4.4991529999750063e-01
         - 2.3754636684037353e-01
         - 7.7675606217657156e-01
         - -5.5127347630210088e-01
         - -9.3096501006224130e-01
         - -6.2841305219899146e-01
         - 5.0772725104307892e-01
         - -3.7395119619717598e-01
         - 1.0579015095401119e+00
         - -1.8047042445568898e-01
         - 1.5968022232191059e-01
         - 6.5907694819261431e-01
         - -8.5962496052259341e-01
         - -9.8388687085179161e-01
         - 7.6175110129056844e-01
         - 9.2780349526456329e-01
         - -4.7714275441080045e-01
         - -5.4586204562416574e-01
         - 6.0952006046253249e-01
         - -5.0795452248266992e-01
         - 1.8471428080086556e+00
         - 3.7804096197475858e+00
         - -1.5568964697559443e-03
         - -5.3514064976351572e-01
         - 5.3477271513465807e-01
         - 9.6047194901823257e-02
         - 2.1520169125774372e-01
         - 6.2630958114730309e-02
         - -1.0024844867424405e+00
         - 2.0810493985891974e+00
         - -8.2908938007803457e-01
         - 9.9121167856039039e-01
         - 6.6204195431854379e-02
         - 6.7748841254576933e-02
         - 7.7505360513474497e-01
         - -7.9984250684348146e-01
         - 9.6898261028626753e-01
         - 1.7561705175679825e+00
         - 1.6447373209105404e-01
         - 1.6211912513809959e-01
         - 2.6187311604095515e-01
         - -1.8216178883338920e+00
         - -2.2126475262705261e-01
         - 2.8492968788182316e-01
         - 3.4731303827097115e-01
         - -4.1375226363351864e-01
         - 1.1111407646223976e+00
         - -3.4162058293493209e+00
         - 1.1880627570087465e+00
         - -4.2437327195079061e-02
         - -6.0113905117324062e-01
         - 8.4709651911361039e-01
         - 1.4167429994637912e-01
         - 1.6525283764071141e-01
         - -2.2456539965194250e-01
         - 1.8030441640266004e+00
         - -7.1494201884209585e-01
         - -2.2865640792025724e-01
         - 2.5406960878755518e+00
         - -7.9901693037425159e-01
         - -1.1963003377928774e-01
         - -8.0209626303300433e-02
         - -1.3837167361306988e+00
         - 1.6785280470440703e-01
         - -6.5491897271842292e-01
         - 4.3442654474018411e-01
         - 4.9276239955014078e-01
         - 3.8549162909367729e-01
         - -1.3570635509874729e+00
         - 6.8253268792507249e-01
         - -3.7229796876198198e+00
         - 1.3245412567007193e+00
         - 1.4216225329088375e-01
         - -1.1618796258750361e+00
         - -6.6350016229876030e-01
         - -2.5777932514537172e-01
         - 6.8494865285566464e-01
         - -4.1590347818115586e-01
         - -5.4460660981602216e-01
         - 2.6562083984010818e+00
         - 4.1709596463938975e-01
         - 1.7530902305475213e+00
         - 9.3701976696331057e-01
         - -5.9605734687991219e-01
         - -2.6033157686485577e-03
         - 7.1987492052024604e-01
         - -9.8445623783190850e-01
         - -8.5590522079253706e-01
         - -2.6002500768458220e-01
         - 4.3446681018662942e-01
         - 5.2086884746560806e-02
         - 1.2316290596891299e+00
         - -1.5323335508057723e-01
         - -1.3546335618316552e+00
         - 1.1941448689457550e-01
         - 6.7526364831454787e-03
         - -2.8597430196266444e-02
         - -6.5208999178238181e-01
         - 5.3687052786774658e-01
         - -1.0682518315903304e+00
         - -9.0961263792595581e-01
         - 8.2858543059938161e-01
         - -3.9400569744434266e-01
         - -8.5426246757514490e-01
         - -8.6591303596731195e-01
         - 1.8434338153277885e+00
         - 1.2030348318939230e-01
         - -2.6137840628463689e+00
         - -1.2913130598268849e+00
         - 1.1793644597554123e-01
         - 2.8330817104411371e-01
         - 1.5076281348980930e-01
         - -2.4165053194116339e+00
         - 7.2644097891376957e-01
         - -8.2892765816855295e-03
         - -2.9352533068265957e-01
         - 2.3177014781488364e-01
         - -1.3775601932185548e+00
         - 9.2374097603264393e-01
         - 4.8963309751294870e-01
         - 5.1737302145715269e-01
         - -3.1779930159834269e-02
         - -1.5829278981501332e-01
         - -2.3617039005032265e+00
         - -2.6062953387000098e-01
         - -5.2742712407197599e-02
         - 2.2126777711193599e-01
         - 2.6575547810696587e-01
         - -3.8861904746930453e-01
         - 1.6967149379137653e-01
         - 2.8998015396560917e-01
         - 3.2178223188568209e+00
         - -3.8380016916749971e-01
         - -6.2990437938017868e-02
         - 5.9297683866018783e-03
         - 1.6347376153453639e-02
         - 8.2233770683593077e-01
         - -1.3304176724965983e-01
         - 6.4078502879659971e-01
         - -4.5769846935352132e-02
         - -3.9774838683479979e-01
         - 1.2141222916659251e-01
         - -1.1015830779862552e-01
         - -1.6345705595797055e-01
         - 1.2819075532106470e+00
         - 6.9297084974894493e-02
         - -2.8373482648029333e+00
         - 1.5164284206454157e+00
         - -3.1184275397902129e-02
         - 2.6337295910386445e+00
         - -7.7951971122280361e-01
         - 5.2262964291351899e-01
         - -4.6411391578006223e-02
         - 8.9338616389926750e-01
         - 8.5814788439048356e-02
         - -1.2045418131325307e+00
         - 7.2460995164613640e-01
         - 4.9965759720999603e-01
         - -7.6017336142420877e-01
         - 1.4912877038739288e-02
         - 1.1408411486687592e-01
         - -7.9010311362443997e-01
         - -7.7695329600188590e-01
         - -1.0325942416094678e+00
         - 7.0671748686170323e-03
         - 6.9725394493521553e-01
         - -5.9464148042092690e-01
         - 5.6676220263172095e-01
         - -1.8612450182913454e+00
         - 7.5737587729527789e-01
         - -5.5946556583132967e-01
         - -1.0669875036589143e+00
         - 3.1138871205070329e-01
         - -1.4213241490235977e+00
         - -6.4029493617114352e-01
         - 3.5386591986191152e-01
         - 8.0529079230594036e-01
         - -4.1912976525308115e-01
         - -3.6611722271600262e-02
         - 1.7564424494049171e+00
         - 7.8653862552220333e-01
         - 2.0556140523491977e+00
         - 6.7800818079564473e-01
         - 7.1040360530231828e-01
         - -4.1608784436135660e-01
         - 3.6621616453830663e-01
         - 1.8883644635885506e+00
         - -6.3627771439174385e-01
         - 5.9415142331407600e-01
         - -4.0831556962664500e-01
         - 2.1365777981373268e-01
         - 1.3334432355346992e+00
         - -7.8302670630695359e-01
         - -1.5188962507372489e-01
         - 8.6990299395415527e-03
         - -7.7514744236429303e-02
         - 1.0393539900274054e+00
         - 6.2039417880432779e-01
         - 1.1323674436814714e-01
         - 6.7111077297190402e-01
         - 2.7581538718427356e-01
         - 4.3475298469808987e-01
         - -7.7558458795133023e-01
         - 1.0273290392999113e-02
         - 1.5155580448985924e+00
         - -8.3327560146375157e-01
         - 4.6411124175074248e-01
         - -1.7020262190452682e+00
         - -5.5598890812945279e-01
         - -1.0741466003805612e-01
         - -5.9902006621185311e-01
         - -2.8162752282952030e-01
         - -6.1553438369980873e-01
         - 5.0989437369449393e-02
         - 6.5787555424384248e-01
         - 3.2201284308006672e-01
         - -7.5538390689637205e-02
         - -1.7970858392928890e+00
         - 1.0079801677663303e+00
         - -1.0015096905992618e+00
         - -1.0277943678177843e+00
         - 4.7688093017539612e-01
         - -9.8951932857145886e-01
         - -2.9730273110566552e-01
         - -1.7597055446485302e-01
         - -1.3476642661790678e-01
         - 9.8117478650611278e-01
         - 7.1763566275973867e-01
         - -5.3473288215645087e-01
         - 3.5926007367089202e-01
         - 2.8541143026952337e-01
         - 4.1787619639975961e+00
         - -6.8610715528872024e-01
         - -2.9870675512780448e-01
         - 1.1858069453195491e-01
         - -9.6546779197180077e-01
         - 7.3608159696854303e-01
         - -5.1786071658440347e-01
         - 7.3939959151623424e-01
         - 1.9099297987220154e-01
         - -7.3350738323220854e-01
         - 1.1206068865268302e+00
         - 6.0782192880211904e-03
         - -1.0823116572711731e+00
         - 9.6394607664141330e-01
         - 2.8922418395677785e-01
         - -2.9211596888813354e+00
         - 1.3916036568964090e+00
         - 1.3591397480170493e+00
         - -2.6718071089133616e-01
         - -2.7264232573550999e+00
         - -1.6550044150867507e+00
         - 2.6015325262234829e-01
         - 5.8027335947500913e-01
         - 1.0641048700120594e+00
         - 1.7539133221652707e+00
         - 5.8216856244948012e-01
         - 2.9039146070942756e-01
         - -9.0314626861348335e-01
         - 1.0055382003115701e-01
         - 7.3361905671472316e-01
         - -2.0280461862329262e+00
         - -4.1176588965114480e-01
         - -5.5881908053681573e-01
         - 4.0017874146232513e-01
         - 4.5059328936666387e-01
         - -1.0116835736382888e+00
         - -2.5177793589079442e+00
         - -5.0302603722137762e-01
         - 1.0066715955983528e-01
         - 4.2218426204715070e-01
         - -4.8278615060427654e+00
         - -7.6773732978580889e-01
         - -1.5575348644922857e+00
         - 6.2740714201741477e-01
         - -4.0979086414437471e-01
         - -2.8601479640358436e+00
         - 2.0745523391282392e-01
         - 5.6255698544031207e-01
         - 4.1586730226731505e-01
         - -9.0371892627984340e-02
         - 1.1702739518827827e+00
         - -1.8420764307815701e-01
         - -5.5846878893179674e-01
         - -1.5141861058767575e-01
         - 3.2482325039172028e-01
         - 1.5404032402400070e+00
         - -3.0224153920294046e-02
         - 4.9825872497256241e-01
         - 3.3168968454084868e-01
         - -8.2829474239259693e-01
         - -1.8966424672023110e-02
         - 8.5611494842522770e-02
         - 3.8725765005445806e-02
         - -1.2534252129721302e-01
         - 1.9540260737172244e-01
         - -1.2920244230023372e+00
         - -1.5746237161258063e+00
         - -3.2102894068763266e-01
         - -5.5806924576558248e-01
         - 2.7112877684194520e-01
         - 1.0297837998197059e+00
         - 1.4014168332615692e-01
         - 5.0892213509637729e-01
         - -2.8086925160849470e+00
         - 6.9535571242710847e-01
         - 7.1194536775779682e-01
         - 1.6410334201814011e-01
         - -4.5326675257309285e-01
         - 2.1060585159342182e-01
         - 5.6708299986594091e-01
         - -3.2144437918489337e+00
         - -5.6930574155759150e-01
         - -4.8651418446123684e-01
         - 7.3875552319093274e-01
         - 1.3339089147842674e-02
         - -5.5613410504631075e-02
         - -1.4056694193822912e+00
         - 1.3852846375991481e+00
         - 4.2797404272022976e-01
         - 5.2240715123338499e-01
         - -2.3909939923381680e+00
         - -4.8073453043819125e-01
         - -2.8267681630481389e+00
         - 6.5957444575119317e-01
         - -9.3264342179141910e-02
         - 2.0509081533994169e+00
         - -3.2285576072035922e-02
         - 5.1735929259069287e-02
         - 2.1537015738043515e+00
         - 2.6105116280033502e-01
         - -2.5758248766600333e-01
         - -1.2518982493128705e-01
         - 1.4105547677536320e-01
         - -4.0696193712759843e-01
         - 5.3011655657563650e-01
         - 1.7619777117891340e+00
         - -4.7259467676542533e-01
         - 9.2554274650131474e-01
         - 9.1833250158247490e-02
         - -4.2704166222528761e-01
         - 2.6871387242959882e-01
         - 1.2328494158983550e-01
         - 6.0038740825211635e-02
         - -6.3533327075243584e-01
         - -5.3392428630258837e-01
         - 3.9407504522865402e+00
         - -2.0280738731747353e-01
         - -1.1541317455870621e-01
         - -2.0158440943121829e+00
         - 7.6394570865675315e-01
         - 2.4550799912412478e+00
         - 8.9932551589593651e-02
         - -7.5993322626996807e-01
         - -1.2751471273948738e+00
         - -7.4407306590702438e-01
         - 9.4079048356952433e-01
         - -4.4472018586770473e-01
         - -2.0753716665505779e+00
         - 2.1300209800308922e-01
         - 2.6140240719646529e-01
         - 2.0915829100396371e-01
         - 1.6988352452652250e-01
         - -2.7177050242644440e-01
         - 1.0208747355886083e+00
         - -7.9551399280819712e-01
         - -2.7420380586325938e-01
         - -3.0246281402690260e+00
         - -1.4109932979676560e+00
         - 1.6774050324006382e-01
         - 1.3097152833377176e-01
         - 4.8250054168924645e+00
         - -1.0137824027918443e+00
         - -1.6576232780909597e+00
         - 9.2885775062946674e-01
         - -7.6089781444575233e-01
         - 1.2689136853389629e+00
         - 4.8909645813395047e-01
         - -4.9524429908046830e-01
         - -1.0291432423876981e+00
         - -7.4835190635159832e-01
         - 1.6205768389454904e+00
         - -1.4903928383038673e-01
         - -1.1348516194949578e+00
         - 4.6288922562996776e-01
         - -8.8845062158638827e-02
         - 1.2534688900644259e-01
         - -5.6932386305545246e-01
         - 8.3570776050595574e-01
         - 8.5402072249903416e-01
         - -1.0587343391085304e+00
         - 6.9608150965304405e-01
         - 6.0431357669305674e-01
         - -3.1627388924742417e-01
         - -6.9544292450540142e-03
         - -4.7789706162124362e-01
         - 5.0428821560524362e-01
         - -4.3052836178919716e-02
         - 1.4844509164508726e-01
         - -2.3050781668452314e+00
         - -1.5172132204140836e+00
         - -4.6298534814903131e-01
         - 7.7885530388245461e-01
         - -1.3011583936866922e+00
         - -4.7868227646075595e-01
         - 4.7568131555161208e-01
         - 9.6354124752540504e-01
         - -2.1822975680150319e-01
         - -2.4100246611124447e+00
         - 7.8709021289218339e-01
         - 7.8478804468890628e-01
         - 1.0765776487129699e+00
         - -1.2453506891102837e+00
         - -5.3217241851545938e-01
         - -1.1174097414814201e+00
         - -1.3934486592791617e+00
         - -4.4516398476328517e-01
         - 1.5846498169027960e+00
         - 2.4687535683821094e-01
         - 3.7651161849840131e-01
         - 6.6763416289705124e-01
         - -4.0999491475785570e+00
         - 1.3626737658169874e+00
         - 3.4653374638790719e+00
         - -7.1459187825064707e-01
         - 1.1138632894113849e+00
         - -2.9871660035510534e+00
         - -8.2099314164719317e-01
         - -9.3865196551901042e-01
         - 4.5188696142224261e-01
         - 3.3639315873858355e-01
         - -1.6891784928969773e+00
         - -1.1716544788977576e+00
         - 1.5907682229529903e+00
         - -9.5572566843039830e-01
         - -6.7507201043643250e-01
         - 2.0796723207685580e-01
         - 4.2830054694420389e-01
         - 1.7193263218769553e-01
         - -7.7779608391416377e-01
         - 1.2298469856969290e+00
         - -9.2695221110267323e-01
         - 5.5527842472033606e-01
         - 1.5083733821104739e+00
         - -1.2152689964645880e+00
         - 2.5041120694523566e-01
         - -3.2747735525066526e+00
         - -9.8655677010427556e-01
         - -1.9083235553843834e+00
         - 4.7419426989884295e-01
         - -1.8593079373370838e+00
         - -1.3145593273709457e+00
         - 5.2191488048609702e-01
         - -9.9714099709334292e-01
         - -2.7932701571578993e+00
         - -3.1939080617463628e-01
         - -7.5991755951170248e-01
         - 6.6805204643924565e-01
         - -1.6471089783571324e-02
         - -5.4696221540755929e-02
         - -1.0711392499680514e+00
         - -2.4172409048865031e+00
         - 1.9195199491733290e+00
         - 3.2603275312596464e-01
         - 1.1749820246419294e+00
         - 8.2742834960684875e-01
         - -1.4194660194735351e-01
         - 4.2135810992832239e+00
         - 2.5989563339030379e+00
         - -3.1489694939762219e-01
         - 5.9407405996145979e-01
         - 6.1790444297662117e-01
         - 3.3642946518735012e-01
         - 2.9247713589508719e+00
         - -1.7947081677109003e-01
         - 2.9712123170678434e-01
         - 2.7950874951437448e+00
         - -4.0315223563401081e-01
         - -2.5319229976615230e+00
         - 7.1825266861804560e-01
         - -6.9376676416848165e-02
         - 2.0734341109383734e+00
         - -8.6241755995765224e-01
         - 6.7929690878901805e-01
         - -2.6965262250998345e-01
         - -3.6422293311329623e-01
         - 5.6175536427323847e-01
         - -2.7252066179440759e-01
         - 1.2388993820210987e+00
         - -5.4294302765741771e-02
         - 6.0069406308585571e-01
         - 6.7538065930239560e-02
         - 1.4130705314142977e-01
         - 6.8046635636476793e-01
         - -4.9530864585870293e-01
         - -1.2296096637327165e+00
         - 3.3490626837784747e+00
         - -7.9807714762836124e-01
         - -6.3958296758704292e-01
         - 4.4834308741153184e-01
         - 1.1927481005366847e-01
         - 5.7682737265008222e-01
         - 3.2181095468781262e-01
         - -3.2264398175109581e+00
         - -3.5802898728838495e-01
         - 6.9593225374196477e-01
         - 3.3114019891428992e-01
         - -1.5492246811533854e+00
         - -2.0561541329462911e+00
         - -1.5143081059980776e-01
         - -4.3031732493687186e-01
         - 1.6218863592368482e+00
         - 7.7477273420582071e-01
         - 2.1940071706061098e-01
         - 1.2034294182117154e-01
         - -1.2253606235013625e+00
         - -5.4155390002257164e-01
         - 2.4238714229468314e+00
         - 2.0636920126454537e+00
         - -2.1693162410885263e+00
         - -9.4947042002542545e-02
         - 4.0449649330964412e+00
         - -1.3664789067256204e+00
         - 6.4549357501234965e+00
         - 1.0384617232107780e+00
         - -6.8638323481681740e-01
         - 2.5529323064701392e-01
         - 6.6752799353877379e-01
         - -2.7590549842114909e+00
         - -5.5037423989446843e-01
         - -1.7067341793700643e+00
         - 6.3015813484651051e-01
         - -2.0949614006250830e+00
         - -6.9636032951778815e-01
         - 1.3307783286099533e+00
         - -2.4317435681135051e+00
         - 8.1424857241375881e-01
         - -7.1879116213758865e-01
         - 1.7296210070324693e+00
         - 1.2338092339291369e+00
         - -8.8270462110527015e-01
         - 6.1049525464068843e-01
         - 1.7330346241424808e+00
         - -8.2319515525958575e-01
         - -8.6144617308661409e-01
         - -1.2413439085031928e+00
         - 1.1764725017502184e+00
         - 2.0523253217180049e+00
         - -1.7998559162678114e+00
         - -8.6575388966460032e-01
         - -3.8241975793481503e-01
         - 2.5993122447043011e+00
         - 1.8496429715644855e+00
         - -3.3029845013306929e+00
         - 8.6610666427437510e-01
         - -9.2883847373786688e-01
         - 8.0600887148194766e-01
         - -8.0932588629852265e-01
         - 9.3486862177871755e-01
         - 5.3225194317749647e-01
         - 8.9257698915278383e-01
         - 8.2217382918719517e-01
         - 2.9595989402018739e+00
         - -1.3161322030795253e+00
         - -1.3335182546489390e+00
         - -1.4472184604032254e+00
         - -1.7841737827187814e+00
         - -1.5588521655595899e-01
         - 1.7707318410070811e+00
         - 1.2707470510516843e+00
         - -6.1623562052478387e-01
         - 1.8748844300828473e+00
         - 9.6077618219330052e-01
         - -5.9360846695533720e-01
         - -1.5370730806906358e-01
         - 7.6682406341217558e-03
         - 1.5872488765264541e+00
         - -5.2529152925636036e-01
         - -1.0801966703501443e-02
         - -9.8012837647133810e-01
         - 5.9811690726929623e-01
         - -3.3939023718532209e+00
         - 2.1562682061444952e-01
         - 5.6687256112916064e-02
         - -1.2778838337082337e+00
         - 3.9378658732814825e-01
         - -6.0096974214585319e-01
         - 4.2230259930947744e-01
         - 7.1715453136316176e-01
         - -1.5342684309656929e-01
         - 3.2215886824036738e-01
         - -3.4971610573929973e-01
         - -5.4267066467285419e-01
         - 1.1165517169343562e+00
         - -1.3700972119257335e-01
         - -4.2000406747406360e-01
         - -1.0632525934573540e+00
         - 1.4575370746225547e-01
         - -2.8916780303006984e-01
         - 2.4769907607022768e-01
         - 3.6839299213535082e-01
         - 1.3497134610064734e+00
         - -2.3189590030300850e-01
         - -7.2131591617112800e-01
         - 1.2921352053785298e-01
         - -3.0889080541935163e+00
         - 6.0775883500861660e-01
         - 3.0606492861790180e+00
