%YAML:1.0
---
opencv_ml_ann_mlp:
   format: 3
   layer_sizes: [ 75, 50, 30, 15, 1 ]
   activation_function: SIGMOID_SYM
   f_param1: 5.0000000000000000e-01
   f_param2: 1.
   min_val: -9.4999999999999996e-01
   max_val: 9.4999999999999996e-01
   min_val1: -9.7999999999999998e-01
   max_val1: 9.7999999999999998e-01
   training_params:
      train_method: BACKPROP
      dw_scale: 1.0000000000000001e-01
      moment_scale: 1.0000000000000001e-01
      term_criteria:
         epsilon: 1.0000000000000000e-04
         iterations: 10000
   input_scale:
      - 3.3806859934770152e-02
      - -3.3754096875470787e+00
      - 2.8006708104835416e-02
      - -3.2616108031017443e+00
      - 2.6156492928548557e-02
      - -2.1827265074953099e+00
      - 3.3553769363410625e-02
      - -3.3582850239512920e+00
      - 2.8085448736911576e-02
      - -3.2599160326570180e+00
      - 2.6088367896593564e-02
      - -2.2011538558006003e+00
      - 3.2758401144948421e-02
      - -3.3151824420825347e+00
      - 2.7952842458218451e-02
      - -3.2621284592174256e+00
      - 2.5207181160678920e-02
      - -2.1825595603983214e+00
      - 3.2876261713181462e-02
      - -3.3221910594595601e+00
      - 2.8004338619969718e-02
      - -3.2760823200618403e+00
      - 2.5265508553641406e-02
      - -2.1762659157328450e+00
      - 3.3153856458212519e-02
      - -3.3388126228500572e+00
      - 2.8065757637672415e-02
      - -3.2887950750423052e+00
      - 2.5416750393561994e-02
      - -2.1665467960844533e+00
      - 3.3625514869134704e-02
      - -3.3573283722906164e+00
      - 2.8002467552195431e-02
      - -3.2522020186713596e+00
      - 2.6119324763241348e-02
      - -2.1885460875973326e+00
      - 3.3425608728902566e-02
      - -3.3444749167107890e+00
      - 2.8118466405075388e-02
      - -3.2535893063742614e+00
      - 2.6103785840187656e-02
      - -2.2123111516986058e+00
      - 3.2268706156430418e-02
      - -3.2871020819319492e+00
      - 2.7860894791029277e-02
      - -3.2635058270386459e+00
      - 2.4732577323172671e-02
      - -2.1761085646269733e+00
      - 3.2624553816899750e-02
      - -3.3045829600189505e+00
      - 2.7987793653300761e-02
      - -3.2730860823141574e+00
      - 2.5097996936789851e-02
      - -2.1801724456348390e+00
      - 3.3029873185005609e-02
      - -3.3254035695939557e+00
      - 2.8090857458702673e-02
      - -3.2831633947948804e+00
      - 2.5471394005976294e-02
      - -2.1746334397325917e+00
      - 3.3282595546124658e-02
      - -3.3320978761384343e+00
      - 2.7956436608552508e-02
      - -3.2469639853546348e+00
      - 2.5885575653682359e-02
      - -2.1863926028687848e+00
      - 3.2907018540179571e-02
      - -3.3120883759380213e+00
      - 2.7968369486909932e-02
      - -3.2465971122539741e+00
      - 2.5612620738531683e-02
      - -2.2016013436698314e+00
      - 3.0726102768563305e-02
      - -3.2063120012004664e+00
      - 2.7325000787871336e-02
      - -3.2659973423246389e+00
      - 2.3052554677007776e-02
      - -2.1171574619437497e+00
      - 3.2814472960804114e-02
      - -3.2997323400402605e+00
      - 2.8026198775747475e-02
      - -3.2517240641093341e+00
      - 2.5559330638775239e-02
      - -2.1996847896830132e+00
      - 3.3167632981179050e-02
      - -3.3231929384033689e+00
      - 2.8080218522199007e-02
      - -3.2626715597411260e+00
      - 2.5744672069673017e-02
      - -2.1829580280472536e+00
      - 3.3747599462338622e-02
      - -3.3797170476751952e+00
      - 2.7992820308098413e-02
      - -3.2778551474237374e+00
      - 2.5914151782249348e-02
      - -2.1729852241410268e+00
      - 3.3150931333981885e-02
      - -3.3437996183370804e+00
      - 2.7957817341569480e-02
      - -3.2782999116225948e+00
      - 2.5391228386532974e-02
      - -2.1760523066935535e+00
      - 3.2673588553503267e-02
      - -3.3116258537487733e+00
      - 2.7845981239010789e-02
      - -3.2700239207434487e+00
      - 2.4871240284201790e-02
      - -2.1636780459168774e+00
      - 3.3655989554585458e-02
      - -3.3520406615044598e+00
      - 2.8099978869678337e-02
      - -3.2575028104879049e+00
      - 2.6272318128883854e-02
      - -2.2007553878981940e+00
      - 3.3916598485935347e-02
      - -3.3787016754753898e+00
      - 2.8109476896321622e-02
      - -3.2764856340293864e+00
      - 2.6206648980966103e-02
      - -2.1768721307184604e+00
      - 3.4484966412408440e-02
      - -3.4443905428542778e+00
      - 2.8074624512240867e-02
      - -3.3094871369553012e+00
      - 2.6219902812475267e-02
      - -2.1657974884104143e+00
      - 3.3824540781527961e-02
      - -3.3944891338909069e+00
      - 2.7954425364646287e-02
      - -3.2959621322270070e+00
      - 2.5686635814323417e-02
      - -2.1551683353077506e+00
      - 3.3743936911533517e-02
      - -3.3887368788334054e+00
      - 2.8026067625659713e-02
      - -3.2965373219955363e+00
      - 2.5598889767763363e-02
      - -2.1620714090286217e+00
      - 3.4136380567510602e-02
      - -3.3944544857142316e+00
      - 2.8064986556472715e-02
      - -3.2807088946353580e+00
      - 2.6372733987888031e-02
      - -2.1723094489485106e+00
      - 3.4675886417334545e-02
      - -3.4473038083319953e+00
      - 2.8151825242666066e-02
      - -3.3070900951910285e+00
      - 2.6587646894455069e-02
      - -2.1697794612632233e+00
   output_scale:
      - 1.0526315789473684e+00
      - 0.
   inv_output_scale:
      - 9.4999999999999996e-01
      - 0.
   weights:
      -
         - -6.7368936507185961e-01
         - 8.4768421654653725e-01
         - -6.9242704861142856e-01
         - 1.5636573347043690e+00
         - -4.9002827664642495e-01
         - 9.2285914994009999e-01
         - 1.5758697481229218e+00
         - -3.3696674821456868e-01
         - -5.6272530653448682e-01
         - -2.5072650567729005e-01
         - -1.9009620058228516e+00
         - -5.9462782506611678e-01
         - -3.2158174888136957e+00
         - 1.3674353699211734e+00
         - -5.6867684197925372e-01
         - 2.8586553419465827e-01
         - 1.6443817960935536e+00
         - -5.3598263832341630e-01
         - 1.0376977849038460e+00
         - 3.2961021676663466e-01
         - -1.4421000996443370e-01
         - 4.2292118969316106e-01
         - 1.4540756493194607e-01
         - -3.6754771087605032e-01
         - 1.1110943015993249e+00
         - -9.9831212261440960e-01
         - 3.3182706357429581e-01
         - 2.6709316644726777e+00
         - -2.7523102665030369e-01
         - -1.5869991516267976e+00
         - 1.7121222813306902e-01
         - -3.3779299428533266e-01
         - 4.2952776204588405e-01
         - -2.4876839899351569e-01
         - -4.3118885470297291e-01
         - 1.0462588962609998e+00
         - -1.1384084566294417e-01
         - 4.0672283550186716e-01
         - -2.7149893115026141e-01
         - 3.1789768603845497e-01
         - -2.3950421104556971e+00
         - -3.9197378369642100e-01
         - 5.0046626478960721e-01
         - 2.4519948294986849e+00
         - -1.7905116669150768e-02
         - 6.8884067582155550e-01
         - -2.7520506858911933e+00
         - -2.1705579648953934e+00
         - -5.3310288172099041e+00
         - -3.2013560255005817e+00
         - -2.7404165421689647e-01
         - -2.3192871541100979e-01
         - -9.6935767228788294e-01
         - 2.9283735750220496e+00
         - -7.1725661932747897e-01
         - -4.2906293436584492e-01
         - 2.2645075977975765e-01
         - -9.0954877662902611e-01
         - 1.7784966606181427e-01
         - -3.1591291332827059e-01
         - 9.6072638542135791e-01
         - -2.1871943797654519e-01
         - -1.9485082030939975e+00
         - 2.1016547806068778e-01
         - -8.0712774266407217e-01
         - -5.5877316165022306e-01
         - 9.6778230820169375e-01
         - -5.9457680191889717e-01
         - 7.7755889547695489e-01
         - 3.4436652964286230e-01
         - -7.1160147285245057e-01
         - 1.9701358895764021e+00
         - -2.0195604880036750e+00
         - 4.9363509808718270e-01
         - -1.4793327438872581e+00
         - -2.4963341541904600e+00
         - 2.1569765678064320e-01
         - 1.7845149910814175e+00
         - 6.1955045005656151e-01
         - -8.4071096510549240e-02
         - 2.3788637962751705e-01
         - 3.5529402778221097e-01
         - -2.1296869809844157e-01
         - 1.0655643404297497e+00
         - -5.9685850267303464e-01
         - 1.0597266170594533e+00
         - 1.3404393729508430e+00
         - 1.9677324927139775e-01
         - 2.1131798812117022e-01
         - 5.9370501908050066e-01
         - -4.2129334308415247e+00
         - 2.8505338920321610e-01
         - 1.9586042112219613e-02
         - 5.5208349718808387e+00
         - -2.7621704867514357e-01
         - -4.4104406598069562e-01
         - -1.9447981859860219e+00
         - 1.9724551323620998e+00
         - -9.8416470062401462e-01
         - -7.4316609066579054e-01
         - -2.4777645285307566e+00
         - -7.3433052768107021e-01
         - 1.7453158594020168e+00
         - 2.9694975841452074e+00
         - 8.1227354256437589e-01
         - -9.6824768896601932e-01
         - -5.5536186388944520e-01
         - -1.0175203538896438e+00
         - 1.4718332092725848e+00
         - -5.3320616774445195e-01
         - -8.2774123604693606e-01
         - -4.0600626400550971e-01
         - -1.1324771061928327e+00
         - -8.9102240540164968e-01
         - -7.0895046978184584e-01
         - -6.8560582435578765e-01
         - 3.2384525714776935e-01
         - 1.8952477458723838e-01
         - -1.9087680385702557e+00
         - -1.6497864499757160e+00
         - -5.2078824030058857e-01
         - -2.6043954544413772e-01
         - 2.3714852554968124e-01
         - 1.9539719265961170e-01
         - 3.6793309899619719e-01
         - -1.9577162666917820e+00
         - 1.1644593215421391e-01
         - -1.4419595029196655e-01
         - 5.6020160925101881e-01
         - 4.8934652985452887e-01
         - 6.3269768913832558e-01
         - -1.2912799020894534e+00
         - 7.6370404598972397e-01
         - 4.4557238256391068e-01
         - 5.2862209532366367e-01
         - 8.7865335359471428e-02
         - 7.7875168494529989e-01
         - -8.2535940454866785e-01
         - -2.6156207605955456e-01
         - -6.2998018512605461e-02
         - -1.5934370700072487e+00
         - -3.8154215217238319e-01
         - 6.9307291847047192e-01
         - 3.3046186747859769e+00
         - 4.5852617217280289e-01
         - 2.1696707534860384e-02
         - 5.6602098163266368e-01
         - -1.2149142981418701e+00
         - -3.5678170441635442e+00
         - 2.1831041691293058e+00
         - -1.6239824453501175e+00
         - 5.4076221433467941e-01
         - -4.7027176337153215e-01
         - -1.8482865198463601e+00
         - -2.7694957119220813e-02
         - 8.3950249382791040e-02
         - 8.1604623082378558e-01
         - 1.5005744349803274e-01
         - 2.1759054197095357e-01
         - 1.4259711150306955e+00
         - -1.0222529973318317e+00
         - -4.2841103485905246e-01
         - 1.8764019993705441e+00
         - 9.4234902846695445e-01
         - -1.9110946052322039e-01
         - 1.7196300978107840e-01
         - -4.3466362065510279e-02
         - -4.5652049933750560e-01
         - 5.8423070697509905e-01
         - -3.4602787984604304e-02
         - -1.8268704680210027e-01
         - 3.8751793152309172e-01
         - 9.1220539446474069e-03
         - -4.0277792804041712e-01
         - 6.9364618398554145e-01
         - 1.5101295624603481e+00
         - -9.4328641803708327e-02
         - 2.2868014479701269e+00
         - -4.8055133192345827e-02
         - -1.3557655055498901e+00
         - 1.9211229816751593e-01
         - 1.5873452722810151e+00
         - -2.5879151058139510e-01
         - 1.8493155193529245e-02
         - -3.2826899284134886e-01
         - 3.5876092410997734e-01
         - -1.0477677053862184e+00
         - -1.0826409759091489e+00
         - -4.9418192507699538e-01
         - 4.5726026463366892e-01
         - -7.1720617878611070e-01
         - -1.1527026600766339e+00
         - -1.7349519753086686e+00
         - 6.3639986198384890e-01
         - -6.6807120840855772e-01
         - -7.6230457602734658e-01
         - -3.3047561039924225e+00
         - -8.2065478985953411e-01
         - -5.4064462109666955e+00
         - -9.6027512821455163e-01
         - 2.0753359507510072e+00
         - 6.1629317163383701e-01
         - 4.5971428354323540e-01
         - -3.0457354368494070e+00
         - 7.8079313932222849e-01
         - 3.8694316583734362e-01
         - -2.0035110226340151e+00
         - 6.7718857200186133e-01
         - 2.0806313585808772e-01
         - 2.2560443045552650e-01
         - -7.9654473371822454e-01
         - -2.8865003365252651e-01
         - 9.9505102058875528e-01
         - -1.7449331780415792e-01
         - -4.1286171010708000e-01
         - -3.2810189936613998e-01
         - -9.8736714242641510e-01
         - -2.6332098997711062e-01
         - 7.1006711978380210e-01
         - 6.1410647922254128e-03
         - 2.3913996798856929e-01
         - 1.5236504161712225e+00
         - 1.2444392664383798e-01
         - 1.6840739241652899e-01
         - -1.1368496337439933e+00
         - -3.1294638323528162e-01
         - 5.6919710898583187e-01
         - 1.0202640133248466e+00
         - -2.6317797558283607e-01
         - 3.8368462954204677e-03
         - 4.6929877551537119e-01
         - 1.4260215441689692e+00
         - -1.0873261357900536e-01
         - -9.4387856387270305e-02
         - -5.9712903615170942e-01
         - 1.1990566339202626e+00
         - -4.4375205009802265e-01
         - 3.6366677798117786e-01
         - 2.9423880195427310e-01
         - 6.2051389971931892e-01
         - -3.3450502785678200e+00
         - -5.4022305990205060e-03
         - -2.9750335002280424e+00
         - 2.1627396779891694e+00
         - -1.8458777790785635e-01
         - -1.0089589212127588e+00
         - -4.1548009369545911e+00
         - -1.9975174359022458e+00
         - -1.9999957629936385e+00
         - -1.5656092616268127e+00
         - -2.2708798949715381e+00
         - 3.6035769501310821e-01
         - 5.1222155257818447e-01
         - -1.9062299029014738e+00
         - 1.2550694844236303e+00
         - -2.1881494586692413e-01
         - 2.1409475350842100e+00
         - 1.1641010616549813e-01
         - 1.2334077051672867e+00
         - 2.5199791353754886e-01
         - 2.2230497657811208e+00
         - -6.5960451254420072e-01
         - 5.8755948378342826e-01
         - -1.2872882105188241e+00
         - -3.6221012769812783e-01
         - -6.5717063975122492e-01
         - 1.2136096868234721e-03
         - 2.7937165505666872e-01
         - -7.9947133869181941e-01
         - -1.1323017250768954e+00
         - -3.2879612864865893e-01
         - 2.9874697574495433e-02
         - 8.5202387874253938e-01
         - 3.1571347065334948e-01
         - 5.0611557666073126e-01
         - 6.4738535600636282e-01
         - -3.1957670025217329e-02
         - -7.0512484530188912e-01
         - 3.8911788003607850e-01
         - 5.5032109364733639e-01
         - 1.1449714238402076e+00
         - -1.2659923778500315e-02
         - -1.0546665246392831e-01
         - -6.4060249843628616e-04
         - 2.9492905277996256e-01
         - -3.4544509066747150e-02
         - -1.0425362608789479e+00
         - 1.6844546509031069e+00
         - -3.1428622943861206e-01
         - 1.1261658474858581e-01
         - -1.3837070567060712e+00
         - -2.7281165893180997e-01
         - 9.1351924111032201e-01
         - 1.8981178130938470e+00
         - 8.9344041430929422e-01
         - -6.0690087222022127e-01
         - -3.1506725454043577e-01
         - 1.2438058587283429e-01
         - -4.5585144951594669e+00
         - -7.4277698272135839e-01
         - -1.8893846042664741e+00
         - 4.9863713345458704e-01
         - -1.4771856752814816e+00
         - 1.3045289299880407e+00
         - -2.1300428637078311e-01
         - 7.8507722359929499e-01
         - -7.2471422062281202e-02
         - 4.1620389085732917e-01
         - -1.4805164567889204e-01
         - 3.8270210581224118e-01
         - 4.7375904963887022e-01
         - -1.0273892151778623e-01
         - 3.8119916970160324e+00
         - 4.1435609955818853e-01
         - -2.5805784209151406e-01
         - 2.9425115482117919e-01
         - 2.2095357526099053e+00
         - -1.5552626547127901e-01
         - 9.9258241909739620e-01
         - 2.9501458094992810e-02
         - -7.3548999746735844e-02
         - 4.6124061347942141e-01
         - -3.1667206820051708e-01
         - -3.0077516649644881e-01
         - -5.7974522329393152e-01
         - -3.6226454144245950e+00
         - 4.8343266778628524e-01
         - 1.3731922637253653e+00
         - 3.6325696973564425e-01
         - -4.5763235799505292e-01
         - -3.7138037574635810e-02
         - 4.2833177171605391e-01
         - -1.3760335363557379e+00
         - -5.4189709057191870e-01
         - -1.2507900028325059e-01
         - -6.1006138974485508e-02
         - 5.6941744129374372e-01
         - 1.7136307715476806e+00
         - -2.9927324826949808e-01
         - -1.4269747713793601e-01
         - -2.9541552155801093e-01
         - -7.5798552547103493e-01
         - -4.3772464653450900e+00
         - 1.1279742924021081e+00
         - 4.1233695965971412e-01
         - 2.1023119643888597e+00
         - -1.2263072005819417e-01
         - -2.2756341288896103e+00
         - -1.8495455769607905e+00
         - -4.2664724980694635e-01
         - 1.4297330734940688e+00
         - -5.2186233585413710e-01
         - 2.9242671565628888e+00
         - -1.0239645345553259e+00
         - 5.9790777816592122e-01
         - 1.5678815513830784e+00
         - 4.9203939377996242e-01
         - 7.3044768531582660e-01
         - -8.6099391196634678e-01
         - -1.5551651487889058e+00
         - -1.8665391046639452e+00
         - -4.1655023305997946e-01
         - 2.3712426841549252e+00
         - -9.9650628770630278e-01
         - -5.6679255627983438e-01
         - 6.1011858846666167e-01
         - -1.2556770499786518e-01
         - 1.1660417890354743e-01
         - 1.1423376407158348e+00
         - 7.3544403136750480e-01
         - -3.1208252762956940e-01
         - 1.0910097426826670e+00
         - 1.2906174279707356e+00
         - -6.5488025736453959e-02
         - -1.2901880683759825e+00
         - -4.0727655767148265e+00
         - 8.4674059142447378e-01
         - -7.1953086845301495e-01
         - 5.5884326553131991e-01
         - 2.2130733197071006e-01
         - 3.3025915481180851e-01
         - 8.4493650825591682e-02
         - -1.8827173924921750e-01
         - -6.6259923795299835e-01
         - -4.5059773178967444e-01
         - 2.9839067900308108e-01
         - 5.4606338542564059e-01
         - 3.6869252201368554e+00
         - 8.8834013994649452e-01
         - 1.5259330962526607e-01
         - -3.1612945097764276e+00
         - -1.3075694401419802e-01
         - -3.0398576866923328e+00
         - -9.6934579029693435e-01
         - 1.1211060706184635e+00
         - 2.2080253817021536e+00
         - -1.2619826652271493e+00
         - -3.7148914706213687e-01
         - -4.9792986010171986e-02
         - -7.9105860203402656e-01
         - -1.8458801909008808e+00
         - -1.1832853263776639e+00
         - -1.8656371723890752e+00
         - 5.6619662787246339e-01
         - 1.0119345853317125e+00
         - 6.3018855680086294e-01
         - 5.1392445425880462e-01
         - 7.3759244722435807e-02
         - 2.0334967104529211e-01
         - -8.2325032824033773e-01
         - -7.4157285034469211e-01
         - -5.2647282966480535e-01
         - 2.5106470257131850e+00
         - -1.5371161194453971e+00
         - -6.2403104271779815e-02
         - 7.7083175849967878e-01
         - 2.5555006974822589e+00
         - 9.4344680929550928e-01
         - 3.9232615016602013e-01
         - 1.2006791154796965e+00
         - -8.2826791825707458e-01
         - -6.2283425348521415e-01
         - 9.8871784715777178e-01
         - -2.3018228367486485e-01
         - -4.1382801618245493e-02
         - -1.9901581617640831e+00
         - 2.0703051963639496e-01
         - 1.7317308572772813e-01
         - 1.6330000866272387e+00
         - -1.5608776712539945e+00
         - -2.9474995715019124e-02
         - -3.8886708445251089e-01
         - -5.0703074438632745e-01
         - -3.4300464402059538e-01
         - 5.8303187045489691e-01
         - -6.1680266877370538e-01
         - 4.0777230800208941e-01
         - 5.6123888684171961e+00
         - 6.6599098987307848e-01
         - -6.6827853843420582e-01
         - -3.0272501185553002e+00
         - -2.7546634172264511e-01
         - -1.1102023602188666e+00
         - 1.2021674154806756e+00
         - 2.8526201089346142e+00
         - 3.7106821117185453e+00
         - 1.3278439619026889e+00
         - 7.3126403854618138e-01
         - 1.1710826647376553e+00
         - -1.7179661764181836e-01
         - -2.3870525787491577e+00
         - 1.1488561693121031e+00
         - 2.4454079961915631e-01
         - -3.9346807712170402e+00
         - 5.0283931341446519e-01
         - -6.4655866063870893e-01
         - -7.8834044678527992e-01
         - -5.1531097967894957e-01
         - 9.6168214668513119e-01
         - -2.7851919799274999e-01
         - 1.3169805657260081e+00
         - 9.6013638275696822e-01
         - 2.1040108276268948e-01
         - -4.2570692076577454e-01
         - 4.7041922931119817e-01
         - 2.2481647720269055e-01
         - 5.0235031677973696e+00
         - 1.9227956072586563e-01
         - -2.1118792881375198e-01
         - 4.3308199339473269e-01
         - 1.6392369030054939e+00
         - 5.1553102780248494e-01
         - -4.5126699688323874e-01
         - 5.8676529734527534e-02
         - -2.2843193574759690e-01
         - -1.3035161735644931e+00
         - -9.4206268287294351e-02
         - 5.7307503295130242e-02
         - -1.0439719218687085e+00
         - 7.0334686397885293e-01
         - -8.9770107168367685e-01
         - 1.5499479427900453e-01
         - -7.5511407472536918e-01
         - -3.9166660786467855e-01
         - 3.6958409537973436e-01
         - -6.7353232925660556e-01
         - -8.8113838512480780e-02
         - -2.3837553513300929e+00
         - -1.0288744379676587e-01
         - -6.2198942068863550e-01
         - -8.4219292428068993e-01
         - -8.4999891291409613e-01
         - -2.3202032497886869e+00
         - 1.3718116794621789e+00
         - -9.7252388580455162e-01
         - 2.9132354437242663e-01
         - -2.1836143302023311e-01
         - -3.1884424835868521e+00
         - -1.5061924068074359e+00
         - -1.0517045928592483e+00
         - 1.1665685108123522e+00
         - -8.8179718519287298e-01
         - 4.2592276286989161e+00
         - -5.3732251203259098e+00
         - 9.3949769514955250e-01
         - -8.7553221354268948e-02
         - 2.3840621682857339e+00
         - -8.9079447950379198e-01
         - -4.9382598353056928e-01
         - -1.6977641196356639e+00
         - -2.2196350204467423e+00
         - 7.4440831359872117e-01
         - 1.4224891860060465e+00
         - -6.1779874018595393e-01
         - 4.0367768318026670e-01
         - 9.9705915520194566e-01
         - 1.6629613149929041e+00
         - 5.5321037098344172e-01
         - 1.3521141514668311e+00
         - 1.9154717153935046e+00
         - 7.9279497146207889e-01
         - 1.1021867241715406e+00
         - 1.4513727224204240e+00
         - -6.2478416282854121e-01
         - 4.4239783070656702e-01
         - -1.1154626003317178e+00
         - -4.7121809625550637e-01
         - -1.5294175435254849e+00
         - -8.0301406509891107e-02
         - 6.3892128594557940e-01
         - -7.9178992747979160e-01
         - 4.5863175795559685e-01
         - -3.7873081660632107e-01
         - -1.3669215631579870e+00
         - 7.7442629501610488e-02
         - -5.2099029755779369e-01
         - -4.6856026856268296e-01
         - -1.5645837697565665e+00
         - 1.2998354979575697e+00
         - -5.1735626036031568e-01
         - -8.0441764520697889e-01
         - -1.0801054518774627e+00
         - -2.0930488467279895e+00
         - 1.0839655490636126e+00
         - -2.3820935522165174e-01
         - -1.3412840182881645e+00
         - 2.4557492962992451e+00
         - -1.2365380386225804e+00
         - -2.4540422902600270e+00
         - -2.1852902533488803e+00
         - -2.5832195631872210e+00
         - 4.6246974303155508e-01
         - -3.8262721505821612e-01
         - 1.7484263195629042e+00
         - 1.3395856858834170e+00
         - -7.1704880805513360e-01
         - -7.4932781753611966e-01
         - 3.2357921416460028e-01
         - 2.6432082500483376e+00
         - 6.7553112672516913e-01
         - -2.2618044642674944e+00
         - -5.5384452300689957e-01
         - -1.9631206661424885e+00
         - -1.5846344344520815e+00
         - 5.5860380083712047e-01
         - -2.4166459092347625e-01
         - 4.3572363487533901e+00
         - 6.3326769516060422e-01
         - -1.4185034216498600e+00
         - 1.7499748136944715e+00
         - -6.2674899766633385e-01
         - -3.3656181139870611e-01
         - -7.0157659076112877e-01
         - 1.0815674319819385e-01
         - -7.5405484191443195e-01
         - -2.4565030346252292e-01
         - -2.0599876958190158e+00
         - -1.3266321815127022e+00
         - 5.1077922883029614e-01
         - 3.1072245393572889e-01
         - 3.6902516228527049e-01
         - -1.5466156706729428e-01
         - -9.6133424855365002e-01
         - 1.4501846697752203e+00
         - 1.1901330866565134e+00
         - -2.1234002429705332e+00
         - -5.6435919860585138e-01
         - 1.0487021774443908e+00
         - 8.9413024033381161e-01
         - -5.7293086720638720e-01
         - -9.2998398007615679e-01
         - -3.9088451775270316e-01
         - 8.1092999807392346e-02
         - -1.4894259180035343e+00
         - -6.9848281343647622e-01
         - -5.8869361963670243e-02
         - -9.5471239655068629e-01
         - 3.4096464006128162e+00
         - 6.1900040971807957e-01
         - 6.5340120134235213e-01
         - 8.2558561956084264e-01
         - 7.4052499334831523e-01
         - 4.2173862289676539e-02
         - -2.0079001233715172e+00
         - 4.4788670858023577e-01
         - 1.2228176926387699e-01
         - -9.1030846159375711e-01
         - -1.4056178356416418e+00
         - -1.4070992456540925e+00
         - 1.1196691057756418e-01
         - 1.9449025091272989e+00
         - 9.9168328134530825e-01
         - -2.4338043768115741e-01
         - -2.6597566537543377e-01
         - -6.5153506320052346e-02
         - 1.2239252001424743e+00
         - -6.1950764355492037e-02
         - 3.8103573106286155e-02
         - -2.3959285441248554e-01
         - -2.4646413390572328e-01
         - 1.6103907968070810e+00
         - -9.0281384481751895e-03
         - 5.0840725867855807e-01
         - -2.9060431544955506e-01
         - 8.6459051501371442e-01
         - -7.3168006689495046e-01
         - 4.7942991805776475e-01
         - 7.4606127688590007e-01
         - -8.2655042828833536e-01
         - 8.8566344796044838e-01
         - -1.2292217958915981e+00
         - 7.8423930416655774e-01
         - 9.0200457475788531e-01
         - -5.4571064134533942e-01
         - 8.1827078276208692e-02
         - 9.3263170079251434e-01
         - -1.3730385181130802e+00
         - -1.1321911911475215e+00
         - 1.5060306763666381e-02
         - 5.4156359260552667e-01
         - -5.3520047179498695e-02
         - 2.0485122432884970e-01
         - -4.6439377354142480e-01
         - 1.5829579461802745e+00
         - -9.1974278624923494e-02
         - 4.0024535718337878e-01
         - 3.1611937449972760e-02
         - 2.5223793992383681e-01
         - -6.3517455646116383e-01
         - -7.4487172949871935e-02
         - -4.9602975131821220e-01
         - -2.6000177794570128e-01
         - 3.2708533797077259e+00
         - -1.0854069157783512e+00
         - -9.3186198064271808e-01
         - -3.2614266728188512e-01
         - -2.3577538698330874e-01
         - -1.3373993796176558e+00
         - -2.0794956092678012e+00
         - 4.3984300065428411e-01
         - 1.7233868893953284e+00
         - 4.0378253857690942e-02
         - -1.9501760193112030e-01
         - 4.8829443077348572e-01
         - -6.8062262295122167e-01
         - -4.3139676423350032e-01
         - -1.9398552584875146e+00
         - -3.1054105065562704e-01
         - 1.1470950694735673e+00
         - -5.2502203865567243e-01
         - 4.8425128565492803e-02
         - 8.4117894400819804e-01
         - 8.2195120014276046e-01
         - -1.1389918739722799e-01
         - 5.8420274027784858e-01
         - 5.9717082143220057e-01
         - -5.2396662357310064e-01
         - 7.4527191365532308e-01
         - 2.2122658898162165e-01
         - -1.7750304481096488e+00
         - 1.5116506588667172e-01
         - 4.1238870917461345e-01
         - -3.4703641650686989e-01
         - -6.0894135020379637e-02
         - -2.3145977958377242e-01
         - -1.5531722995062583e-01
         - -4.6648944785020480e-01
         - -6.9288280866975649e-01
         - 7.9040161192229341e-01
         - 2.1351500774978485e-01
         - 1.5936345474437574e+00
         - 5.9335875643998628e-02
         - 8.6336578328827662e-01
         - 4.8589844770081152e+00
         - -2.5318976296888190e-01
         - -1.6536793735054867e+00
         - -2.2577257544004516e+00
         - 1.6805424236267135e+00
         - -2.3837209302530886e+00
         - -1.9959655110805241e+00
         - -2.5431623257186144e+00
         - -1.0351800284021442e+00
         - -6.7992385885817419e-01
         - 5.1519761055513502e-01
         - 1.0037983617105424e+00
         - 2.9647720689762003e-01
         - 1.7437196120891911e+00
         - 7.1481405050613211e-01
         - -8.5461520571512106e-01
         - 3.3748416181668475e-02
         - -1.9068165671929815e+00
         - -7.1525755611919817e-02
         - 1.1266906731630391e+00
         - 3.3675423447324093e-01
         - -8.3192076810865634e-01
         - -1.9811743722468822e-01
         - 1.8716606682813306e+00
         - -2.6515210455491239e-01
         - -5.3076792349094404e-01
         - 2.9540610747633173e-01
         - -9.9147005302720026e-01
         - -7.7753047315897850e-01
         - 1.4151819315801006e-01
         - -4.0701536127939764e-01
         - 2.0042543356375768e+00
         - -1.1977627645457620e+00
         - 2.6500363689698995e-02
         - 2.2021499403478719e+00
         - 2.4441252503847063e-01
         - 2.4959131109556436e+00
         - 3.1046482737686065e-01
         - 2.8521242088618642e-01
         - 1.4517245895173831e+00
         - -7.4202732987077757e-01
         - 4.3255426542218173e-01
         - 8.0016207904874581e-01
         - -2.2091559754657628e+00
         - 8.8187681720331507e-02
         - -9.4402994411222174e-01
         - 8.3451387312725378e-01
         - 4.9124342490370260e-02
         - -8.1654260141935442e-01
         - 9.1326654146470926e-02
         - 6.8808742826411673e-01
         - -1.1255506206322616e+00
         - -2.5095286729998878e-01
         - 9.5485439083518819e-01
         - -1.3645774891826004e+00
         - -1.6054655684660017e+00
         - 5.2608208574256254e-01
         - 9.4323809022508698e-01
         - 8.8674396656520527e-01
         - -1.8732036763841076e+00
         - -5.4049808038730163e-01
         - -9.2755641959427104e-01
         - 6.5943152494620483e-01
         - -3.3445339746625464e+00
         - 1.7203410366576126e+00
         - -3.0925628793112547e-01
         - 4.3764720180842037e-01
         - -7.6455284071761709e-01
         - -1.2979902430754220e+00
         - -1.8114375269204224e+00
         - 1.4148385470825735e+00
         - -3.6034559117805426e-01
         - -3.3720161736664665e-02
         - -4.3907366218956018e-01
         - -5.0004628962137299e-01
         - 8.8647234480365600e-01
         - -5.2800786629919427e-01
         - 8.5640940595817716e-01
         - 4.0762533650764332e-01
         - 3.8753391526441550e-01
         - -2.7039508498009279e-01
         - 1.5499742402066135e+00
         - -2.0918575517696443e+00
         - 8.9366031432904658e-01
         - -1.7230983109898310e-01
         - -7.1913163139070901e-01
         - -1.1744878911297152e+00
         - 7.0367566539172788e-01
         - -3.2888919715304010e-01
         - 2.7336883901645487e-01
         - -3.6361529040275864e-01
         - -2.4787367091162957e-01
         - 1.2046110795283649e+00
         - -8.4413180518607966e-01
         - 7.3770157817938731e-01
         - -1.8567223492042662e-01
         - 3.7106537345976753e-01
         - 1.1649413276294753e+00
         - -4.3220955978649450e-01
         - -2.4070163569158063e+00
         - 6.4068558341783799e-01
         - -9.3000003860326252e-01
         - 9.4338794659245562e-01
         - -1.1665598945640944e-01
         - -6.9988311989980223e-01
         - -2.9749313236824042e+00
         - -1.9496194519051555e+00
         - 1.4633599403013045e+00
         - 1.7690293295064030e-01
         - -1.8282442080904643e-01
         - 6.3256318807300560e-01
         - -8.4492005276774940e-01
         - -4.4297403612140068e-01
         - -4.1848022704227034e-01
         - 1.0065950994140319e-01
         - 1.1448034592137399e+00
         - 5.1323652025126820e-01
         - 1.3740078751346596e+00
         - -3.8841100673302875e-02
         - -4.3214009413868198e-01
         - 9.1164354892416988e-01
         - -1.4800953038963666e-01
         - -9.2526988098080554e-01
         - 1.3412446765127488e+00
         - -7.5623061883068110e-02
         - 3.1780399623374883e-01
         - -5.6145443414130228e-03
         - -2.3817756477908195e-01
         - 1.6375282770202706e+00
         - -1.1155260971964385e+00
         - 5.7702979618281920e-02
         - -6.3145026003516280e-01
         - -3.5872877370783791e+00
         - 2.1352083506705863e-01
         - -7.2100598918806513e-01
         - 3.7258638883921125e-01
         - 3.9495062856551344e-01
         - -8.9258788597912697e-02
         - 3.5465967272580640e-01
         - -1.1906354903216845e+00
         - 3.9152228573991138e-01
         - 4.7556422110531640e-02
         - 5.4002123868549534e-01
         - -3.0298235798050355e-02
         - 1.3943838785659146e+00
         - 2.2765275733794246e-01
         - 2.5302399501705136e-01
         - -8.6086923908123747e-01
         - -1.3216905788840341e-01
         - -4.3017309902599887e+00
         - 5.9095255534912949e-01
         - -2.6734027851090703e-01
         - -1.7278985154902052e-01
         - -1.8995487053984854e+00
         - 1.8784615824545001e-01
         - 3.0259586680897805e+00
         - -1.7554570938941629e+00
         - 1.3634084003331475e+00
         - -1.0898122443099938e+00
         - 1.0270623851534957e+00
         - 1.0321849092188748e+00
         - 5.1885698673477909e-01
         - -3.6711271309278276e-01
         - -3.2441752138301112e+00
         - 1.0725491121166877e+00
         - 2.6082970539075295e-01
         - 3.5817261940489353e-01
         - 1.0146958581044925e+00
         - -1.5172801203691892e+00
         - -1.6966286637250054e+00
         - 9.2148199962746438e-02
         - -3.4470506795862960e-01
         - -8.4062677196134328e-01
         - 6.6878363697272980e-01
         - 1.3816465268361802e-01
         - -9.2316649062883005e-01
         - -1.4990800334044259e+00
         - 6.9092011043706547e-02
         - -5.6977394115996582e-01
         - 7.4255468136086433e-01
         - 2.6234445881081542e-01
         - -2.7141282365381708e-01
         - -1.7889038776137811e+00
         - 1.5708053439366609e-01
         - -1.2456854155512276e+00
         - 5.9361699458429196e-01
         - 4.0568592787222763e-01
         - 1.3684872784945354e+00
         - -1.0607438503101330e+00
         - 9.3910316445331177e-01
         - -6.0488126411536236e-01
         - 5.4463569267755518e-01
         - 8.7503845623315923e-01
         - -7.1533024278975721e-01
         - 4.1520883729864327e-01
         - 2.0006714159243724e-01
         - 8.9227708066599784e-02
         - 1.2183436481283889e+00
         - -5.7863134726945120e-01
         - -1.3542048230618195e-01
         - 6.6887594670338268e-01
         - -7.3000433261334940e-01
         - -1.8056794285225174e-02
         - 1.8387439664196674e+00
         - -4.4392492906529378e-02
         - -2.2821993201446671e+00
         - -1.9038061466952010e+00
         - 9.9767111589571278e-01
         - -5.2025923805752750e-01
         - -1.2797283470603833e+00
         - 2.9379506947792602e+00
         - -9.3258665766021542e-01
         - -2.1899961702221327e-01
         - -4.2110276823725270e+00
         - -8.9694009819313114e-01
         - -7.7826577976409794e-01
         - 8.3955066253579158e-01
         - -1.4723270873648922e+00
         - 8.7666671498728721e-01
         - 3.6072750326119452e+00
         - 1.3441929422936183e+00
         - 1.0814648567390936e-01
         - 6.0199889762763859e-01
         - 3.8064154734904911e-02
         - -3.2873835275251234e-01
         - 1.1903355156365081e+00
         - -2.1814669221352812e-01
         - -9.3478284725627458e-01
         - -6.0037102222468619e-01
         - -3.6431370228930293e-01
         - 5.1359883585870895e-02
         - 3.6518903604198111e-01
         - 1.1602089062250097e-01
         - -5.8675005153969328e-01
         - 2.1048073225805015e+00
         - 7.4450904597938150e-01
         - -1.3168545797797697e+00
         - -5.8992874807268580e-01
         - 1.9314400475388380e-01
         - -7.4123693476676666e-01
         - 1.0156937749036142e-01
         - -5.3139607834031222e-01
         - -4.2459761850634881e-01
         - 2.4121518002573719e-01
         - -1.6851828463224880e+00
         - -9.9895807104433937e-02
         - -3.8971013487138928e-01
         - -1.3660756253410447e+00
         - 4.0777020832372374e-01
         - -1.6162524420916446e+00
         - -1.6502604899007014e+00
         - -1.1307108723003017e+00
         - 7.8848217439042301e-01
         - -3.0299192765304777e+00
         - 2.4229022466757047e-01
         - -4.1885443150419910e+00
         - -4.7620387586971170e-03
         - 2.5263676318679877e+00
         - -8.7711833542044093e-02
         - 2.1594772633838988e-01
         - 1.6573381791280741e+00
         - 3.1295222574095688e-01
         - -2.1004509190083684e-01
         - -3.9446402285936073e+00
         - -1.6682112178306129e-02
         - -3.6908043302959859e-01
         - -1.6258446847944469e-01
         - -3.6267149455045014e-02
         - 1.0813997653069609e+00
         - 4.9816451696492697e-01
         - 9.8880021847091959e-01
         - 8.7920702007498075e-02
         - -2.3886933112980643e-01
         - -3.2653271172824450e-01
         - 4.5493805741336546e-01
         - 1.3613863272153695e+00
         - 3.6250673645094272e-01
         - -4.5689275634655530e-01
         - 7.7636469814430764e-01
         - 5.1131920898477834e-01
         - 2.1230352446850062e-01
         - -8.6196277576298064e-01
         - -3.4091660853536578e-02
         - -4.0370049153415272e-02
         - 7.2638915379093749e-01
         - 4.8779481286599108e-01
         - 6.4134669082928708e-01
         - -4.7216953755088553e-01
         - -4.8672158522645052e-02
         - 2.9575978387001972e-01
         - -1.2597749095854094e-01
         - -1.1043825213139878e-01
         - -2.5848671224986680e-01
         - 1.2321469159124357e-01
         - -6.5885797513193078e-01
         - 4.8899271596029958e-01
         - -4.8287511803893901e-01
         - -2.7396590124342155e+00
         - 9.6722159623888948e-01
         - -3.8360962969551489e+00
         - -2.1958731858055835e+00
         - -4.8898358530510652e-02
         - -1.4099490166600825e-01
         - -6.0249179736306395e+00
         - 6.2798384487998093e-01
         - 1.8523626072930988e+00
         - -4.7770226290222878e-01
         - -2.5920060485352064e-01
         - -3.2782946238152194e-01
         - 2.2296406929920329e+00
         - 2.5528090108301997e+00
         - 6.1247446998400612e-01
         - -2.8486921586814995e-01
         - 1.0084483194136389e+00
         - 4.0895750734293501e-01
         - -4.1092418820315174e-01
         - -1.0642508065050479e-02
         - 1.3424666634845877e+00
         - 6.0448737395223862e-01
         - -6.0619535194711571e-01
         - -9.0740086598061853e-01
         - 1.6310433071048777e-01
         - -6.5870765537897336e-02
         - -6.1999290809249841e-01
         - 4.5967178163114486e-01
         - 1.2565782841901261e+00
         - -3.8645974774647845e-01
         - -1.1439963861697942e+00
         - -8.5055917049201080e-01
         - 1.3058214659988272e+00
         - 6.3274760394324225e-01
         - 4.1377154322140347e-01
         - 1.1649335880515832e+00
         - -3.9004624771290841e-01
         - -8.0638037007017105e-01
         - 7.0746446879875968e-01
         - 4.3136975084267881e-01
         - 4.2419756870189379e-01
         - 9.5722376474259976e-02
         - 1.0895352061581296e-02
         - -2.0129404097669984e-01
         - 1.8395275971872346e-01
         - -2.5005731893120958e-01
         - -7.8463526813530082e-01
         - 4.6798035244418429e-01
         - 4.7571119577976867e-01
         - -3.2905888639122688e-01
         - -1.5217869745986154e+00
         - 8.1535912219932349e-01
         - 3.1245435390889331e+00
         - -1.3675294934961475e+00
         - -2.7052697644926335e-02
         - -1.3283362909204206e+00
         - 2.2143414040770204e-01
         - 3.6717727739265373e+00
         - -2.7993651141350444e+00
         - -3.5785991011868878e-01
         - 4.2006721384045997e+00
         - -6.0139196287024632e-01
         - 8.7095354190787022e-01
         - 2.0294386795922579e+00
         - -5.1702462943806327e-01
         - -4.4211406504651535e-01
         - 1.3914805419253682e+00
         - -2.4437937822398963e+00
         - -4.6884018868982008e-01
         - 3.8209705712111891e-01
         - 1.0209795715900067e+00
         - 1.7602112546531612e-01
         - 1.2875603308321386e+00
         - 2.1084067367119723e+00
         - -1.5078264823736881e-01
         - 7.7238715865494167e-01
         - 3.0184509934902541e+00
         - -4.2586554452398298e-02
         - 1.5623875745853713e+00
         - 1.0834567804999551e+00
         - 1.5316424720363826e+00
         - 5.4591394366141299e-01
         - 1.5264545999025994e-01
         - -9.7023907088631955e-02
         - 7.9757712152116544e-01
         - -1.3841394464851013e+00
         - 5.5011443129850943e-02
         - 5.0810433979218883e-01
         - -4.5498178348047874e-01
         - -2.7320877256066156e-01
         - -1.0052428983769734e+00
         - 4.1481575044783087e-02
         - -4.5358150075983500e-01
         - 5.5367205872933278e-01
         - -2.3150144965260996e-01
         - 1.1618565446301564e-01
         - 4.7066733520710546e-01
         - 2.2779032646363739e+00
         - 3.3445105832871885e-01
         - -1.2801627820834802e-01
         - 2.1644897827919833e+00
         - -5.6041540526541589e-01
         - -9.3590346222267384e-01
         - 2.1159301858258250e+00
         - 1.2663772387891867e-01
         - 3.0270373538346340e-01
         - 1.9765450842333962e-01
         - 2.5396121264908200e+00
         - -3.1292163085503328e+00
         - -3.7012806080198440e-01
         - -1.4903526060515850e+00
         - -1.0682603036885525e+00
         - 2.7491712485885205e+00
         - -1.6577516130965242e+00
         - 2.0815963974698917e-01
         - 3.3073033418055514e-01
         - -8.3830898179977631e-01
         - -2.0268317329761589e+00
         - -8.5788645622840431e-01
         - -6.1521260083329388e-01
         - -1.1761727799230381e+00
         - 2.7012049898924839e-01
         - 5.8543729990432047e-01
         - 2.4815654301752814e+00
         - -6.5059613126086457e-01
         - 7.5191863664071035e-01
         - 1.4744779470155474e+00
         - 1.6081876888331034e-01
         - 1.6104481721487454e+00
         - 1.3401272075996737e+00
         - 9.6079584734969969e-01
         - 1.1969980281488024e+00
         - 1.4022722439472064e+00
         - -5.6553992101987649e-01
         - 6.5133516974458694e-01
         - -9.9116772670625652e-01
         - 1.4689957298233300e-01
         - -2.0075586786193961e-01
         - 2.1166920750119350e-01
         - 4.2334622354328943e-01
         - -9.4445591503693538e-01
         - -7.8789668201945184e-01
         - 2.5819012318550141e+00
         - 2.8941432940972989e-01
         - -1.4818944317763122e-01
         - 2.3199457634356463e-01
         - 3.0235921851646685e-01
         - 2.7754423749658850e+00
         - 7.2058285289806301e-01
         - 2.9143806995531280e-01
         - -1.0226331371585373e+00
         - -4.5465810691958075e-01
         - -8.5563043755467105e-01
         - 2.0616608502887174e-01
         - 6.7692247628662627e-01
         - 1.0757415252439353e+00
         - -2.0994149228134931e+00
         - 8.0721328348723143e-01
         - 2.8725530226761533e+00
         - 2.4343346177306131e+00
         - -1.3113737458457337e+00
         - -1.4561361354277982e+00
         - -6.5822407899964464e-02
         - -7.3134644495824763e-01
         - 3.7652805780445436e-01
         - -1.3033757791649839e-01
         - -3.0727754984839578e-01
         - -3.0217869425279957e+00
         - -5.6606500397941140e-01
         - -4.7319306676747097e-01
         - -2.7397483554834632e+00
         - 2.9324898267571903e-01
         - 2.5466545713706278e-02
         - 6.9217814062316507e-01
         - 2.2915803027270776e-01
         - 1.6374981983969001e+00
         - 4.7593296860622836e+00
         - 6.4871233848710985e-01
         - 2.2244890567243667e+00
         - 2.4860126966332978e+00
         - 2.3806272615953827e-01
         - -5.4572203125870200e-01
         - 1.2101369012313175e+00
         - -8.9892020165583197e-01
         - 2.0299597129696432e+00
         - 1.1147857260181029e+00
         - -9.7620126415016639e-01
         - 2.4185485287481129e-01
         - 7.9331983139093121e-01
         - -1.9225110741275560e+00
         - -1.5637443830270046e+00
         - 1.2995399445588623e-01
         - 5.0031810340566774e-01
         - 2.3634414580860394e-01
         - 5.9806194012146230e-01
         - -8.2060650841602800e-01
         - -2.5268235896404423e-01
         - 5.1366219467822001e+00
         - 1.4797844414944352e+00
         - -3.2342382872512293e-01
         - -9.6338915266813185e-01
         - -7.4099189200388571e-01
         - 2.4082642007604451e+00
         - 1.9210535604578876e+00
         - 2.0606713591375789e+00
         - 1.0752932632304191e+00
         - -1.6752564211295571e+00
         - -3.5934537773665598e-01
         - 2.2152709908331731e+00
         - 2.1365861475954691e+00
         - 2.8619245823952308e+00
         - 1.5030876880632889e+00
         - -6.6287945898760436e-01
         - 1.1748906606639786e+00
         - 1.4126506168631361e-01
         - 9.2249171877913161e-01
         - 7.0542955673638708e-01
         - -1.0603404928260643e-01
         - 1.5939523734257066e-01
         - 5.5013327791928768e-01
         - 1.3782325859803266e+00
         - 9.1882794417224356e-01
         - -2.0921319573748050e+00
         - -2.3105945098442255e+00
         - -1.9114087162991322e-01
         - 1.8475547995590996e-01
         - 9.4496284518942020e-01
         - -1.3237389468361394e+00
         - -4.5670403275223848e-01
         - 6.3609905683489176e-01
         - -4.2771094558288598e-02
         - 2.9448929888473796e-01
         - 1.1238061310906133e+00
         - -4.0009986561238542e-01
         - 1.7863649658998220e+00
         - 3.2806881455200394e-02
         - 1.8542121638081084e+00
         - 5.2867430129950010e-01
         - -1.3076609954780378e+00
         - 7.9536097372021364e-01
         - -4.8024313308395500e-01
         - 6.9239303546807585e-01
         - -3.3268799095851026e-01
         - -8.3907964599128221e-02
         - -5.9085208813362344e-01
         - 1.5735587354670064e+00
         - -1.1915481164685517e+00
         - -3.0331128770525502e+00
         - 4.1604033145259650e-02
         - 1.3246711858809714e+00
         - 7.3834333226265247e-01
         - 2.8540739041444979e-01
         - 1.4183346113623676e+00
         - -9.4073381647784518e-02
         - -1.3852934367307457e+00
         - -2.0047058987403323e+00
         - -1.0134907131652986e+00
         - 9.6534899090257720e-01
         - 7.7030499755880411e-01
         - 1.3458706167352847e+00
         - -1.0221167909777773e+00
         - -9.9459345195021454e-01
         - 2.3168201993224180e+00
         - -2.5854995739705933e-01
         - -4.9849053675933652e-01
         - 1.4820919116028664e-01
         - 1.4466853183448869e+00
         - -1.1371274621551237e+00
         - -2.4280231668377863e+00
         - -1.1615012577572367e-01
         - -2.4117083291298496e+00
         - 1.3455796752658091e+00
         - 1.5381140176475294e+00
         - 3.0815851587625929e-02
         - 2.0704408723171139e-01
         - 9.1494729986241008e-01
         - -4.2983269707415972e-01
         - -6.7347861599405257e-01
         - 1.5995652191526091e+00
         - 1.3894574943522737e+00
         - -1.2985284505772234e+00
         - 2.6930830276691864e-01
         - 1.8801238743666528e+00
         - -8.4243314620179921e-01
         - 1.9549534946279299e+00
         - -1.0794364985787736e-01
         - 6.4442240645073634e-01
         - 2.5782933058108504e-01
         - 2.6744614883878810e-02
         - 7.9132472643125784e-01
         - -5.0287634890403676e-01
         - 7.6294486194931499e-01
         - -5.7103501868340245e-01
         - -1.1150235308646970e+00
         - -1.1184052111523926e-01
         - 6.7112896337295302e-01
         - -1.2359360291672421e+00
         - -2.4816640014349645e+00
         - 4.1814091457828578e-01
         - 1.9952898956921691e-01
         - -1.0704714886235276e+00
         - -6.4310693846048606e-01
         - 7.2399949996133139e-01
         - 1.9882045839031097e+00
         - -1.1919162044839278e+00
         - -1.6156492357815040e+00
         - 5.6358839108929604e-01
         - -9.9924863444836176e-01
         - 1.2524729309739917e+00
         - 3.8359392732368502e+00
         - -1.2014270378593417e+00
         - -5.1179936923965141e-01
         - -3.5728308284394231e-02
         - 1.1567075515060552e+00
         - 7.0145319453873667e-01
         - 5.2975513840109023e-01
         - 2.0391928687780142e-01
         - 1.1344260169928781e-01
         - -8.2776588194463718e-01
         - 1.0124849914295115e+00
         - -3.7213035353479551e-01
         - 5.1942194132864117e-01
         - -1.4660724643397363e+00
         - -2.5429961360439526e+00
         - 4.5192040412155582e-01
         - 4.8885514193670654e-02
         - -1.5830973322548961e-01
         - -1.5052428788446515e+00
         - -8.9233008874493747e-03
         - 2.2165446212183220e+00
         - -2.5260758179015115e+00
         - -8.6785930848907111e-01
         - 8.7684132580289798e-01
         - 2.0141693489145754e-02
         - 2.0482649636739341e+00
         - 8.5085201849915792e-01
         - -4.0408127876250471e-01
         - 7.1778769740255133e-01
         - 1.1670114735762749e+00
         - 2.1727799903671094e+00
         - 6.0804109120003935e-01
         - 1.0986849137125536e+00
         - -1.1341793756212732e+00
         - 3.5236630424557230e-01
         - -5.3718709076642313e-01
         - -5.9455956486572337e-01
         - -2.1036756314680671e+00
         - -2.4403331593976625e+00
         - -1.0976918889196390e+00
         - 8.2277409551864444e-01
         - -1.0595486458146781e+00
         - 1.0539095751033095e-01
         - 2.8198856304859738e+00
         - 1.0620135927378058e-01
         - -3.0645248546530519e+00
         - -3.9475451063617579e+00
         - -1.0784618883010342e+00
         - -2.6915989938510232e+00
         - 1.5782718737108985e+00
         - 2.5541781854551813e+00
         - 9.0759748660306461e-01
         - 8.3074401588826519e-01
         - -3.5693011205201214e-01
         - 1.3718385608229655e+00
         - 7.1501287173183026e-01
         - 1.0795701368124029e+00
         - -9.4673141354029955e-01
         - -1.1410727207450355e+00
         - 9.7348859416850231e-01
         - -5.2586625508704665e-01
         - -5.1224763622863906e-02
         - 6.5321198957975968e-01
         - -2.5632143290788614e+00
         - -2.8516248526626833e+00
         - 3.4641744313759527e-02
         - 7.3456411438308600e-01
         - -2.0826631706239587e+00
         - 6.2058770820787112e-01
         - -2.8408277641125695e-01
         - -1.8807470222307962e-01
         - -6.0918425099448859e-01
         - 4.2826408757661338e-01
         - -2.5296290830272078e-01
         - -2.5216014924454522e-01
         - 5.7954874616207941e-01
         - -1.7900168282062519e+00
         - 1.0304363252089814e+00
         - -1.7021266122904630e+00
         - 7.3382407285588647e-01
         - -1.4687894614337721e-01
         - -1.0800956746336758e+00
         - 6.0734335077225654e-01
         - 1.5413470558186315e-01
         - 1.2072179730145599e-01
         - 2.7210989461216941e-02
         - 7.0527953478880856e-01
         - -1.0317698838078828e+00
         - -2.0331211037217289e+00
         - 1.7946635820151928e+00
         - 3.0057074097751907e-01
         - -1.6853834443998439e+00
         - -8.6472786542355531e-02
         - 7.0807275534696135e-01
         - 7.7636144850027611e-01
         - 2.4395244121933630e+00
         - -6.6387293370773301e-02
         - -2.9510101264318800e-01
         - 2.0746848808673408e+00
         - 1.5898423509893793e+00
         - -2.3827979135491606e-01
         - -3.2809306999517540e+00
         - -1.3654135148611817e+00
         - 8.4929150408512477e-01
         - -4.8328628583540401e-01
         - -5.1286096742314058e-01
         - 4.1127764612719088e-02
         - -1.0307684773748589e+00
         - -1.1988483568368959e+00
         - -7.0601172443077109e-01
         - 3.4658472756060443e-01
         - -4.2611724907638482e-01
         - -1.8247164167519372e-01
         - -1.6883044141898433e+00
         - -9.7736880473288978e-01
         - 2.6423073688161430e-01
         - 1.0550412929434705e+00
         - -2.3926411940835277e+00
         - 7.9822535951500662e-01
         - 1.8496391499529996e+00
         - -4.9366180845823632e-01
         - -1.8403603251672729e+00
         - 4.1790329150026634e-01
         - -1.0238891027782138e+00
         - -2.5778772995458682e-01
         - -4.9096171200041672e-01
         - 1.4052366996501573e+00
         - -5.6590246695705594e-02
         - -1.0887397367316340e+00
         - 1.5077156467398489e+00
         - -2.6320757088095825e+00
         - -4.2737596731679101e-01
         - 1.0205765547918519e+00
         - -2.7938872214317079e-01
         - 5.1497540751162640e-01
         - 5.1350492190717933e-01
         - -5.6722070661540280e-01
         - -4.9197188069271697e-01
         - -1.9692055461097961e+00
         - 8.5568527975204800e-01
         - -8.0421706231681711e-01
         - 1.3280990767119638e+00
         - -8.1911868206302119e-01
         - -1.3062290087363262e+00
         - -1.7157741287795254e+00
         - 1.4542131247353163e+00
         - -2.8471102374614193e-01
         - 2.4225953558828017e-01
         - -7.3814007367977985e-01
         - 7.2486675126459854e-01
         - -8.2931582497416656e-01
         - -2.9649167623610606e+00
         - -8.7800215288858929e-01
         - 8.0792357965538919e-01
         - -9.1757156155328179e-01
         - 5.6857529901853388e-01
         - 1.0098463843105403e+00
         - 1.1148039597782660e+00
         - 1.4033395883377298e+00
         - -4.1277616762599256e-01
         - -2.0544719548275707e+00
         - -1.8047585888464110e-01
         - -1.7300250740071690e-01
         - -5.2830577616894081e-01
         - -1.5452960092507533e+00
         - -1.1943039701522178e-01
         - -5.9558276919186892e-01
         - -8.3697807689289971e-01
         - -4.1153991547715180e-01
         - -5.2672438790217813e-01
         - -4.0928623233540667e-01
         - -1.4998277546685215e+00
         - -1.0910542440825994e+00
         - -3.2400630108699463e-01
         - 4.7666108782492000e-01
         - 9.9887907770095230e-01
         - -1.9597336623732358e+00
         - 1.5841998181611747e+00
         - -1.2404997509496767e+00
         - 1.0440655707689488e+00
         - 2.3490811498828523e+00
         - -2.2608590171289805e-01
         - 2.0401683869652959e-01
         - 7.8505879522897093e-01
         - -1.2206565369800630e+00
         - -5.6830578190114800e-01
         - 9.1330790785348070e-01
         - -1.2047273502337366e+00
         - -4.2048401828359001e+00
         - -7.6516965601857057e-01
         - 6.7965847827406611e-01
         - 7.6025698679278686e-01
         - -6.4866298612924977e-01
         - 3.2855827313178247e+00
         - -1.0541977775291531e+00
         - -1.4112955119337806e-01
         - -1.4064459261584903e+00
         - -1.1417997703321836e+00
         - -1.5407321874741871e+00
         - 1.4860544614203430e-01
         - -1.7582738356030632e+00
         - -1.6595885416137497e+00
         - -1.5463180364328044e-01
         - 8.0864321754750002e-01
         - 2.4669663472857577e+00
         - 5.4858067987082049e-01
         - 2.3906110205456099e-01
         - -1.4915181669788433e+00
         - 1.6552611325192840e-01
         - -6.9755678136376331e-01
         - 9.3109228419619217e-01
         - 1.1013764060417919e-01
         - 8.6205458538716773e-01
         - -1.5158283619550996e+00
         - -2.0685354639360414e+00
         - -4.4806830030677625e-01
         - 1.4167623537000451e+00
         - -1.2497942506459316e+00
         - 9.5619789409036367e-03
         - 7.3647164564510892e-01
         - 1.5852246256233660e+00
         - -1.7782063217803554e-02
         - -8.2774538355533456e-01
         - -9.0651706525867404e-01
         - -5.8060076193354582e-01
         - -2.3912519204034513e-01
         - 1.3888752172792986e+00
         - -1.6060482536399352e+00
         - -1.7266439361074242e+00
         - 1.5847081704351649e-02
         - -5.0019011033915206e-01
         - 1.8968667868720321e-01
         - 1.0410400125228614e-01
         - -3.2669113043884823e+00
         - 2.8600451815713968e-01
         - -2.4291482243065494e-02
         - -1.8536379059536854e+00
         - 3.2586242948829919e-02
         - -9.4034307114526139e-01
         - 7.7953748618020391e-01
         - -8.0841966446306396e-02
         - 6.1263366412551146e-01
         - -9.1669839848868040e-01
         - -6.9168077285457574e-01
         - -1.6881208486901220e+00
         - -4.8975242635193578e-01
         - 8.2844093466367597e-01
         - 3.4040983902360313e+00
         - -1.9555418194119061e+00
         - 1.2456999557047741e+00
         - -1.1400748299703254e+00
         - 1.2629779554068925e+00
         - -7.1600122173051173e-01
         - -1.1217728397160316e+00
         - 2.4617585786164540e+00
         - -3.9868950415616368e-02
         - -4.9431992180873008e-01
         - -1.7192786723406267e-01
         - 1.3037387845892875e-01
         - -3.6114313178582297e-01
         - 9.8015029271682808e-01
         - 4.6778434985675960e-01
         - 3.6105394515383504e-01
         - 1.3411199287610767e+00
         - -1.1748611436614051e+00
         - -5.9146880933174084e-01
         - -1.6427412853346307e-01
         - -1.6466111219907431e+00
         - -5.1357646773727272e-01
         - 3.9709101506900402e-01
         - 3.9831113752879677e-01
         - 3.9097038733781969e-01
         - 1.0094244636011042e-01
         - -2.2954312781034338e+00
         - 3.1065697798660014e-01
         - -1.3231326180648997e+00
         - -1.1094635852234660e+00
         - -5.9690961699417622e-01
         - -1.1783378083785887e+00
         - -2.7186044226247687e-02
         - 8.8837160579129060e-01
         - 3.7554251887064199e-01
         - -3.7892124802602356e-01
         - -2.3029586371381638e+00
         - -3.6118443965422416e-02
         - -4.5252379948477289e-01
         - -2.1908987379162281e-01
         - 5.3017993128994134e-01
         - -1.2307550600950261e+00
         - 5.7696833638051193e-01
         - 4.3270916221693234e-01
         - -2.2560592015977599e+00
         - 5.6630494953246235e-01
         - -1.2963957868507419e+00
         - -3.3421083411761682e-01
         - -6.4850611739729735e-01
         - 1.6256979562330365e+00
         - 1.5590250501738659e-01
         - -2.5865679271693489e+00
         - 4.7598595351084034e+00
         - -2.2580733714511374e+00
         - 6.1593802742951609e-01
         - -1.5097991645917292e+00
         - 1.5989648816410262e+00
         - 1.4612157461282729e+00
         - 1.5537656347499589e+00
         - -5.6429942929521637e-01
         - 1.5336789842727241e-01
         - -3.0253835433775130e-02
         - -1.0679390984125188e+00
         - -1.6540854833637791e-01
         - 2.1905048720854974e+00
         - 2.0552855739320788e-01
         - -9.9850916695936820e-02
         - -2.6422130922352252e+00
         - 3.7035250978137185e-01
         - 7.7704511919725450e-01
         - -2.0838785642464721e+00
         - 7.4119819990073144e-01
         - 2.7224878450863232e-01
         - 5.7870937469490302e-01
         - -7.1986471960913156e-01
         - -1.2412172829649768e+00
         - -2.8334412508075633e-02
         - -4.7554742712001669e-01
         - -9.5918247114742894e-01
         - 1.2257876531438390e+00
         - -1.8367493401546033e+00
         - -2.0264645176280176e+00
         - 9.2043405374987353e-01
         - 1.5717068348979686e+00
         - 6.7020957489372157e-01
         - 1.0869918074518355e-01
         - -2.3535222560252427e+00
         - -5.7067812546824459e-01
         - 8.1501587330749403e-01
         - -1.9064228829286769e+00
         - -6.2410949872516086e-01
         - -1.5763668983094714e-01
         - 8.8809211391356169e-01
         - -4.7351077695700539e-01
         - 3.6173016724306373e+00
         - -1.5390445726764068e+00
         - 2.0739170196788819e-02
         - -2.1137879716872536e+00
         - -1.2213868537545230e-01
         - -5.7221752842107942e-01
         - 1.9983502870472347e+00
         - -1.9564314688043054e+00
         - -5.6600999926378265e-02
         - 1.1886139786369472e+00
         - 2.5994713756975978e+00
         - -2.3142686966494933e-01
         - -8.2754802415301254e-01
         - -1.2373910747354324e+00
         - 5.7462365561629147e-01
         - 1.0570624623626483e-02
         - 8.3970699583291986e-01
         - 2.3626991914032742e+00
         - 9.8161472514591386e-01
         - -4.9204969934742621e-01
         - 1.2289705152109500e+00
         - 4.3897926349115718e-01
         - 3.7112382026694113e+00
         - -1.3832095307163872e+00
         - 8.2918803944327391e-01
         - -4.4087956586749466e-01
         - -1.9193691795890120e+00
         - -2.7369764806108160e-01
         - -5.3964301935250703e-01
         - -7.0494567118456322e-02
         - -2.0510203016692044e-01
         - -1.2080634917103785e+00
         - 2.1396222197550901e-01
         - 4.7611014103723960e-02
         - -5.2043561686344197e-01
         - -3.1245596370658829e-01
         - -5.1467276561515007e-01
         - 5.1927440019311884e-02
         - 2.2642931156054041e-01
         - 1.6778309120659171e-01
         - 5.6612746480950660e-01
         - 6.3753019637219166e-01
         - -4.5460382312819325e+00
         - -5.1078268179058950e-01
         - 1.3027641596884240e-01
         - -1.2199585649161557e+00
         - 1.7640571451451419e-02
         - -9.2192753528428684e-01
         - -2.9528244463966608e-01
         - -4.1213476750634709e-01
         - 1.2668878138933726e+00
         - -6.4420375733384341e-02
         - -1.0105026079981970e-01
         - 4.3658346426027608e+00
         - -8.0172399723424892e-01
         - -8.2170524660593255e-02
         - 1.0216092491947402e+00
         - -1.6529404270028722e+00
         - -6.1149872145886575e-02
         - 8.0852225714165538e-01
         - 1.9266837357464239e+00
         - -9.6765636868808713e-01
         - 6.7350447822154091e-01
         - -5.1324984573088306e-01
         - 1.0929379888835162e+00
         - 2.7934005764176434e-01
         - -2.6434003594190161e+00
         - 1.7563920332877958e+00
         - -3.4391645038040895e-02
         - -1.4826643261991830e+00
         - 5.2911155588077241e-01
         - 1.7095289401034992e+00
         - 1.8689791852233946e+00
         - -4.3759445313459389e-01
         - 9.9180523746051308e-01
         - 7.3847038204870608e-01
         - -3.1273597312393351e+00
         - -4.8525136935040923e-02
         - 7.6021547992673355e-01
         - 6.9594756674805802e-01
         - -9.5023169470110436e-01
         - -1.0612785017572621e+00
         - 4.4063409351154675e-01
         - 1.2561360763191587e-01
         - -1.1645230919799150e+00
         - 2.9436205045234642e-01
         - -8.4510354044677760e-01
         - 4.8252481236043854e-01
         - 1.0530482468912434e+00
         - 1.1909708161474315e+00
         - -4.3078777043692329e-01
         - 2.6881562834111600e-01
         - -2.5738189498470625e+00
         - -1.3575915125419598e+00
         - 7.9720596703700866e-02
         - -1.0195568014560374e+00
         - -2.4264088915988941e-01
         - -1.5071920601702662e+00
         - -4.6798888284875143e-04
         - -4.9743967951217366e-01
         - -1.8345949820612191e+00
         - 7.1209439998256574e-01
         - -3.4783059610543804e-01
         - -1.9200082524217113e-01
         - -1.0123904244598254e-01
         - -5.0275329457591267e-01
         - -4.4785900294548897e+00
         - -1.0061305171838064e+00
         - 2.2205999894642829e+00
         - 4.0707629465287481e-01
         - -1.5618158720874946e+00
         - -7.3552821047248251e-01
         - 6.0105599961826461e-01
         - 2.0404020771036477e-01
         - 1.6327675001957143e+00
         - -1.1826137398816157e-01
         - 2.1483153281058489e+00
         - 1.5237366249656377e+00
         - 2.1096883431665431e-01
         - -1.6525006133157543e+00
         - 5.9538324630770134e+00
         - 9.4952447870585299e-01
         - 1.6585228869158040e+00
         - -1.9851324030048374e+00
         - 1.2952740864300967e+00
         - -2.8786442877460972e-01
         - -2.3381184577068317e+00
         - 9.9710658030902877e-01
         - 5.0602088280535429e-01
         - 1.4113701473656168e-01
         - -1.2785471695503843e+00
         - -9.4897072951761074e-01
         - 1.0252758997269282e+00
         - -3.1091214631766029e-01
         - -4.5591064996523961e-01
         - -1.3361359758062064e-01
         - -1.1571852652416075e+00
         - -1.3867280734005698e+00
         - 1.5316305705450564e+00
         - 3.0839895292053647e+00
         - 4.7905966445158032e-01
         - 1.0755103786354459e+00
         - -3.3950470303185001e+00
         - -1.3623765931101481e+00
         - 1.3024555323830134e+00
         - -1.4214232917741385e+00
         - -6.7622389005357630e-01
         - 5.9711962607306636e-02
         - 6.4465506994746277e-02
         - -8.3064815868097874e-01
         - 2.4749121315281286e+00
         - -5.3105440893425215e-01
         - 7.4017317311916919e-01
         - 1.5411619273093662e+00
         - 4.8043491169394437e-01
         - -2.3387941778815988e+00
         - -1.1434683719398413e+00
         - 1.3514167273442662e-01
         - -1.8119139453317128e+00
         - 1.8045877832809913e+00
         - 1.1647765590455794e+01
         - 6.0375415708147990e+00
         - 3.1567631151259974e+00
         - 3.3527039692283074e+00
         - -3.4639102470096444e-01
         - 8.8515944939082714e-01
         - 1.3091746662163892e+01
         - 1.0585194432730731e+00
         - 6.0139166670659057e+00
         - 6.7996995391253945e-01
         - 3.1790944147094828e+00
         - -4.8522792995294237e+00
         - 2.2700781882149514e+00
         - -2.7743583862313109e-01
         - -1.9434055458189679e+00
         - -5.6973380391601944e+00
         - -8.7468933170575180e-01
         - -5.2733854808172964e-01
         - -5.1375988242844040e+00
         - -2.0849644256115343e+00
         - 4.5197956748416397e+00
         - 2.9829392620324695e+00
         - 1.7293756699538917e-01
         - 8.1173636389275783e-01
         - -3.7345631392336975e-01
         - -2.7844090263927352e+00
         - 4.6478182307363696e+00
         - -2.4786426030532831e+00
         - -6.0318164274013917e+00
         - -9.6380194686955678e-01
         - 3.0386348890661408e+00
         - -8.3524209238478275e-01
         - 4.3426702127617911e-01
         - 9.9090535915361000e-01
         - -4.4832574948618620e-01
         - 4.7005563038087814e+00
         - 8.6704481488202167e-01
         - 1.0101790763429617e+00
         - -1.0673714832357221e-01
         - 5.2821117255406702e-01
         - 1.1040179161589854e+00
         - 2.3500963016783263e-01
         - -8.2366201865833888e-01
         - 4.7519864405885098e-01
         - 9.1253787033180406e-02
         - -1.2427891385246126e+00
         - 1.0456004395256347e+01
         - 4.2687299168197965e+00
         - -7.8245050213785006e-01
         - -3.3270648675482084e-01
         - -5.1551510610554176e+00
         - 2.9499598049995268e+00
         - 3.3950499761429320e+00
         - -5.1871476767853304e+00
         - -9.9332882346789042e-01
         - -6.0801755968098581e-01
         - -1.6461606963127589e+00
         - 5.1509707826220930e-01
         - 2.5375784035663922e+00
         - 1.4848410027789740e+00
         - -3.1772384093282402e+00
         - -2.1133926974226056e+00
         - 5.0642671099043026e+00
         - 3.4819662779023748e+00
         - -1.7985375960000594e+00
         - -2.3707517408321390e+00
         - -2.7341909109985112e+00
         - -1.4167248233822705e+00
         - -2.7563088548543995e+00
         - -1.8294653629950481e+00
         - 2.7431497544321357e+00
         - 1.6823123874732955e+00
         - 2.3910314455019324e-01
         - 9.1211402683960163e-01
         - -8.8441903127137256e-01
         - -1.6906364820142326e+00
         - 3.0939444134329714e+00
         - -9.5729072254597580e-01
         - -3.1414718039770633e+00
         - -1.3018620239636212e+00
         - 1.3742946897887691e+00
         - -1.5000602191554329e+00
         - 5.7067552981978755e+00
         - 1.3375724758886454e+00
         - -1.2922753558329032e+00
         - 3.7218575373288427e+00
         - 1.0464198725019986e+00
         - -2.9508037090216956e+00
         - -1.8394381123787742e+00
         - 9.5765567827130949e-01
         - -4.4305981787918105e+00
         - 7.7866107527374795e-01
         - 2.8805509575922388e+00
         - 7.5589099204466648e-01
         - -2.1401785655564400e+00
         - 9.0426509648481102e-01
         - 2.4585643885344481e+00
         - -2.5795005387353616e+00
         - 6.5355776651727782e+00
         - 3.8329790705328901e+00
         - -6.4685237417309480e+00
         - 1.2205798400741328e+00
         - -1.8130572611192444e+00
         - -1.0611499124830459e+01
         - -1.4134846262049072e+00
         - -2.3382471761374033e+00
         - -1.2378928321078464e+01
         - -2.5795456158316385e+00
         - 8.0878411330427480e-01
         - 1.2774638850775606e+00
         - -7.6306370837495852e+00
         - 2.0301219288165084e-01
         - 8.3865226663554324e+00
         - 3.9921070273059969e+00
         - 2.9843746516971054e-01
         - 6.4485511761360415e-01
         - -1.6745247045007083e+00
         - -4.9552945912562768e-01
         - -1.1915477222052635e+00
         - -3.7186537384346774e-01
         - 1.0824390468600860e-01
         - -5.4214458129445020e-01
         - -1.1148402994425723e+00
         - -1.0964383971140518e-01
         - -2.0432940388842931e+00
         - -4.9889910994599278e+00
         - 1.1638073246671803e+00
         - 1.8560472923387783e+00
         - -1.5624189965229012e+00
         - -4.3749646929415089e+00
         - -1.9467481712140173e+00
         - 3.0877590399717803e+00
         - 5.1373417282391420e+00
         - 9.7827817507324311e-01
         - 1.9667623127976727e-01
         - 1.3023913903565953e+00
         - 3.2316985232944778e-01
         - -2.6528492509286759e+00
         - -2.3167627103460906e+00
         - -8.9255704482908294e-01
         - -4.0523820679477360e+00
         - -1.9368055535621900e+00
         - 3.0047703991495350e-01
         - 4.8663249514883624e+00
         - -1.9020644613601982e+00
         - 1.3659084055374764e+00
         - 3.2174706986901422e+00
         - -1.1411281350923316e+01
         - 1.3237015258236429e+01
         - 1.1158533788702247e+01
         - -2.4371966075304205e-01
         - 3.7079426494334672e-01
         - -1.9661694450986278e-01
         - -3.6582499476997377e-01
         - 8.7066525649468873e-01
         - 3.7617830455096302e-01
         - 8.4334116702819606e-01
         - -2.1915857289794477e-01
         - 2.3863999523265726e+00
         - -1.1151846825866922e+00
         - 4.6651196077198769e+00
         - -5.6328268684444360e-01
         - 4.6118089151744579e-01
         - 1.1166872863127517e+00
         - 1.4193759171359197e+00
         - -1.8660123352231610e+00
         - -2.2509435622157237e+00
         - 2.2171413005963112e+00
         - -1.8573360395925302e+00
         - 6.3551465083389536e-01
         - -1.3419794638217462e+00
         - -8.3149169119928457e-01
         - 5.7577922940459936e-01
         - 2.6125682530531663e-01
         - -2.0261035461337342e+00
         - 8.4991544950158648e-01
         - -1.2016941159754695e-01
         - -2.1887952242741382e-01
         - 7.1572456772178050e-01
         - -2.5492156085848244e-01
         - 8.8985737688287159e-02
         - 4.6381184304408174e-01
         - -1.0692495736447262e-02
         - -3.6939080213977976e-01
         - 6.4403012689371619e-01
         - -6.6256470155118274e-01
         - 1.1880784775313566e+00
         - -1.0949258314808654e+00
         - -1.1480933523350240e-01
         - -1.0461476321335703e+00
         - -1.0902231345830886e+00
         - 1.5357285449302975e+00
         - -6.9060105316824971e-01
         - 1.9171214194650295e+00
         - 1.8900881179538578e+00
         - -9.5553657701095740e-01
         - 4.2492981509809208e-01
         - 3.9285452241913443e+00
         - 1.2591124934835968e-01
         - 3.8715682097410555e+00
         - -2.7494227334962003e+00
         - -2.8446606786692352e+00
         - 5.9822093610515159e-01
         - -2.8474832063985150e-01
         - -2.0800935688607653e-02
         - -8.9572665338065893e-01
         - 3.2965366711917810e+00
         - -2.2613319435478512e+00
         - -6.2588470646043171e-01
         - -4.4059266865944369e-01
         - 2.6397169549477035e+00
         - 8.6192739375829641e-01
         - 9.6807509394251767e-01
         - 2.2768020516182492e+00
         - 1.7607732161945424e+00
         - 1.3165816296608452e+00
         - -2.5137943262959364e+00
         - 2.2108396531096108e+00
         - 1.2179782755700017e+00
         - 2.3172392668749193e+00
         - -2.6671776428129150e+00
         - -9.9315728123485481e-01
         - 5.7403257871344837e-01
         - -2.4936844161662877e-01
         - -1.5733316955322958e+00
         - 2.4737247872585155e+00
         - -1.6309657724633657e+00
         - 1.1823131884034763e+00
         - 2.4321718074426988e+00
         - -2.8393267673770867e-01
         - -9.0966572123704592e-01
         - 7.5465339059010839e-01
         - -6.0031856906803726e-03
         - -8.4594606899932323e-01
         - 9.3683470940590807e-01
         - -1.4159275926516177e+00
         - 6.6209695063551144e-01
         - -1.9846830462904026e+00
         - 1.8099939396021079e-02
         - -1.8087054297935157e+00
         - -1.8192271517546168e+00
         - 2.8772880582450316e-01
         - -1.2104217341504881e+00
         - 6.5835390360947132e-01
         - 1.4846930044936630e+00
         - 7.5482233181599934e-01
         - -3.4259985901297407e-01
         - 1.0568937750567298e-01
         - -9.7163994479720606e-01
         - 2.3148644820254800e+00
         - -2.4533352324657254e-01
         - -3.1582303343178647e-01
         - 2.0216404250180302e+00
         - -2.0149968399009599e+00
         - 1.3067871517623351e+00
         - 9.6239650186527304e-01
         - -3.3412626808698342e+00
         - 1.1871018839886618e+00
         - 1.0706750963056972e+00
         - -1.5261639567864045e+00
         - 7.0812093902008630e+00
         - -9.8717853822860002e-01
         - -2.7511218480700311e-01
         - 2.4350138084166245e-01
         - 1.6257213817771268e+00
         - -3.2216824600385197e+00
         - -2.4653837209449332e+00
         - 2.5139390196764064e+00
         - -2.7768365929013394e+00
         - 1.2060846357750317e+00
         - -2.9383908035751540e+00
         - -9.0965609698318495e-01
         - 8.9414800004467176e-01
         - 3.4631550476848000e-01
         - -2.3129500697293262e+00
         - 8.1010461715591689e-02
         - -1.3025637952951568e+00
         - -8.4757293394414068e-01
         - 1.6690541911292220e+00
         - 2.4876914049188645e+00
         - 1.1091673988662551e+00
         - 7.1290428297759934e-01
         - -1.7115743569992743e+00
         - -1.4326784545928459e-01
         - 1.4406691874350048e+00
         - -1.6405921111276547e+00
         - 4.4980748610512328e-01
         - -2.3305640612015952e+00
         - -4.7113106150787853e-01
         - -1.1784599630886898e+00
         - -3.6144968956281498e-02
         - 8.7359686134558490e-01
         - -3.3922470303753567e+00
         - 5.0884834762406961e-02
         - 1.4578088758281700e+00
         - -4.2072246834970510e+00
         - -6.3488935245849976e-01
         - -3.4366909713179961e-01
         - 1.9469876400291246e+00
         - 6.0500281058278738e+00
         - -2.8290450149154855e-01
         - 3.2030677514529438e-01
         - 1.9780028620606456e+00
         - -2.2956567079868334e-01
         - 1.0699013836557725e+00
         - -4.0586265128709698e-01
         - -5.1052488261200091e-01
         - -8.3520727865440902e-01
         - 6.8036178681534842e-01
         - 2.0055060087058857e-01
         - 8.4548379630376302e-01
         - 7.0650806008680567e-02
         - 2.5710841397618028e-01
         - -1.2522318021872123e+00
         - -7.4113155801757494e-02
         - -3.8671655054310333e-02
         - -1.9637688036983114e+00
         - 5.9181798592802326e-01
         - 2.7640083729323828e-01
         - 1.0586726231522012e+00
         - 5.5008071706384687e-01
         - -2.8185320587648927e-01
         - 1.1888690886356073e+00
         - -1.0506204683884901e+00
         - -4.8983250291635128e-01
         - 1.1656571717709872e+00
         - -4.7350058630839425e-03
         - 1.0448185713308736e-01
         - -5.3395770939696285e-01
         - 9.4597876641891745e-02
         - -2.0359500538950079e-01
         - 5.3805170215773201e-01
         - -8.4348322069985482e-01
         - 8.8099709081826649e-01
         - 2.3326331557990609e-01
         - 8.4393303098251771e-01
         - 1.6947814679503870e-01
         - 2.4941676849094052e-01
         - 1.2876360307783967e+00
         - -3.0563700321463438e-01
         - -2.2157211197683493e+00
         - -3.1757616397159821e-02
         - 1.0807056525534545e-01
         - 5.2014431975868566e-03
         - 2.1370493438653168e-01
         - 1.2239972458668396e+00
         - -1.3265877220511468e+00
         - -1.1309631037167756e+00
         - 6.3779545313497288e-01
         - 1.1786207923170982e+00
         - -5.2822277836345020e+00
         - -5.7146559795905716e-01
         - 6.5495047361603853e-01
         - -7.7039623138131612e-03
         - 4.2130436790035725e-02
         - -1.4199751449412223e+00
         - 3.2664485911621505e-01
         - -2.1582744444633337e-01
         - 4.0130302098099735e-01
         - 1.1377911933237019e+00
         - 1.9240426801108514e+00
         - -1.0533220138170281e+00
         - -1.1271526108853069e+00
         - -6.8182739940628623e-01
         - 6.6042840778928608e-04
         - -4.6403241238569071e-01
         - -8.5828017214591878e-01
         - 8.2718433880473774e-01
         - 4.6801999988804333e-01
         - 1.0045574554863990e+00
         - -3.7232564691279452e-01
         - 6.9656941624822943e-02
         - -8.3103969434385516e-01
         - -1.6198805131299715e-01
         - -1.4814407798193643e+00
         - 4.1351309750301803e+00
         - -9.5928583948620194e-01
         - 1.5844507852641796e+00
         - -3.7505483714480253e-01
         - -2.7993247070410443e+00
         - 1.2329371705563597e+00
         - 4.4029341064780986e-01
         - -3.1163290068970628e+00
         - 1.7834627569860055e+00
         - 7.3858200253750739e-01
         - -1.7935141204609853e-01
         - 6.3549854356443070e-01
         - 7.8306301194646200e-01
         - 5.0692927035702617e-01
         - -8.7937791955348510e-01
         - -6.3804190867601740e-01
         - -2.8005624863577983e-02
         - -2.4316399699534728e+00
         - -2.6725272660226400e+00
         - -7.1372003226517222e-01
         - 2.1270679193924916e-01
         - -1.2202272444679041e+00
         - -1.9615103584653435e+00
         - -7.2141720142182741e-01
         - -5.8821851339802189e-01
         - -1.5549868753898897e+00
         - -2.0218918669253441e+00
         - -1.4600333605389834e-01
         - 6.4137763302063089e-01
         - 8.2113556375350694e-01
         - 4.9271561853255968e-01
         - 7.6778069448107800e-01
         - 1.5190095058412114e+00
         - -4.2286832966498633e-01
         - -8.9719137486248490e-01
         - 2.1726109220343961e+00
         - 4.8314028348314425e-01
         - -2.4221848303761967e-01
         - 1.8806814410640943e-01
         - 4.4797616488746909e-02
         - -9.4532218668105761e-01
         - -2.9339420069787976e+00
         - -1.9605242791968186e-01
         - 5.0141545469563886e-01
         - -1.2593523811941751e-01
         - -4.5573670959841589e-01
         - -6.3483167897803949e-01
         - 3.0108963984076671e+00
         - -5.0362579877728297e-01
         - -3.9141282343494406e-02
         - -9.6307761362351962e-01
         - -4.1614223032932583e-03
         - -8.8121316289035434e-01
         - 5.7168441350294974e-01
         - 4.4495836932946782e+00
         - -4.3533961547365152e-01
         - -6.1110771881757309e-01
         - 2.0013501383053209e+00
         - -8.1756663630376081e-01
         - -1.1110618549352376e+00
         - 2.7199402030071912e-01
         - 6.7790675011475732e-01
         - -6.5303067744469878e-01
         - -9.6003446517641133e-01
         - 2.4862782988410120e-01
         - -1.5537815617532933e+00
         - -3.8647489896327693e-02
         - 3.6219255075541290e+00
         - -1.1466036775143604e+00
         - -1.8157574234881650e+00
         - -8.9157727629777095e-01
         - 9.5893202036807068e-01
         - -1.2932083582594633e+00
         - 9.7940374312944800e-01
         - -2.0599716570928388e+00
         - -3.4980633457014720e-01
         - 6.3896048164127661e-01
         - 1.1262555583668685e+00
         - -1.4940955691462674e+00
         - 6.7183287494931365e-01
         - 2.5233983803190618e-01
         - -1.2266798332990615e-01
         - -1.1741105650391730e+00
         - 2.6439319071196743e-01
         - -3.0544402091522821e-01
         - 9.4614979264079069e-01
         - 7.4062763504729945e-01
         - 2.4276638812768927e+00
         - -4.8450665120559533e-01
         - 4.6716370702545706e-01
         - 8.2415306868705351e-01
         - -3.7050661043536759e-01
         - 2.0355331912875493e-01
         - -2.0676508753957620e-01
         - -2.4579391922866123e-01
         - -8.9621126250357974e-01
         - -6.4715500635948164e-01
         - -4.5103697578599178e-01
         - -2.4440005866063458e-01
         - 1.3638121291358732e-01
         - 7.8598219619973897e-01
         - -4.8066732735694234e-01
         - -2.3114678229889057e-01
         - -3.4969982926889792e-01
         - -4.2223767674643287e-01
         - 2.1621551441297074e-01
         - 1.2441080986709108e+00
         - -2.8904204273728067e+00
         - 9.6258221078382045e-01
         - 3.7409640198211851e-02
         - -1.6941438814636858e+00
         - 2.4249686445225010e-01
         - -1.2408424616693814e+00
         - 1.0145466956968011e-02
         - -4.0718028440673337e-01
         - -2.0619309676605320e+00
         - 1.2656755966249647e-01
         - -4.3081153248656628e-01
         - -6.2658632948254922e-01
         - 1.2169318909525548e+00
         - 4.2273276322207909e-01
         - 3.9181388880702146e+00
         - -2.5486575500657325e+00
         - -1.5611275970210323e-01
         - -7.0444111015245103e-01
         - 4.1730927326004269e-01
         - 6.8672829716791983e-01
         - -8.5661480523368805e-01
         - -1.1937249489303146e+00
         - -5.1278833366088949e-01
         - -6.8543588259059218e-01
         - 4.8280737761533937e-01
         - -2.2644980999748171e-01
         - -2.9930628449662416e-01
         - -3.8661787915378404e-01
         - 1.1487352903973036e+00
         - 4.6298531344738092e-01
         - 1.0759890636779299e+00
         - 1.0237140918306720e+00
         - 1.1754109740773622e-01
         - -2.1779410185128523e-01
         - 2.3068414632201267e-01
         - -4.4728743779213254e-01
         - 3.2408183397044793e-03
         - -5.8151310829003577e-01
         - 3.2288438304110484e-03
         - -3.8414163219275554e-01
         - -6.7700862772882719e-01
         - 6.3239618357295602e-01
         - -1.6611496229072482e+00
         - 1.6656225870784189e-01
         - 4.0005942372060549e-01
         - -1.1746812693079642e+00
         - -5.1573561586842231e-01
         - 1.6571910537688446e+00
         - 4.5505305811941787e-01
         - -1.9118254769053843e-02
         - -9.4907657697328263e-01
         - 8.3997427366770364e-02
         - -5.4342527895797699e-01
         - -2.6879850346387157e-01
         - 1.3206233869303814e+00
         - -1.1128565770904688e+00
         - -2.8684141334323504e-01
         - -9.3593578142980513e-02
         - -2.8661270552997911e+00
         - 1.9422936792740584e+00
         - -1.2578235268336002e+00
         - -6.5319257030448863e-01
         - 7.8582308837018522e-01
         - 2.0068668886644905e-01
         - -1.1641221436711211e+00
         - -1.9191040244960462e+00
         - 7.1871018356197913e-01
         - -4.1219371314565896e+00
         - 1.0584384458856388e-01
         - 4.7144984144399754e-01
         - 1.4887631448449703e+00
         - -2.3612759265911722e+00
         - 1.5843433465449104e+00
         - -2.9687367999348280e-01
         - -1.1121461117346971e+00
         - -6.6963097829251483e-01
         - -4.6238378703439653e-01
         - -1.4925802907044528e+00
         - 3.9021951648405748e+00
         - -2.8406939766787370e-01
         - 2.7085244872114371e+00
         - 3.1762304644574108e-02
         - 1.5705002048159455e+00
         - 8.8956273660189644e-01
         - -1.6405686927808529e+00
         - 1.2613610817269503e+00
         - 7.3062988383154626e-01
         - -1.5090441408575954e+00
         - -9.4569308447900380e-01
         - -1.6641621527126611e+00
         - -1.4119285551219615e-01
         - -3.7445822780982396e-01
         - -3.3921069788109715e-01
         - -6.1311513969894915e-01
         - -2.0420195288484788e-01
         - 4.9628532317376806e-01
         - -7.0235314235998692e-01
         - 2.2929471612403423e+00
         - 7.9346641817061092e-01
         - 1.5355510756716393e+00
         - 1.1286431694062360e-01
         - -5.5955031631742169e-01
         - 1.5889436088881841e+00
         - -1.3723558260742663e+00
         - -8.9358113336580502e-01
         - 9.1397262471000518e-01
         - 1.0316563372160210e+00
         - -1.4124885612269555e+00
         - 1.8930637884390802e+00
         - -1.1461693351714215e+00
         - -9.5163317335650788e-01
         - -1.0287764955459366e+00
         - 1.5254001980299083e+00
         - -2.9219253645157317e+00
         - 2.6735244925935473e+00
         - -4.1972591355691122e+00
         - -1.7213320027894501e+00
         - -1.1035675389453894e+00
         - 4.9258748878366019e+00
         - 2.7194517582487199e-01
         - 4.5789253958107529e-01
         - 2.4520390516865924e+00
         - 6.0471253074995246e-01
         - 6.8513701059313525e-01
         - 2.4732346787219162e+00
         - 1.0670995975288995e+00
         - 9.2115386749237194e-01
         - 2.7252799694809959e-01
         - 3.1562925681867487e-01
         - 1.6383566923868484e-01
         - 1.2529994889678142e+00
         - 7.2927796489679897e-01
         - -7.8282806132426674e-01
         - 6.4103776206803487e-01
         - -1.8471501904350349e+00
         - 2.4151051392990010e-03
         - -1.3609550670519728e+00
         - 5.5172039916525106e-01
         - 2.1490729411018963e+00
         - 5.6552441098213824e-01
         - 1.9229071771650907e-01
         - -4.7130050860310309e-02
         - 1.7546665881509595e+00
         - 5.3339126544733877e-02
         - 4.2149224958186782e-01
         - -8.0144201091473388e-01
         - -8.8665513528495044e-01
         - -7.5683133398104141e-01
         - -6.3082223479239052e-01
         - 6.0780876764690794e-01
         - -2.0724506349297629e+00
         - 3.3545051455037989e-01
         - -6.3503568854995995e-01
         - -6.4392895938408201e-01
         - -6.7800825015039889e-01
         - 7.8801516850513209e-01
         - 6.5272201763683368e-01
         - 7.4486534356960321e-01
         - -6.8895487856273119e-01
         - -9.7072642966703093e-01
         - -3.2764672312702436e+00
         - 7.8451428875615703e-01
         - 1.1234423595547449e+00
         - -3.2959739580926941e+00
         - 3.3838966293075873e-01
         - -2.1975904765804759e+00
         - 1.5878170546189609e+00
         - -9.0186970856244963e-01
         - 8.6105131147423786e-01
         - -5.3991233661563620e-01
         - 1.6256718816152462e+00
         - -1.1835796491182303e-01
         - 2.5044254902339108e-01
         - -2.4159518228455273e-01
         - -1.3430598122479180e+00
         - 7.8392467083260453e-01
         - -1.7250911045617592e-01
         - 3.9805692443204721e-01
         - -1.9924498731655633e+00
         - 1.0054106130104628e+00
         - 1.3174713881432358e+00
         - 2.4413550526655055e+00
         - -6.8978026380700386e-01
         - 1.2262303139073112e+00
         - -2.0444893370233803e+00
         - -3.9147629137885565e-01
         - -2.0127872216676768e-01
         - 8.1532380531982518e-01
         - 1.2442133197825547e+00
         - 5.3555478306795112e-01
         - 3.0149475322596364e-01
         - 1.0998016551156564e-01
         - 1.0076513597570338e+00
         - -1.5331767209585073e-01
         - 5.9056529761780396e-01
         - -5.0030706964577931e-01
         - 4.5484629492335504e-02
         - -4.1546549710770608e-01
         - -1.4412347461404644e+00
         - 3.3018722488161883e-01
         - -2.9125664204180605e-02
         - 2.7053031626999574e-01
         - -9.4108250625630585e-01
         - 1.0733502484887550e-01
         - -3.2999951488645551e-01
         - -7.7957197137151057e-01
         - 2.2623499881863032e-02
         - 7.6773069957537110e-01
         - -3.9542873720116694e+00
         - 9.4218801881403649e-02
         - -2.5638392867282502e+00
         - -3.3673825213920733e-01
         - 2.4469944427829748e-01
         - -3.0658096398514298e+00
         - -3.6640253914168688e+00
         - -1.4854543423916657e+00
         - 3.8091405854907525e+00
         - -2.5515106944771015e-01
         - -4.3153034071881766e+00
         - -4.5718301545807433e-01
         - -7.6058733035914194e-01
         - 1.0553763179288262e+00
         - 9.4619328123874291e-01
         - 1.0558930812799454e+00
         - -2.2068419408828954e+00
         - -4.1193136497114341e-01
         - -4.6296213147605036e-01
         - -6.9486687677004208e-02
         - -9.0651211984089242e-01
         - 1.1727870621170033e+00
         - 2.4241425611772356e+00
         - 2.9035654664292854e+00
         - 1.1718676160373551e-01
         - 2.1495318835409254e+00
         - -2.5951902582580617e+00
         - 5.4378359089823958e-01
         - -4.3556254308714480e-03
         - 4.2833899881817128e-01
         - -1.2157755701523328e-01
         - -9.6057516033166257e-01
         - -1.7952443581359342e-01
         - -6.4939528291716697e-01
         - 2.1027633213087986e+00
         - -1.2544195818433821e+00
         - -1.5687529206731765e+00
         - -5.0028507675659961e-01
         - 8.4379155178078391e-01
         - -5.5292040354999461e-01
         - -8.7764291037963216e-01
         - 9.3962856894315239e-01
         - 4.1003883567944588e-01
         - -5.1320357635722569e-01
         - 2.7756157412540405e-01
         - -2.1723683581834989e+00
         - -1.6575102476380734e+00
         - -3.2475186483536006e-01
         - 1.2645273700199180e-02
         - 4.1595233217668190e-03
         - 1.0327604261297199e+00
         - -1.9482382871700756e+00
         - -1.0644423609725757e+00
         - 1.0173077702893651e+00
         - 8.1566177676246510e-01
         - -4.4690963053023491e+00
         - -2.4051481749015238e-01
         - -1.4211818930642517e+00
         - -9.8147860988133362e-01
         - 3.7069462419439279e+00
         - 4.0812039204570345e+00
         - -7.9989769901895769e-02
         - -4.6229574335770768e-01
         - 1.8890820626832185e+00
         - -9.5515790689384517e-01
         - -1.9644010587584090e-01
         - 3.9068818837938313e+00
         - 1.0946012972044378e-01
         - -1.0872193316153720e+00
         - 1.0671281003865709e+00
         - 1.6201243056739680e+00
         - -1.0213471810990052e-01
         - -6.9022030240240084e-01
         - -3.5103341909559140e+00
         - -4.6304891224301858e-01
         - -1.9526438758261405e-01
         - 1.6953213840547119e+00
         - -1.2982486533301293e-01
         - 8.6290320174015867e-01
         - -1.3925866332205500e-01
         - -2.4216136959978493e-01
         - 1.7843608270967100e+00
         - -1.4814375988505775e+00
         - -1.0932673478921094e-01
         - -7.0504067181400842e-01
         - -3.3645419631470058e-01
         - 6.5861671470227290e-01
         - -1.0966434904531541e+00
         - -6.5925828785792606e-01
         - -8.4420812347199836e-01
         - 2.1710084221721049e-01
         - -2.1139751641365221e+00
         - -5.3138007060119719e-01
         - 1.4166529301560132e-01
         - 6.3095971850744614e-01
         - 1.5221020634321474e+00
         - 2.4630307952866831e-01
         - 2.5896650546207969e+00
         - 2.7135200414869347e+00
         - 4.5703860774824179e-01
         - -8.7526139916099177e-01
         - 5.6742866133625092e-01
         - 7.7200194154675883e-02
         - 2.3308179149848041e+00
         - 1.1260569087540746e+00
         - 4.4109913866388277e+00
         - 4.2934774769151716e+00
         - 3.1882575848433152e+00
         - -1.1216710536043493e+00
         - -1.5467464242499880e+00
         - -1.2297319508864548e+00
         - -1.7949071812082507e+00
         - 9.8843592126605084e-01
         - -3.9521382537720835e+00
         - -1.0830599136924690e+00
         - 1.6173862435778255e-01
         - 1.2522181580367547e-01
         - -5.3675237050871412e-02
         - -2.2396315853018742e+00
         - 1.3752644828948106e+00
         - -2.3938084056764950e+00
         - 1.0506534537797521e+00
         - -1.2725287801829019e+00
         - -2.2110087523952782e+00
         - -2.6424966649758208e-01
         - 2.7143393316808506e-01
         - 3.7614336212616334e-01
         - -1.2765661186463803e-03
         - 1.7958595017162680e+00
         - 9.2386714588795371e-01
         - -1.2931259356790799e+00
         - 1.1829152197146047e+00
         - -5.6069688389773109e-01
         - -9.2973194044074933e-02
         - -7.5831344206714099e-02
         - 2.3427398540827902e+00
         - -2.5252610773364232e-02
         - -1.1896940854970475e+00
         - 1.0849897809168563e+00
         - -3.0256292008125363e-01
         - -6.0659152973141783e-02
         - -1.8108923459568160e+00
         - 7.4233274573272245e-01
         - 2.5772533270990397e-02
         - 3.1141921689460400e-01
         - 1.0589497237429000e+00
         - -2.4567710395609618e-01
         - 4.9132283898690204e-01
         - 1.4097001195687970e+00
         - 5.6322574469774100e-01
         - -2.3354704166552636e+00
         - 6.1521618582118809e-01
         - -1.2553230886631017e+00
         - 6.8340343868781095e-01
         - 3.8993503865673440e-01
         - 4.6442791516107853e+00
         - -4.1052767858902204e+00
         - -1.5707569829521599e+00
         - -3.9262622715621531e-01
         - -1.8731137108999791e+00
         - -2.8462169259397254e+00
         - -4.2634415073937970e-01
         - -3.9067513734579656e-01
         - -1.7726056637274810e+00
         - -8.2623865982061262e-01
         - 3.1750792335541933e-01
         - -4.5757503055934210e+00
         - -1.9137369476882771e+00
         - -3.0173507147603318e+00
         - -6.2908867748404185e-01
         - -2.6596701682679389e+00
         - 1.4100518937221063e+00
         - -2.7148550397818438e-02
         - -4.5610085139416556e+00
         - 1.4107080595451758e+00
         - 2.0871415023802586e+00
         - 7.0577336220013036e+00
         - 1.0613165036706627e+00
         - 2.5739536002584611e+00
         - 1.1171062826847562e+00
         - -2.7536139838743945e+00
         - 3.0065656276922446e-02
         - 2.8719795001759613e-01
         - -1.3306324367823685e+00
         - 1.1455338659833746e-01
         - -2.2993225012824800e-01
         - -2.3665384397855789e+00
         - -1.4949540202926548e-01
         - 8.8225776431076597e-01
         - 2.5147678683227143e-01
         - -1.3156738862141488e+00
         - 7.9365208297565146e-02
         - 1.3613407316248334e+00
         - -1.3035973686943458e+00
         - 2.2542447402080170e+00
         - -1.3328592899476481e+00
         - -9.2044068855948302e-01
         - 2.7969799380439855e+00
         - 4.4191157119748130e+00
         - -1.0724336539480910e+00
         - 2.6314286016525718e-01
         - -9.0295452681827804e-01
         - -2.2003629461230547e+00
         - -4.5438459639717749e-01
         - 2.9520712878982152e+00
         - 2.0611599545117509e+00
         - -1.0656479071719303e+00
         - -8.8850482792773633e-01
         - 1.6032139046614280e+00
         - 3.0698894425203536e+00
         - -2.3480128384806354e+00
         - 1.2883161855076963e+00
         - -2.0053722667218792e+00
         - -3.2454952550592067e+00
         - -1.0997604839764048e+00
         - 2.7477231807335778e-01
         - -7.4537956284018969e-01
         - -2.1381632600539330e-01
         - -2.2067281154377397e-01
         - -2.8429636363988536e-01
         - -4.2210098882951147e-01
         - 1.2898025187130113e+00
         - 1.9884429030736575e+00
         - 2.2592814733259908e-01
         - -1.7144262917095832e-01
         - 1.5050271363440912e+00
         - -1.7486857028561695e+00
         - -9.0918746758000324e-01
         - 1.0061119750480296e+00
         - -2.5206030983402539e-01
         - 6.0250450473702055e-01
         - -3.3948556482308601e-01
         - -5.4681352054600152e-01
         - 4.2299045412030355e-02
         - -3.4559748634573406e-01
         - -1.8169263756677612e+00
         - -6.5097364944492342e-01
         - 2.3904534323821236e-01
         - -1.1574916680545629e-01
         - -7.3335170062864186e-01
         - -5.8614537645892972e-01
         - -1.9352847154450976e+00
         - -2.1158328873864649e-01
         - -4.9794999336028017e-01
         - -5.1828428788631820e-01
         - -4.6230236019055365e-01
         - 1.2099288169262175e+00
         - 8.2430727610878551e-01
         - -2.0979070521685630e+00
         - 3.3682192700897329e-01
