%YAML:1.0
---
opencv_ml_ann_mlp:
   format: 3
   layer_sizes: [ 75, 50, 1 ]
   activation_function: SIGMOID_SYM
   f_param1: 5.0000000000000000e-01
   f_param2: 1.
   min_val: -9.4999999999999996e-01
   max_val: 9.4999999999999996e-01
   min_val1: -9.7999999999999998e-01
   max_val1: 9.7999999999999998e-01
   training_params:
      train_method: BACKPROP
      dw_scale: 1.0000000000000001e-01
      moment_scale: 1.0000000000000001e-01
      term_criteria:
         epsilon: 1.0000000000000000e-02
         iterations: 1000
   input_scale:
      - 3.3806859934770152e-02
      - -3.3754096875470787e+00
      - 2.8006708104835416e-02
      - -3.2616108031017443e+00
      - 2.6156492928548557e-02
      - -2.1827265074953099e+00
      - 3.3553769363410625e-02
      - -3.3582850239512920e+00
      - 2.8085448736911576e-02
      - -3.2599160326570180e+00
      - 2.6088367896593564e-02
      - -2.2011538558006003e+00
      - 3.2758401144948421e-02
      - -3.3151824420825347e+00
      - 2.7952842458218451e-02
      - -3.2621284592174256e+00
      - 2.5207181160678920e-02
      - -2.1825595603983214e+00
      - 3.2876261713181462e-02
      - -3.3221910594595601e+00
      - 2.8004338619969718e-02
      - -3.2760823200618403e+00
      - 2.5265508553641406e-02
      - -2.1762659157328450e+00
      - 3.3153856458212519e-02
      - -3.3388126228500572e+00
      - 2.8065757637672415e-02
      - -3.2887950750423052e+00
      - 2.5416750393561994e-02
      - -2.1665467960844533e+00
      - 3.3625514869134704e-02
      - -3.3573283722906164e+00
      - 2.8002467552195431e-02
      - -3.2522020186713596e+00
      - 2.6119324763241348e-02
      - -2.1885460875973326e+00
      - 3.3425608728902566e-02
      - -3.3444749167107890e+00
      - 2.8118466405075388e-02
      - -3.2535893063742614e+00
      - 2.6103785840187656e-02
      - -2.2123111516986058e+00
      - 3.2268706156430418e-02
      - -3.2871020819319492e+00
      - 2.7860894791029277e-02
      - -3.2635058270386459e+00
      - 2.4732577323172671e-02
      - -2.1761085646269733e+00
      - 3.2624553816899750e-02
      - -3.3045829600189505e+00
      - 2.7987793653300761e-02
      - -3.2730860823141574e+00
      - 2.5097996936789851e-02
      - -2.1801724456348390e+00
      - 3.3029873185005609e-02
      - -3.3254035695939557e+00
      - 2.8090857458702673e-02
      - -3.2831633947948804e+00
      - 2.5471394005976294e-02
      - -2.1746334397325917e+00
      - 3.3282595546124658e-02
      - -3.3320978761384343e+00
      - 2.7956436608552508e-02
      - -3.2469639853546348e+00
      - 2.5885575653682359e-02
      - -2.1863926028687848e+00
      - 3.2907018540179571e-02
      - -3.3120883759380213e+00
      - 2.7968369486909932e-02
      - -3.2465971122539741e+00
      - 2.5612620738531683e-02
      - -2.2016013436698314e+00
      - 3.0726102768563305e-02
      - -3.2063120012004664e+00
      - 2.7325000787871336e-02
      - -3.2659973423246389e+00
      - 2.3052554677007776e-02
      - -2.1171574619437497e+00
      - 3.2814472960804114e-02
      - -3.2997323400402605e+00
      - 2.8026198775747475e-02
      - -3.2517240641093341e+00
      - 2.5559330638775239e-02
      - -2.1996847896830132e+00
      - 3.3167632981179050e-02
      - -3.3231929384033689e+00
      - 2.8080218522199007e-02
      - -3.2626715597411260e+00
      - 2.5744672069673017e-02
      - -2.1829580280472536e+00
      - 3.3747599462338622e-02
      - -3.3797170476751952e+00
      - 2.7992820308098413e-02
      - -3.2778551474237374e+00
      - 2.5914151782249348e-02
      - -2.1729852241410268e+00
      - 3.3150931333981885e-02
      - -3.3437996183370804e+00
      - 2.7957817341569480e-02
      - -3.2782999116225948e+00
      - 2.5391228386532974e-02
      - -2.1760523066935535e+00
      - 3.2673588553503267e-02
      - -3.3116258537487733e+00
      - 2.7845981239010789e-02
      - -3.2700239207434487e+00
      - 2.4871240284201790e-02
      - -2.1636780459168774e+00
      - 3.3655989554585458e-02
      - -3.3520406615044598e+00
      - 2.8099978869678337e-02
      - -3.2575028104879049e+00
      - 2.6272318128883854e-02
      - -2.2007553878981940e+00
      - 3.3916598485935347e-02
      - -3.3787016754753898e+00
      - 2.8109476896321622e-02
      - -3.2764856340293864e+00
      - 2.6206648980966103e-02
      - -2.1768721307184604e+00
      - 3.4484966412408440e-02
      - -3.4443905428542778e+00
      - 2.8074624512240867e-02
      - -3.3094871369553012e+00
      - 2.6219902812475267e-02
      - -2.1657974884104143e+00
      - 3.3824540781527961e-02
      - -3.3944891338909069e+00
      - 2.7954425364646287e-02
      - -3.2959621322270070e+00
      - 2.5686635814323417e-02
      - -2.1551683353077506e+00
      - 3.3743936911533517e-02
      - -3.3887368788334054e+00
      - 2.8026067625659713e-02
      - -3.2965373219955363e+00
      - 2.5598889767763363e-02
      - -2.1620714090286217e+00
      - 3.4136380567510602e-02
      - -3.3944544857142316e+00
      - 2.8064986556472715e-02
      - -3.2807088946353580e+00
      - 2.6372733987888031e-02
      - -2.1723094489485106e+00
      - 3.4675886417334545e-02
      - -3.4473038083319953e+00
      - 2.8151825242666066e-02
      - -3.3070900951910285e+00
      - 2.6587646894455069e-02
      - -2.1697794612632233e+00
   output_scale:
      - 1.0526315789473684e+00
      - 0.
   inv_output_scale:
      - 9.4999999999999996e-01
      - 0.
   weights:
      -
         - -2.6343102332388502e+00
         - -5.4023005075295927e-01
         - 1.4139627444656149e+00
         - 9.4556475708983800e-01
         - 2.1859846479252679e-01
         - 5.6035196937185605e-01
         - 1.3746439335823513e+00
         - -3.2318693585686220e-01
         - -3.3293949594932565e-02
         - 2.1406433121549329e-02
         - -4.4980016209350798e-02
         - -1.0454469058307042e-01
         - -4.9794967021598824e-01
         - -1.1396367568992637e-01
         - -3.6420423351626235e-01
         - -1.5252304807370740e-01
         - -1.1622695632354003e+00
         - 1.4060748769429729e-01
         - 9.2090886564629715e-02
         - 4.5088559735232819e-02
         - 1.2143293026222854e+00
         - 8.0212569095617636e-01
         - -5.0171362221770188e-01
         - 4.2901236721712543e-01
         - 2.9187130633185798e-01
         - -7.5970038212068025e-01
         - -3.6399637097485216e-01
         - 1.4339175166992640e-01
         - -8.2371392018078571e-01
         - -5.9809071674024483e-01
         - 6.3704265293985141e-01
         - -4.3802380714711131e-01
         - -2.3978344751053760e-01
         - -5.8568314505724106e-01
         - 9.9232453266594287e-02
         - 1.3884286860475650e+00
         - -1.8538655549964991e+00
         - -2.2436776322943577e-01
         - -1.0971621263618317e-01
         - 6.1317857087378458e-01
         - 4.8783518906007094e-02
         - -1.2844988566172066e-01
         - 9.7212023018649479e-02
         - 1.1928509576471837e+00
         - 1.2205303494280971e-01
         - 1.3326482573817638e-01
         - 1.7697494388524720e-02
         - -2.7652665556477174e-01
         - -1.1048309137540968e+00
         - 6.8441464988399828e-02
         - -5.0101864699786631e+00
         - 2.1929757998225838e+00
         - 2.3049689720844493e-01
         - 2.4148751935765844e+00
         - 4.4829452063308445e-01
         - -6.0140890776291833e-01
         - 4.3246459146996857e-01
         - 3.7670864357561740e-01
         - -3.0213218120892971e-01
         - -1.8831568122911574e-01
         - -8.0704763554815026e-02
         - 4.9782614168631995e-01
         - 2.2584226580132283e-01
         - -3.0885168007603014e-01
         - -6.2195379360368153e-01
         - -3.2472767643283290e-01
         - 1.2120950198207006e-01
         - 3.5723560907496427e-01
         - -2.2187642069097605e-01
         - -3.6352615726249554e-01
         - -5.6472904042487049e-01
         - -9.0252586277947477e-01
         - 7.6341908607351527e-01
         - -4.3403815677704699e-01
         - -1.3123815746687659e-01
         - -8.0930503545352739e-01
         - -6.5739106561020555e-02
         - 3.0089225513158457e-01
         - -4.3520078703589965e-01
         - 4.3760674146930684e-01
         - 2.8575569493809511e-01
         - 6.3532711355799698e-01
         - -5.4215936989375901e-01
         - 6.9929686963194215e-01
         - 5.9668567700365793e-01
         - 1.5092694763131800e+00
         - -7.8831015059801057e-01
         - -4.1368089386672302e-01
         - -5.6581537119430880e-01
         - 2.2851370505233573e-01
         - -8.8567630500063158e-04
         - 6.1595499703926493e-01
         - -5.5580860090358630e-01
         - 1.3575823920238068e+00
         - 5.9670038216521282e-01
         - 4.3965624892504485e-01
         - -9.7727649680524914e-02
         - -4.4279657178894422e-01
         - -1.3485722197559364e+00
         - -5.5361691627161169e-01
         - -1.3526010814103167e+00
         - -6.0852550359007140e-01
         - -2.1960900587202561e-01
         - 1.0396496964321367e+00
         - -6.5300886412806980e-01
         - -3.4539885140964105e-01
         - 6.4027909249186543e-01
         - 5.3875167962264048e-01
         - 6.0126102520694806e-03
         - -5.2514230604331469e-02
         - -1.7291184047619615e-01
         - 7.5279132909894175e-01
         - 7.9306321748176023e-01
         - 4.0078986550814993e-01
         - -5.9316965257959625e-02
         - 1.8452531056762408e-01
         - -9.9180723531670678e-01
         - -2.6388864469604784e-01
         - 1.3450648841790993e+00
         - 8.6420735890063535e-02
         - 2.7961479549424038e+00
         - 1.2461589632632202e+00
         - 2.4733465498290302e-01
         - -3.5280178872307377e-01
         - -1.3058684140210364e-01
         - 4.2616329032650568e-01
         - 2.6274812258365987e-01
         - -8.8163200707302297e-02
         - -9.2973439925071366e-01
         - 6.3297735067252836e-01
         - -2.9073040261559741e-01
         - 2.7204111090107974e-01
         - 5.8242343614243841e-01
         - 3.0728732965890637e-01
         - 3.3438717455449553e-02
         - 2.4083333966342019e-01
         - 2.9406776673959051e-01
         - 1.1121718568700498e-01
         - 2.0423689021556282e-01
         - -5.0364381495090438e-01
         - 6.3154589366138450e-02
         - -2.9982817854786459e-01
         - 6.9507585804558972e-02
         - 5.7641215332675955e-01
         - -1.7417525800958103e-01
         - 5.7836452071886854e-02
         - 8.3927903694608480e-02
         - 2.1616833319339282e-01
         - -4.2681719221414299e-01
         - 1.8951261885058446e-01
         - -2.2874347635953796e+00
         - 6.5858332687330889e-01
         - 1.1271119703927734e+00
         - 2.9016996708541658e+00
         - 3.5312660616324115e-01
         - 2.5252850750790012e-01
         - 8.9120201650136321e-01
         - -9.5974639837543688e-02
         - -1.5756901536253023e-01
         - -6.1902197046891309e-02
         - 5.2201417162791697e-02
         - -7.9114080600341807e-01
         - -4.3676522439655252e-01
         - -4.9383769489414953e-01
         - -4.2254929781166362e-01
         - -2.7307382718045287e-01
         - 4.7537566688887123e-01
         - 1.6635666768956478e-01
         - 3.2081814529277913e-01
         - -5.1958277695254677e-02
         - 5.0321803898980033e-01
         - 5.7852106314572183e-01
         - -3.5721788983167169e-01
         - 2.3146146646548466e-01
         - 1.3620352433379277e+00
         - -9.2226433775119088e-01
         - -6.0603874052526407e-01
         - 2.1118893986139300e-01
         - -3.4577623259176210e-01
         - -1.2631458980669222e-01
         - 7.2486081837351479e-01
         - -2.9871503047858677e-01
         - 3.0926992379112045e-01
         - -4.4370285054847364e-01
         - 2.6250649872965143e-01
         - 3.6528981370875524e-01
         - -1.4826410784190454e+00
         - -6.1994757298462100e-01
         - -9.3166523803125262e-02
         - 2.8052487308313651e-01
         - 1.3602649214986737e-01
         - 2.5154234751692064e-02
         - 7.4036014015306809e-02
         - 1.4101071082735279e+00
         - 2.3224040831277257e-02
         - 5.9723129193824082e-02
         - -1.4954405685804039e-03
         - -2.9311044367715489e-01
         - -7.0252444633346844e-01
         - -1.6948465079711603e-01
         - -2.1919737747942487e+00
         - 2.4639291980604456e+00
         - 7.5563313010263289e-01
         - 1.9438712297100063e+00
         - -1.4843380506001622e-01
         - -5.8993469568197709e-01
         - 1.6435139608018532e+00
         - 2.3240613323627968e-01
         - -1.8963790895099383e-01
         - -1.8361101841067867e-01
         - -1.4222472786813095e-01
         - -4.3332144837604841e-01
         - 5.6723042305890418e-02
         - -2.9795425590178620e-01
         - -3.0440548535333128e-01
         - -3.2749174407781961e-01
         - 6.6597743851356228e-01
         - 8.3244003263180905e-02
         - 4.8611353925672462e-01
         - -1.7060604528928891e-01
         - -1.2328996105820584e+00
         - 6.6090805575009515e-01
         - 7.9657704233737681e-01
         - -3.9454394188160113e-01
         - 7.9662039637911453e-01
         - -1.6901815198647807e+00
         - 2.1673241749781472e-01
         - 1.5176047158828154e-01
         - -5.8701182835640286e-01
         - 3.4153299217131200e-01
         - 6.4340966696685054e-01
         - 6.1653849262285143e-01
         - 8.3838553686162665e-02
         - 6.6236676328232291e-01
         - 2.7585376751880741e-01
         - 1.5761758759959161e+00
         - -1.7950601332194425e+00
         - -4.7249933947927780e-01
         - -1.2527181300586893e-01
         - 7.0475715934478500e-01
         - 8.5610454324597754e-02
         - 5.5466786486539499e-01
         - -3.4803901779868535e-01
         - -4.2024725573222654e-01
         - 1.4233486294294509e-01
         - 2.1528272121884462e-01
         - 7.5112462465661944e-02
         - -1.5656777396342364e-01
         - -1.2948764927488985e+00
         - -3.2888437984240548e-01
         - 2.9373049825321718e-01
         - -9.5482688298829732e-01
         - 1.2938560329525325e-01
         - 1.2262367756671761e+00
         - -5.9282871067419285e-01
         - -8.1565239444558610e-02
         - 4.5782098297505458e-01
         - -1.0010899223076399e-01
         - 2.5585146677746512e-01
         - 2.5839177951633402e-01
         - -3.3355702772065449e-01
         - 6.0144128898938198e-01
         - 2.5557412863459056e-01
         - 2.2417835414653257e-02
         - 2.1722857432409057e-01
         - 1.5684221291012015e-01
         - -1.0246211126945037e+00
         - -4.6230912381669814e-01
         - 2.4955470842988531e-01
         - 5.6212722030844042e-01
         - 7.0734518575078276e-01
         - -1.9984019011108781e-01
         - 7.5284540475815925e-02
         - -3.5005490097018581e-02
         - 5.4630191265919792e-01
         - 4.3831560904397804e-01
         - 1.5557844848083895e+00
         - -3.7136994062146089e-01
         - -2.9068230953069141e-01
         - 1.9108056519159186e-01
         - 3.7490384031798905e-02
         - 5.7363471213645739e-03
         - 4.3385609168101441e-01
         - -2.4705074096140534e-01
         - -2.8142188631186243e-01
         - 2.2926915951887356e-01
         - -4.3311994456936087e-01
         - 3.3527340933581444e-02
         - 2.7256525344527083e-01
         - -9.0511966068878624e-01
         - -2.2858326389139266e-01
         - -2.8202866699554036e-01
         - 2.1606810791758774e-01
         - 3.9402918909638052e-01
         - -3.0452967492699512e-01
         - -2.0868644006793979e-01
         - -1.1068533666358858e-01
         - 3.9494805671084576e-01
         - -2.9350999329460603e-01
         - 3.7907454119529888e-01
         - 4.2874493923497292e-02
         - 1.0472638131739749e+00
         - 9.1140754885141917e-01
         - 1.1010773619217857e+00
         - 6.8982299962758553e-01
         - 1.5361870981456494e-01
         - 1.7041121235300499e-01
         - 3.4081511126659825e-01
         - -1.3607119689274616e-01
         - -2.2104975509407920e-01
         - -9.2473119398263498e-02
         - -5.9687049361090272e-01
         - 2.1016004374222466e-01
         - -7.2336037001155695e-01
         - -9.9179892400073688e-02
         - -5.8195197489230716e-02
         - 3.0523953457908776e-01
         - 1.9971871623816298e-01
         - -1.6688454821541423e+00
         - -3.8228334803129949e-01
         - 2.9641856113140619e-01
         - 1.0472835711372555e+00
         - -6.6041094942389322e-01
         - 4.0878383048650088e-02
         - 1.1235935927902998e+00
         - 1.1252600109528521e-01
         - -7.6977194432662654e-02
         - 3.7344790636757996e-02
         - -4.4624623358001325e-01
         - 1.8780390314332993e-01
         - 5.2988297043185317e-01
         - -3.7485159520529027e-01
         - -1.0630620262994035e+00
         - -5.5862765615352181e-02
         - 5.9062228313623108e-02
         - 1.7933693418080748e-01
         - -3.6865280394186212e-01
         - -1.8850465092263993e-01
         - -4.8600192351038268e-01
         - -1.6791863545793820e-01
         - -1.0771901144778533e-01
         - -4.9776878952783571e-01
         - 4.2042895857636464e-01
         - 9.2135110811094434e-01
         - 6.6033102537452082e-01
         - -7.3887167079346935e-02
         - -3.3264905256602045e-01
         - -3.2882888972483021e-01
         - -3.2287824264333287e-01
         - 2.2145893088307558e-01
         - -7.3136308204125172e-03
         - 1.3996826658351165e+00
         - 5.1704107694923951e-01
         - 2.3687106367648028e-01
         - 9.9889145701922047e-02
         - -4.6242855631641572e-01
         - 2.8257044298637757e-01
         - 4.4451432208118047e-01
         - -2.9226703309094038e-01
         - -4.1096394338143261e-01
         - -4.1340612392636200e-01
         - -6.9816488320947867e-01
         - 2.5818436492269453e-01
         - 1.0845255149149516e-01
         - 3.2943513000727997e-01
         - -2.3550618090773429e-01
         - 6.6532799133308340e-02
         - -3.0280228135992404e-01
         - -2.2009173472269330e+00
         - -3.7064652774694173e-01
         - -6.2111165252422429e-01
         - 6.2845844593251132e-01
         - 1.8336789324689731e-01
         - -3.5270259401459975e-01
         - 2.1515294909494970e-01
         - -6.1367583881300880e-01
         - 2.8998213049034444e-01
         - -2.6158164848151821e-01
         - -1.6504711703049921e+00
         - 1.6251222676931762e-01
         - 2.9675363698216617e-01
         - 3.4792812457180683e-01
         - -6.2342034421284864e-01
         - 6.5145081583520026e-01
         - -2.5373872933309871e-01
         - 8.3426193327053988e-01
         - -8.7088567473350542e-01
         - -1.8496362004945982e-01
         - -7.2941282070733449e-01
         - 7.2390798869727124e-01
         - -3.9472272402952041e-01
         - -2.2531359395673450e-02
         - 2.1127119092300636e-02
         - -5.4695820523829952e-01
         - 1.0144324823934410e+00
         - 2.0740485008115361e-01
         - -6.2393797990893540e-01
         - 2.7233560813179203e-01
         - -5.5871889548945985e-01
         - 2.2579571907905074e-01
         - 1.3663534561084210e+00
         - -3.4147491691923537e-01
         - 5.9898488223641055e-01
         - -1.4126791155257126e+00
         - 5.0326538768648832e-01
         - -1.0326082797092644e-01
         - -1.4510428678559306e+00
         - 2.9279001015130268e-01
         - 1.2222259651751574e-01
         - -1.4642202239364899e-01
         - -5.3668330672247089e-01
         - -1.9858558094775022e-01
         - 5.4684164373824884e-01
         - 2.5589134109076961e-01
         - 6.6191743171728623e-01
         - 2.6119565469484451e-01
         - -2.8111882242025754e-01
         - -6.9017608185175672e-01
         - -3.4775659506247871e+00
         - -6.3529339510981109e-02
         - 5.2349837997630704e-02
         - -5.8912926437116730e-01
         - -3.5911233195261572e-01
         - -4.8037876625363174e-01
         - 1.1649444984594857e+00
         - 1.2047083436597307e-01
         - 2.5465465382575242e-01
         - -6.3423379796871981e-01
         - -3.3424231791066389e-01
         - 8.8348619578877144e-02
         - 4.4983843835485532e-01
         - -5.7742988690924493e-02
         - -8.9411214735712974e-01
         - 3.4672202728982954e-01
         - -6.5793817532927645e-01
         - 9.9919982274547914e-01
         - -1.2877087339257962e+00
         - 4.6362019025265455e-01
         - -2.3727856497753244e-01
         - -8.2319921954937880e-01
         - -5.3804016070346750e-01
         - -8.7669771051655965e-01
         - 3.9110481439724876e-01
         - -7.4065283976524598e-01
         - 3.9380253685517314e-01
         - -1.4900265448787994e-01
         - -5.8716918355561809e-01
         - 5.9761173742052975e-01
         - -6.9600056315696401e-01
         - 6.8640871818716298e-01
         - 5.4862000567614044e-01
         - 4.8495125341455603e-01
         - 1.4322885255421527e+00
         - 7.1967940003990327e-01
         - -7.7448660956315996e-01
         - 1.3964487052283311e-01
         - 4.1485415417129529e-01
         - 9.2087942763458150e-02
         - -7.0607462866570950e-02
         - -1.3753053574065216e-01
         - 1.3380709044139477e-01
         - -3.4827822563715516e-01
         - -2.4655238318434758e-01
         - -3.8621171432111467e-01
         - -6.3433763137967136e-01
         - -1.8409511339851264e-01
         - -2.6269778010288403e-04
         - 3.7518585072286664e-01
         - -8.1135024199182992e-01
         - -1.5621263104658903e-01
         - -2.1343411558522912e-01
         - 1.7596584102893966e+00
         - 4.7688210774581224e-01
         - 2.7243423082896112e-01
         - 1.0031066154006302e-01
         - -6.7414832246270977e-03
         - 4.2573438515400214e-02
         - 3.4541763077739479e-01
         - 2.8395500091253240e-01
         - -8.5967981910511498e-02
         - 4.1238853537232817e-01
         - 2.4009367990957264e-01
         - -1.2899819187437547e+00
         - 5.4742656246634290e-02
         - 6.6485777150755476e-01
         - 4.9877183415706801e-02
         - -1.8814825819783809e-01
         - -2.4348880530460476e-01
         - -7.8943512717591716e-03
         - 6.4627617234546486e-01
         - 2.4172508217554328e-01
         - 3.3300478207135770e-01
         - -3.1605248990321905e-01
         - 6.6315766481220617e-01
         - 1.8212487571253769e-01
         - 1.3319849709001477e-01
         - 1.9475308752701337e-01
         - -4.3743266836677902e-01
         - -8.3175604818852222e-02
         - -4.1384111922266553e-01
         - 1.3024394494697007e+00
         - 1.3389476456345362e+00
         - 9.2647484750722719e-01
         - 6.2542868727976597e-01
         - -3.2923333490109052e-01
         - -5.8022701649453237e-02
         - 1.9073954039049534e-01
         - -1.8813226612864919e-01
         - -1.3703157680932265e-01
         - -2.5267602104508219e-01
         - -4.7608601385925536e-01
         - -4.7841877016723022e-01
         - -3.0612719528667870e-01
         - 5.8386756086108282e-01
         - 3.0949705281521656e-01
         - -3.4457880159330179e-01
         - 3.3655952842602960e-01
         - -4.5106154910052310e-01
         - -4.3981890536220780e-01
         - -2.5556507785978226e-02
         - -7.4225326384416881e-02
         - 9.1862499158610844e-01
         - 5.3206870965533060e-01
         - -1.6552940930126599e-02
         - -4.0879071679638340e-01
         - -1.4361913044901538e+00
         - 6.2664780679375742e-01
         - -2.4481579020713737e-01
         - -1.2983312787509784e+00
         - -2.7777462282426146e-01
         - 3.3349329645456408e-02
         - 4.0763882623731723e-01
         - -1.5794621511121629e-01
         - 2.9738989792150050e-01
         - -2.5491213549080272e-01
         - 2.3041603598115024e-01
         - -2.5314689258756218e-01
         - -5.1517371352597896e-01
         - -8.4935794231469119e-01
         - 1.4270048896908984e+00
         - -2.9841308869417166e-01
         - 5.1790659024725594e-01
         - -4.4256965017214694e-01
         - -7.8351164394797890e-01
         - 1.1968413348776927e+00
         - 2.1649853816398218e-01
         - -5.7915032566867475e-01
         - 4.3384101387888413e-01
         - -7.1099135522544654e-02
         - -4.4578596383911234e-01
         - 4.8773233539427402e-01
         - -1.0477164550907343e+00
         - 8.3494152972652469e-01
         - 1.3440712354164316e-01
         - 4.3355257911138811e-01
         - 2.1282779470453458e-01
         - -1.6435028288328352e-01
         - -4.4538148268270672e-01
         - 2.7111389861273893e-01
         - 5.6791693612631478e-01
         - -2.0658081632808376e-01
         - 6.0780144472237252e-01
         - -9.4625168984865193e-01
         - 5.3843580839381722e-01
         - -2.1652186790305145e-01
         - 2.9977126304466212e-01
         - 7.0233945983584201e-01
         - -2.3650844139905752e-01
         - -1.6648685925998050e+00
         - 5.2113180702022743e-01
         - -7.6377083836973433e-02
         - -1.2611606653043046e+00
         - 6.9126241397391153e-01
         - 1.1060980707582677e-01
         - 3.3077795551000605e-01
         - 4.5729237329716496e-02
         - -1.7727932515439757e-01
         - -1.8146684831901083e-01
         - -9.8464194790892134e-02
         - -4.2791010763858295e-01
         - 2.4813738311178055e-01
         - 4.1107671381033095e-01
         - -9.8295862002065837e-01
         - 7.5666180139567760e-02
         - 1.5840709036221828e-01
         - 4.7372498849729749e-01
         - -6.0718839705445471e-01
         - 4.0067197836230212e-01
         - -1.7563004019182663e-01
         - 2.8729614946428650e-01
         - -3.3763945389398098e-01
         - 3.5203724647308732e-01
         - -3.2022369382272209e-01
         - 7.1484241226353917e-01
         - 4.0762423440533047e-01
         - -2.4763990319387776e-02
         - -3.7500329958394724e-01
         - 2.4681282788576064e-01
         - -2.1076436998509468e-01
         - -4.2241392545193622e-02
         - 3.9231581300655433e-01
         - 2.1703302069380945e-01
         - 1.1471228243084435e+00
         - 1.1547012091410729e+00
         - -4.8229188534767758e-01
         - 1.3016495713308818e-01
         - 5.2252450769555836e-01
         - -2.4539578415268423e-01
         - 1.2716014550733343e-01
         - 1.2065488115840214e-01
         - -3.7514079809322073e-02
         - 6.1467367882141477e-01
         - 4.6580518501902729e-02
         - -3.2137510767975393e-02
         - -2.4278687689094991e-01
         - -1.8843291202347826e-01
         - -1.7812042293143598e-01
         - 1.8113400393624701e-02
         - 6.0122654945869458e-01
         - 2.5785952903303749e-01
         - -8.7266696120209342e-01
         - -1.7757982879285653e-01
         - -6.9986964289318154e-01
         - 4.4917508445594273e-01
         - 6.6461715835055307e-02
         - -8.5390990900581432e-01
         - -4.5187075093339912e-01
         - 9.6081087706387461e-03
         - 4.2241036476823784e-01
         - 9.9075657649409440e-02
         - 4.3678987754545578e-01
         - -5.5826826207645586e-01
         - -1.9483799493121304e-01
         - -4.7485148673803435e-01
         - 1.5398045345823821e-01
         - 2.5552793459080164e-01
         - -5.2497620815612234e-01
         - -7.5453903619340312e-01
         - 2.4860499772085268e-01
         - -1.4996075146769938e-01
         - 2.5211345086558701e-01
         - -1.5441149742642968e-01
         - 3.4246038904386100e-01
         - -1.7467685968067040e-02
         - -2.2219387511757580e-01
         - -2.2723044168308043e-01
         - 2.8738062132368986e-01
         - -7.5931020237421779e-02
         - -5.7861979379988078e-03
         - 2.4555938742345448e-01
         - -1.4753585628623836e-01
         - -3.6117366198802947e-01
         - 1.1428684008720467e+00
         - 1.9671997434089818e+00
         - 1.3032505376396808e-01
         - -4.1536001257074275e-02
         - 1.0815878132215688e+00
         - 3.1868496915735284e-01
         - -3.8948953008196069e-01
         - -4.7052171123300590e-01
         - -3.6651369979678472e-01
         - 1.3067628313322291e-01
         - 4.7434832994122855e-01
         - 7.0113020625643196e-01
         - 3.8588868787874053e-01
         - -4.3224109646809333e-01
         - 9.5436961968153530e-02
         - -4.7126676783139620e-01
         - 5.4333191660249303e-02
         - -3.1663783810174845e-01
         - -7.9973598831463089e-01
         - -5.2972168044314039e-01
         - -3.9380463459327603e-01
         - 3.8888453680092840e-02
         - -9.7817732454229075e-02
         - -1.0947070887889629e+00
         - -4.9704468690555725e-01
         - -2.7005367692621446e-01
         - -9.2066754807367612e-01
         - 1.8671252668491384e-01
         - 3.8973212004522118e-01
         - -1.6325311717356555e-01
         - 6.7076827867262723e-01
         - 1.1681679833727398e-02
         - -4.2151080707907834e-01
         - 2.3151293083328980e-01
         - -9.6341699924453261e-01
         - -8.7016236457942786e-01
         - -3.6897231107648870e-01
         - 1.6912297003226777e+00
         - -2.0623598357010306e-01
         - 1.4897130357087687e-01
         - -2.5374101749580508e-01
         - -1.6420441931464014e-01
         - 7.1218554373946275e-01
         - 2.9989853502706332e-01
         - -4.7959818334312659e-01
         - 5.0314712810749929e-01
         - -1.4019642873736760e-01
         - -5.7191557981366237e-01
         - 6.9678460266611997e-01
         - -2.0579701742306822e-01
         - 6.6055689190988764e-01
         - 1.8547031260725672e-01
         - 1.9824980244644672e-01
         - 3.1457099469607464e-01
         - -4.5326088790302999e-01
         - -7.3670050022033795e-01
         - 1.6605646599246476e-01
         - 2.2866500486260294e-01
         - -2.0978829200879759e-01
         - 2.3043042976359132e-01
         - -3.5093804418158764e-01
         - -2.4230511888968986e-01
         - -3.1087872336273598e-01
         - -2.3628876381962721e-01
         - 5.0034348887159352e-01
         - -1.3349003870992654e-01
         - 3.1672990259856021e-01
         - 4.5251660250396913e-01
         - 3.1565998410583562e-01
         - 5.5592694106685392e-01
         - -2.0592170123346859e-01
         - 1.2425385076421482e-01
         - -1.5495299328836748e-01
         - 1.1975493237125963e+00
         - 7.4095698945651989e-01
         - -1.8710144461038414e-01
         - -4.1362481023849519e-02
         - -2.6740973081421410e-01
         - 5.0029603467737660e-01
         - -3.4932361048831267e-01
         - -4.3623588512245531e-01
         - -5.7732890002144643e-01
         - 9.0889937617984112e-02
         - 1.1083308234348039e+00
         - -9.6302908965706968e-01
         - -1.0064552383679677e+00
         - 3.6209310277833617e-01
         - -6.2282622409349930e-01
         - 2.2713965047026674e-01
         - 5.7626475365593951e-03
         - 5.6818262359499128e-01
         - 3.6111086082982990e-01
         - -2.9799985100372389e-01
         - -3.0207869089269279e-01
         - 3.0028707184035119e-01
         - -7.7431973713372487e-02
         - -5.5470103123828540e-01
         - 7.3768963225343387e-01
         - -1.0638854292639983e+00
         - -1.2587826703632101e+00
         - 7.9787260987203157e-01
         - 1.1974660785250335e-01
         - 3.6258015045650027e-01
         - 5.3026888070758149e-01
         - 9.6879343160060849e-01
         - -2.8340937383090153e-01
         - 4.5990419820088967e-02
         - 4.1669329549808815e-02
         - -2.0975980918179288e-02
         - -3.1156676990791815e-01
         - -4.4030926736052428e-01
         - -1.6357531099667891e-01
         - -2.2209332119222319e-01
         - -2.7832562629031894e-02
         - 1.7967567379978899e-01
         - 5.2825998389605097e-02
         - -6.1257319168052959e-01
         - 1.4905589678570083e-01
         - 6.8131255829893388e-04
         - 1.6331513440168046e-03
         - -5.0989502710901613e-01
         - 3.7160443861607045e-01
         - 5.1250835135208550e-01
         - 2.9481485738791791e-01
         - -2.3886531444378329e+00
         - 1.3701884716667123e-01
         - -4.2593357008578109e-01
         - -4.2931665296039501e-01
         - 4.8758347650412781e-01
         - -5.2854519573401404e-01
         - -2.5986417487598218e-01
         - -6.6150041034186391e-01
         - -3.7266960612586358e-02
         - 1.4818471715915627e-01
         - -1.1528868562155898e+00
         - -1.9923966226443229e-01
         - 8.4075146012177984e-02
         - 5.3517442422774930e-01
         - 7.8535761048045938e-02
         - -1.9390897579542771e-01
         - 1.8254709669047883e-01
         - -1.5525562087349351e-01
         - -2.0853399395335095e-01
         - 1.7090790983690232e-02
         - 9.9192254402402355e-02
         - -9.9944308698752635e-02
         - -4.7301917991599041e-01
         - 7.1481233500525695e-02
         - -2.2887560590874703e+00
         - 9.1898969280157683e-01
         - -1.0044815486283025e-01
         - 2.1866461802327131e-01
         - 2.9952442425215381e-01
         - -2.2982921024803871e-01
         - 7.6073961429235037e-01
         - 1.9791415562481796e-01
         - -1.2666218647165731e-01
         - -1.6261739025314154e-01
         - -2.7327277487969422e-02
         - -1.4586950219666747e-01
         - 4.4374589038685586e-01
         - -3.5239226621912362e-01
         - -2.6613679435031484e-01
         - -1.0695641072414848e-01
         - 1.2630957121078130e+00
         - 1.7689298334823192e-01
         - -9.8130189528013029e-02
         - -3.2581363926358653e-01
         - -1.7905527700083748e+00
         - 4.8130540758020299e-02
         - 2.9665063768674921e-01
         - -3.6252687820222473e-01
         - 1.7945828859327548e-01
         - -9.4675798740216288e-01
         - -1.1486749766710451e+00
         - 1.8705481412719954e-01
         - -4.6387141003791288e-01
         - 3.5929929573694352e-01
         - 2.7278574859688981e-01
         - 1.7416987315261429e-01
         - -4.1589588954427847e-01
         - 1.5601638743253696e-02
         - 2.6392271611518403e-01
         - 1.1383683079677063e+00
         - -6.4537914389368545e-01
         - -2.0929702431952990e-01
         - -1.0178218466521442e-02
         - 1.0490345454193958e-01
         - 5.5834740534423589e-02
         - 3.1768295665034607e-01
         - -1.5423742638268603e-01
         - -1.3819864136094751e+00
         - -6.6300794689973491e-02
         - 6.1697692288715952e-02
         - 1.8176138225271538e-01
         - -2.1873681245659843e-01
         - -1.0399598606302978e+00
         - -9.8510499340939348e-02
         - -5.3028011286369237e-01
         - -1.3282155595909151e+00
         - -6.4618059589306054e-01
         - -8.4889189800883402e-01
         - -5.5145231971934028e-01
         - -3.9270245153862293e-01
         - 5.0570752612201175e-01
         - 1.4939238445192102e-01
         - -1.2934762769014052e-01
         - 1.5257081326796457e-01
         - -2.4546222886902766e-01
         - 9.5742742254429214e-01
         - 1.4116514191840845e-01
         - 3.2137486014547706e-01
         - 2.1423523841368311e-01
         - -7.9553383591972407e-02
         - 5.2379216607285957e-02
         - -4.0620206498569245e-01
         - -1.1365560453512216e+00
         - 3.8650956053890595e-01
         - 2.2976698483551514e+00
         - -1.8002784408818387e-01
         - 3.2352222322291618e-01
         - -3.6190636509005086e-01
         - -2.2541009010465160e-01
         - 7.6385900338571316e-02
         - -1.4276888926857714e+00
         - -2.1629444548618940e-01
         - -4.2517351387466829e-01
         - 3.8301697469158319e-01
         - -3.1873399413135117e-01
         - 3.9353859888252124e-01
         - -3.3382606948273337e-02
         - 4.5740348306987394e-01
         - -2.0926398880715585e-01
         - -4.3823222605348855e-01
         - 9.5271037569538630e-01
         - -7.7705393695475633e-02
         - 2.7031427384902473e-01
         - -9.4024071502809989e-02
         - -1.6173088099278826e-01
         - 1.6014288025516374e-01
         - -2.1706079182242508e-01
         - 4.2790684462849948e-01
         - -3.7761257239531487e-01
         - 2.3511034901932365e-01
         - -2.1256703689218649e-02
         - 4.2775648453086423e-01
         - 1.3648081750361765e-01
         - -2.8333044120993328e-01
         - -1.8774792408045933e+00
         - 4.9214555931227033e-01
         - 4.7347469120766421e-02
         - 2.6271270178668091e+00
         - 8.8339125246996886e-01
         - 2.0145725530821032e-01
         - -1.7299026414355567e+00
         - 2.2531033330109645e-01
         - -3.9576731695741479e-01
         - -3.9958764378873890e-01
         - -5.1646264414902568e-02
         - -6.5019674695484464e-01
         - -1.1702998113084215e-02
         - -1.4584672949013033e-01
         - -3.0282087398443336e-01
         - -4.3618432009958297e-01
         - 1.9687870311648272e+00
         - 2.5700850811207693e-01
         - -5.7105959668713269e-01
         - -4.9056857780269031e-01
         - 3.5789566888816909e-01
         - 3.3878608257309384e-01
         - -2.0573741138656704e-01
         - 1.9206520432453422e-01
         - 1.3408874910937922e+00
         - -6.9086832313669566e-01
         - -8.0230749327528372e-01
         - 2.5402673736449516e-01
         - -4.3653044877664271e-01
         - -8.4195690755721919e-02
         - 4.0589118977618655e-01
         - -1.4447777721343952e-01
         - 4.8300119550997272e-01
         - -1.6640878630566211e-01
         - 2.1391215487632639e-01
         - -2.7044950997931649e-01
         - 2.1645493846734594e-02
         - -5.8937980319266969e-01
         - -3.5746285401314054e-02
         - -9.8006432552536671e-01
         - 1.6032865855065290e-01
         - 1.2773341593313117e-01
         - -1.2489829130612616e-01
         - 1.4952490651819597e-01
         - -8.6355691195736550e-02
         - 2.9877951150380311e-01
         - 9.9999123171173807e-02
         - -2.7166588962357524e-01
         - -2.2000925251562556e-01
         - -4.3966690440444800e-01
         - -1.8832547267301005e+00
         - 2.8659745716014808e+00
         - -7.0570922365693733e-02
         - 9.2611884768198460e-01
         - 6.1447944219157047e-01
         - -3.3127370914866022e-01
         - -3.3799176678754261e-01
         - 2.2626574759998480e-01
         - -2.0234550203022544e-01
         - -3.4199878237467246e-01
         - -2.6221028430395626e-01
         - -6.5137085483246737e-01
         - 3.3966724926379610e-01
         - 3.0742709408757490e-01
         - 2.7966648831243494e-02
         - -2.8105119536994749e-01
         - 2.8051247894578277e+00
         - -4.4822017874211494e-02
         - 3.6161428989788724e-01
         - -3.8373074285886327e-01
         - -1.6889394823914290e+00
         - 8.7431985277144700e-02
         - 4.8367676400045234e-01
         - -2.8717836130201307e-01
         - 1.1533702997476420e+00
         - -1.7353706629882002e+00
         - -3.2971272100933191e-01
         - 2.2017286139622901e-02
         - -7.9603708664353501e-01
         - 2.9035014656177927e-01
         - 3.1084373616341793e-01
         - 4.2965363204236917e-01
         - 4.8365150259858070e-01
         - 4.7766024298061804e-01
         - 7.1835770763860496e-02
         - 1.3067764658002925e+00
         - -2.8989832534461835e-01
         - -3.0271915456264958e-01
         - -1.2552261261859540e-01
         - -1.0113453425796166e+00
         - -3.3864256619736050e-03
         - 2.4856001186949300e-01
         - -1.6800892533528233e-01
         - -1.6149899438666884e+00
         - 1.8021680808439700e-01
         - 9.8761636743721334e-02
         - -6.0326876661825797e-02
         - 7.6157832493234878e-02
         - -1.0512790065020543e+00
         - -1.1916124539741664e-01
         - -9.0907527731352233e-01
         - -6.6577616671786266e-01
         - -1.0359202421478328e+00
         - 1.3971652273193347e+00
         - -4.6597260231098947e-02
         - -1.8582099828133036e-01
         - -5.7485653265196579e-01
         - -4.1762463207216133e-01
         - 3.1769255836090643e-01
         - 5.0008114594272435e-01
         - -5.7017298618905266e-01
         - 7.1899988149259353e-01
         - -2.4174655068724363e-01
         - 1.1453073149097237e+00
         - 7.6609572603774634e-01
         - 2.2445889430576219e-01
         - 5.4713571436310959e-01
         - -7.4848504254494597e-01
         - -1.1700951503036379e+00
         - 6.6574861851581191e-01
         - 9.4368395766854696e-01
         - -1.9328394058134157e+00
         - 3.3405042781292321e-01
         - -1.0693307221367529e-01
         - 2.2496184532509472e-01
         - 5.0032539249022390e-01
         - -1.7105883928166427e-01
         - -5.7755660238259132e-01
         - -7.0304148003845535e-01
         - 2.5270668558568431e-04
         - -4.6144048156637407e-01
         - 2.8666507858989321e-01
         - 9.0125049522056722e-01
         - 3.4199195066951577e-01
         - -6.6056905110184017e-01
         - -4.5752853124334680e-01
         - 1.5428301017785051e+00
         - 2.8279695763800655e-01
         - 1.0467658389860253e-01
         - -6.8890987740044274e-01
         - -3.4036199859970084e-01
         - 4.1295110107211035e-02
         - -1.0678234160270153e-01
         - 1.5774632199515788e+00
         - -2.1712193811881506e-01
         - -1.8883125252235805e-01
         - -2.1089091630376569e-01
         - 8.6441763388281556e-01
         - 2.6023235044488913e-01
         - 7.9995952042658533e-04
         - -4.2230019203507579e-01
         - 1.5564641248428846e-02
         - 9.3828554030411349e-01
         - 9.6032244989017435e-01
         - -1.7775300592650062e-01
         - 2.3151648988672949e-01
         - 6.7953854047025475e-01
         - -6.3356313319934729e-02
         - -1.8621498249701995e-01
         - -3.4669194831415473e-01
         - -2.9312971527162057e-01
         - -9.2080338333208034e-01
         - 4.3570124655514042e-01
         - -2.3379098066009990e-01
         - 2.3268439770139013e-01
         - -2.2461708713438286e-01
         - 9.0940974215837911e-02
         - -2.8991603542579947e-02
         - -2.3095036969784664e+00
         - -3.1758399105817814e-01
         - 1.2834950381522723e+00
         - -1.4350066142723856e+00
         - -4.0817514428702312e-01
         - -2.8745352754089326e-01
         - -6.9193858690887644e-01
         - 3.2450258124183418e-01
         - 9.0177139037981358e-01
         - -9.5195286015611114e-02
         - -5.3095908229256394e-01
         - -1.0572008696042796e-01
         - 5.3304991124662526e-01
         - -2.3263267456291706e-01
         - -1.5322772247605578e+00
         - -1.7483601855777106e-01
         - -2.7065990701212561e-01
         - -6.0594495360189049e-01
         - -1.6413623073344363e-01
         - -1.1250265445190880e-01
         - -2.3691085752630264e-01
         - -5.5647303312418428e-01
         - -8.2214730783404369e-02
         - -3.5016232727297814e-01
         - 6.1468765412122199e-02
         - -1.7302946677490585e+00
         - 2.2734070896264846e-01
         - 1.4839402579305158e-01
         - -2.5017240329863352e-02
         - -9.4129783179367724e-02
         - 3.3678016305266878e-01
         - -8.2693167819674215e-02
         - 9.0291032476550381e-01
         - 1.9200683137153169e+00
         - 5.0037411447542046e-01
         - -1.0210174851157627e+00
         - -7.2988973585307682e-01
         - 6.5866644517984180e-03
         - -2.6563173098165271e-01
         - 1.3734414202001111e-02
         - -3.5545572771261169e-01
         - -6.1637198318788367e-01
         - -2.7431478395096448e-01
         - -1.5230564439777203e+00
         - 6.4844227536041876e-01
         - 1.3302510122637554e-01
         - 2.5099026400069574e-01
         - -4.3722817395643915e-01
         - 1.0184248453861859e+00
         - -1.6525643648715174e-01
         - -1.4329321775725206e+00
         - -4.3054905650360592e-01
         - -9.3610972856592134e-01
         - -6.9921154685388356e-02
         - -4.3877420098257042e-02
         - -6.5479835703168476e-01
         - -1.8494050348469401e-01
         - -1.3276718645776051e+00
         - -4.3054151392824191e-01
         - -4.3862478114807896e-02
         - -1.0576133151988216e+00
         - -7.7181349912606334e-02
         - 3.4142722256290770e-01
         - 6.7417437496702690e-02
         - -7.6617649015476619e-01
         - 6.6216070486323289e-02
         - -2.8919058035997747e-01
         - 8.0251716967516507e-01
         - -7.1474201693286299e-01
         - -3.1021537140135763e-01
         - -3.8347442750483607e-01
         - -1.3683569144472696e+00
         - -5.6908929886270457e-02
         - -7.9825181161899739e-02
         - -1.6399202050917422e-01
         - 3.2336680636523224e-01
         - 4.5729681902850894e-01
         - 3.1686504182346503e-01
         - -1.3726629438978402e-01
         - 1.3543548212650372e-01
         - -5.8921717861988621e-01
         - 3.4990650140219709e-02
         - 6.9561099701605422e-01
         - 5.5932929976840504e-02
         - 2.0125987412838289e-01
         - -1.9767943047533376e+00
         - -2.7463845702163869e-01
         - 6.8153667481162550e-01
         - -1.7293986144968170e+00
         - -4.8053416495889578e-01
         - 1.9341174562264946e-01
         - 1.8413262722216248e-01
         - -5.5207953435516832e-01
         - -7.1161806597402433e-01
         - -4.0394975058779016e-02
         - 6.3686051911817343e-01
         - 7.5847415760059156e-01
         - 1.7095367057338148e-01
         - 8.5270995536139327e-01
         - -7.2018411413106453e-01
         - -5.2452797723332321e+00
         - 1.4636372330580499e-01
         - -5.3130649490907356e-01
         - -6.4832170053487959e-02
         - -5.9320493324760837e-01
         - -1.9126305428051549e-01
         - 1.2674889939976414e-01
         - -1.1380572509742337e+00
         - -8.0127636160198801e-01
         - -5.3375334038950073e-01
         - -4.4593142448911038e-01
         - -8.4363850729629708e-01
         - 3.2124397707651925e-01
         - -4.7225702039658879e-01
         - -6.6995562193276192e-01
         - -5.7980567745492251e-01
         - -8.1207341049543524e-01
         - 3.6047367712321177e-01
         - -7.9991774793842851e-01
         - 3.5820428567259244e-01
         - -2.4722684478188468e-03
         - -1.3975304853590551e+00
         - -2.2137524086217775e-01
         - -6.2385441752662696e-01
         - 1.1577322744486074e-01
         - 2.3911790944855187e+00
         - -4.3018490572196477e-02
         - -4.1848217937742779e-02
         - -9.8724679802499576e-02
         - 6.8282161270255426e-01
         - -3.0973498721174986e-01
         - 1.6100601772976228e-01
         - -1.4242616075446862e-01
         - -7.1687955921957458e-01
         - 2.5013593062833422e-01
         - -3.3635922686150366e-01
         - -8.0173039992671655e-02
         - 1.9570062595283991e-02
         - 5.4872050408612005e-01
         - -3.2720199626581375e-01
         - 8.5887446310839152e-02
         - 1.9423785034399507e-01
         - -1.3673114761337954e-01
         - 5.4511883873941569e-01
         - -4.8212638107814854e-01
         - -2.9311625663197877e-01
         - -3.7683398598667439e-01
         - -1.9193283091809929e-01
         - -7.1133330311642984e-01
         - 6.8870697867335531e-02
         - 1.5794009135342224e+00
         - 3.3450472012186305e-01
         - 1.0962030508996639e+00
         - -2.0282617650485246e-01
         - 1.4731649422557733e-01
         - 7.3010638161977748e-01
         - -1.1290768304923642e+00
         - -3.7265307555885495e-02
         - 8.2481675402094279e-01
         - 4.7073750965460716e-02
         - 1.9450418556703733e-01
         - -7.5449163339178060e-02
         - 2.2607040512951437e-01
         - -1.7162173398159813e-01
         - -7.4759550729544699e-01
         - -2.6297928100408036e-01
         - 3.4299974172786019e-01
         - 1.8274808529635303e-01
         - -1.2167224396795202e-01
         - -6.5029041991765169e-01
         - -7.9800423998478098e-01
         - -3.4796144622927977e-01
         - -1.7291236999320800e-01
         - 8.7810538355126047e-02
         - 2.4122326443260791e-01
         - -1.5937534442820547e+00
         - 8.8252860827560242e-01
         - -9.4231227384704255e-02
         - -4.1810152988817267e-01
         - -9.6508605717085000e-02
         - -8.5163484746672277e-02
         - 8.6830173209663519e-02
         - 1.7434712761369229e+00
         - 1.2432888713576250e-01
         - 4.6182827095538831e-01
         - -1.2437029835496975e+00
         - 7.4208998991117464e-02
         - 6.2859316081275513e-02
         - 6.5080661359239206e-02
         - -2.1100195239228178e-01
         - -1.4556877467572271e-01
         - -3.4181607605006242e-01
         - -3.7341712674266714e-01
         - -4.0803674682013374e-01
         - -3.3780730113148048e-02
         - 3.8684824816891078e-01
         - 2.5639127239890303e-01
         - -4.5261242444215610e-01
         - 7.6701432694770144e-01
         - -3.9853761551318134e-01
         - 2.1645013597022551e+00
         - 1.2951302266265696e-01
         - 8.1371671616528563e-01
         - 1.5113674762706795e+00
         - -8.7572006285497925e-02
         - 3.0347992069325713e-01
         - -1.0859706272721699e+00
         - -1.1021510553783695e+00
         - 4.4744076188383763e-01
         - -2.6586597564614084e-01
         - -7.6213155226842322e-01
         - -1.3564583402880928e-01
         - 2.3776125958241764e-01
         - -2.7105436739068545e-01
         - 2.9058559628938152e-01
         - -2.5767841639641509e-01
         - -3.1069835181636263e-01
         - 1.0113040556774122e+00
         - -9.2678048717871897e-01
         - -9.4270257640644828e-01
         - -1.0533376430700345e+00
         - -1.2107661925664839e+00
         - -3.9651234846765782e-01
         - 7.5660341526559469e-02
         - 1.2722550172025496e-01
         - 4.9544371617233898e-03
         - 1.3443948092522267e+00
         - -3.7867377509073187e-02
         - -7.9144242105130636e-01
         - 4.4336938311066582e-01
         - -5.5563770298533322e-01
         - -3.1520973803684862e-02
         - -1.7659254986020184e-01
         - -9.3966950779371983e-01
         - -1.9076793143907933e-01
         - -1.2512543381272905e+00
         - 4.5940424730383939e-01
         - 2.2898309736666531e-01
         - -1.3793550879313301e+00
         - -6.9943007049403438e-01
         - 3.0970825981528477e-01
         - 6.9289959439561144e-01
         - -2.7092344722714784e-01
         - 7.5615522664957135e-01
         - -8.7801803036128312e-01
         - 3.6986923456415832e-01
         - -2.4610411145093863e-01
         - 1.1936779617232063e-01
         - 1.0067906333667891e+00
         - -2.3209231196504115e-01
         - 1.1890244090526574e+00
         - 7.2631228179552032e-01
         - -6.3541640964075585e-01
         - 1.0168456004373432e+00
         - 1.4665964032461126e-01
         - 5.4412680015961512e-01
         - -2.6132971145589257e-01
         - 3.9459143993137151e-02
         - -4.4249759017145857e-01
         - -1.5253717498414446e-01
         - 8.8495823548739666e-02
         - -2.9630964624010664e-01
         - 9.6268574004793897e-02
         - -2.8631931799683769e-01
         - -6.5941073789349642e-03
         - -4.9986611668097530e-01
         - 1.7101305114625751e-01
         - 3.7792922722092820e-01
         - -7.0958797933138890e-02
         - -2.9657523796852636e-01
         - -6.6091004306186818e-01
         - -1.5160191008622552e+00
         - -2.2272117217423684e-01
         - 1.8075773001940346e-01
         - 3.6881298787396322e-01
         - 2.0988439541521537e+00
         - 6.7282970189606772e-01
         - -2.8256798727155868e-01
         - -3.4663801400997318e-01
         - 1.8911021635773581e-01
         - -1.7457866205268172e-01
         - 2.7306063891396681e-01
         - -1.6944696472653481e-01
         - -2.5378111698613715e-01
         - -1.0230043986911759e-01
         - -6.4094710738694149e-01
         - -3.3537830843816679e-01
         - -3.8552711486311564e-02
         - 4.0816469371495873e-01
         - -2.1354672500842212e-01
         - 7.4896612531341195e-02
         - 2.7439194096305197e-01
         - -9.8201735740415019e-02
         - 1.1779966894460805e+00
         - -1.1056231972103900e-01
         - 3.1562767828744348e-01
         - 2.4931846400833943e-01
         - 3.2138618049623174e-02
         - -3.2750003955531354e-01
         - -3.4617320833923210e-01
         - 7.5347119928779571e-01
         - 4.9911663264760425e-01
         - 9.5216100567857578e-02
         - -1.2524356796625271e+00
         - 2.4709561536213318e-02
         - 1.0446779358187960e-01
         - -5.8629095494237604e-01
         - -4.1169501437750433e-01
         - -4.6787669884090122e-01
         - -2.5698667403055436e-01
         - 1.7187218983173275e-01
         - -4.7863487606942194e-02
         - -6.4973687230623509e-02
         - -2.1173664360610869e-02
         - -3.5305236589729683e-01
         - -9.2312910540936835e-02
         - -1.5957157449286000e-01
         - -4.5709530040356561e-01
         - 2.7289883929393205e-01
         - 1.1835892865444760e-01
         - -4.9372881877127371e-02
         - 2.1717503278741630e-02
         - 1.9269601767619676e-01
         - -1.1202618619249387e-01
         - 1.3481922011735725e-01
         - 1.7159170686553196e-01
         - -5.4556561307456293e-02
         - -3.3116888438598363e-02
         - 2.3290933916975157e-01
         - 4.2496929664561456e-01
         - 6.0050369069322973e-01
         - 1.1338663348511359e-01
         - -1.0060589767900949e+00
         - 8.6008159257327277e-01
         - -4.2508672775342343e-01
         - -1.1596085868648856e-01
         - 1.1614438330946462e-02
         - -3.1930033003150615e-01
         - -1.4352524926524621e-01
         - 6.2809324408187028e-01
         - -3.5355310613685270e-01
         - -3.8698026286143089e-01
         - -1.9934862523573016e-01
         - 3.2142311904557264e-01
         - 5.9543405212182610e-01
         - 2.8644809656256026e-01
         - 2.0324970839007253e-01
         - -1.6567246972722560e-02
         - 7.2548027373389876e-02
         - -2.5659748577081609e-01
         - 5.9909708595529609e-01
         - -3.3543328079592721e-01
         - -3.6743638131773798e-01
         - -2.9536297948084400e-01
         - -1.3135750445078315e-01
         - -1.6807537141233289e-01
         - -1.0065451038454432e+00
         - -6.0333577478888578e-01
         - -4.5941046128971680e-01
         - -1.2867627310418142e-01
         - -1.8966767227939502e-01
         - 4.4408453320160651e-01
         - 5.5005980780208200e-02
         - 1.1663531963170723e-01
         - 1.3230434682124120e-01
         - 2.5253919574030237e-01
         - -1.3808754326088557e-01
         - -1.6195231568104518e-01
         - -5.7391064005081115e-02
         - 3.4798599116335177e-01
         - -6.5164010707670875e-02
         - 1.5925561153635560e-02
         - -3.1997407682968680e-02
         - -2.5423809664584702e-02
         - -3.2318160266049273e-01
         - 1.3718764814298081e+00
         - 2.8373113971572367e-01
         - 3.4416179596194985e-01
         - -2.2190321376569702e-01
         - 2.9239871093225744e-01
         - 2.5965486936802434e-01
         - -5.2924191241458640e-01
         - 3.6152250761461019e-01
         - -2.9996192830525831e-01
         - -6.4597851420170005e-01
         - -1.4442356510551149e+00
         - -2.0017336715066829e-02
         - -2.0165355757060695e-02
         - 4.0455394684052465e-01
         - -5.8898133011366571e-01
         - 3.8508186199875005e-01
         - 3.6171556283728740e-01
         - -3.8167205057297690e-02
         - 1.0950654980578192e+00
         - -1.9119818557305332e-01
         - 9.3406533606561412e-02
         - 3.8501595882901429e-01
         - 2.5884271576742790e-01
         - -1.7395613582392311e-01
         - -2.9930794533564020e-01
         - 9.0568557254978443e-01
         - 6.7759161787313960e-01
         - 1.1316195320572849e-01
         - 1.5298674233846401e+00
         - 2.7941016268370189e-01
         - -9.2510606504556003e-02
         - -2.7662815737355007e-01
         - 2.4224352739500174e-01
         - 1.6471087430483899e-01
         - -2.9272708843445117e-01
         - 1.7589997988260575e-01
         - -1.9498128155214567e-01
         - 1.7923831582409122e-01
         - -3.2949702824388249e-02
         - -1.0151578911189771e+00
         - -1.2065936198978012e-02
         - -2.5191302901075308e-01
         - 3.4321486324040951e-01
         - -1.5949192468847345e-01
         - 1.6983851416504739e-01
         - 3.2521432015916324e-01
         - 1.1970233342135912e+00
         - 4.5331328940783838e-01
         - -6.4530528399292603e-02
         - 5.9028703604454724e-01
         - 1.4539206082492899e+00
         - -4.9169120028280011e-01
         - -5.0383153486461607e-01
         - 6.3829747163525852e-01
         - 3.3281065573130558e-01
         - -6.3500282249238954e-02
         - 9.1170914246473778e-01
         - 2.4041859809564609e-01
         - -2.0891781085343084e-01
         - -1.6893149138052052e-01
         - -5.6053912376163272e-02
         - 1.3637886537817727e+00
         - 4.7588855657090151e-01
         - -9.5393428479649645e-01
         - -1.3628086457470406e-01
         - -8.6024437226217915e-02
         - 3.2964519371930484e-02
         - 5.9195461345306642e-02
         - 1.4237674657584592e-01
         - -7.5765177542867190e-01
         - 1.1308540427411261e-01
         - -4.2155712090139336e-01
         - -1.4540386947798989e-01
         - -3.9478711815765560e-01
         - 2.9621479761650904e-01
         - 8.6535699963508494e-01
         - -5.0203768044882517e-02
         - 1.6743802734201236e+00
         - 6.6892412572929871e-01
         - -1.4525543033054580e-01
         - 3.9717355430746509e-01
         - -4.2010836031981258e-01
         - 1.1323002198645364e+00
         - -2.2791066651430585e+00
         - 3.0887457481048319e-01
         - -6.7825191796454531e-01
         - -7.2480173085741628e-01
         - 3.0442330879283530e-01
         - -1.3097311281654248e-01
         - -2.2759426333687241e-01
         - -5.2066653822328590e-01
         - 2.1256610139193904e-01
         - -1.1808025786307788e-01
         - 6.3749105979241161e-02
         - -2.3793124277404404e-02
         - -2.9059936086331140e-01
         - 6.9176489590943435e-01
         - 5.2548449820449580e-02
         - 3.1980215335311141e-01
         - -3.6179453305092024e-01
         - 6.4455455151887636e-02
         - 3.3645539858748014e-01
         - 2.1907112096457473e-01
         - 5.5628957624296906e-02
         - -2.5832300224591481e-01
         - -1.9082363882770403e-02
         - -4.2725801946969794e-01
         - -8.2615375112347422e-01
         - 1.6454205266834405e+00
         - -8.2083849021434763e-01
         - -9.5770229195435774e-01
         - 1.2866223832255361e+00
         - -4.1902836677699840e-01
         - 6.5552187375442950e-01
         - 9.8090587572858129e-03
         - -1.5524784758944921e-01
         - 7.8727479613173487e-02
         - -6.5243903653889046e-02
         - 1.8094578772713335e-01
         - -2.1736238358066379e-01
         - -7.7313038108672485e-03
         - -2.3160930702947477e-01
         - -2.3580902959984729e-01
         - 7.0033471040345219e-01
         - 1.8908408427735726e-01
         - 1.4219659612084052e+00
         - -1.9027378832575312e-01
         - -3.6394957706945635e-01
         - 8.3218417207146089e-01
         - 5.6736737603675425e-01
         - -1.8818307640082296e-01
         - -1.1011857909387174e-01
         - -3.7120996038029652e-01
         - -1.7037037571807747e+00
         - 1.5608715163902007e-01
         - -6.3526301830888110e-01
         - 1.3086800303353299e-01
         - 4.4560649220539893e-02
         - 5.3147256869588932e-01
         - -2.5126802849422353e-01
         - 4.4307449711264008e-01
         - 2.8076738644541510e-01
         - 9.1453594528729298e-01
         - 2.0460535630812338e-01
         - -1.4422487729338321e-01
         - -2.1089964579318218e-01
         - 9.8168225500875606e-01
         - 5.2692189511838010e-02
         - 3.6396427644772839e-01
         - -2.1894520484883759e-01
         - -6.0031676938171019e-01
         - 2.5080822975092054e-01
         - 1.7300445450696464e-01
         - 1.1688848426575488e-01
         - -1.4127835627146615e-01
         - -7.1127479716341091e-01
         - -2.6979824114626383e-01
         - 1.9129504762428792e-01
         - -6.7555718844143128e-03
         - -1.0253076680707898e+00
         - -2.3922401906337804e-01
         - 3.2976739694703833e-01
         - -8.7288586380377241e-03
         - -1.1282002214211437e-01
         - 1.2907319753175503e-01
         - 6.1607621422126939e-02
         - 2.8098536628395326e-01
         - -2.5750774014141042e-01
         - 1.3370897484928681e+00
         - -4.5449437679776855e-01
         - 6.6297125082305830e-01
         - -5.5225698005121761e-02
         - 1.9515182924451452e-01
         - -6.5465083190390760e-01
         - -1.4993377073101291e-01
         - 6.1306374501891692e-01
         - 1.3846495694727567e-01
         - 1.3773496772103100e+00
         - 6.8699228608265772e-01
         - 2.5182469567834748e-01
         - 7.9827913406362583e-02
         - -5.7945742344380768e-01
         - 9.7532799465413444e-01
         - -1.0939439392393251e+00
         - 1.4013717949853564e-02
         - -6.1757093461765822e-01
         - -1.4579660781938453e-01
         - -5.6782420409253886e-01
         - 2.4865069067055798e-01
         - 3.2080857276310526e-01
         - 1.9042767213583129e-02
         - 5.9129887603383030e-02
         - -7.2010445950163871e-01
         - 1.7658952228009861e+00
         - 3.1084162899650009e-01
         - -1.5006738154158298e-02
         - -1.1866446770792849e+00
         - -2.1796826593722676e-01
         - -1.4822117798036690e-02
         - 2.7175902411247507e-02
         - -9.3455373629425117e-02
         - 2.3025899253655310e-01
         - -3.6927891220936756e-03
         - -2.4459326520380620e-01
         - 2.6081778197121186e-01
         - 5.7887249966425069e-01
         - 4.5081057029754554e-02
         - 1.1396900066478801e+00
         - -7.3319998560632815e-01
         - 1.4107902152023244e+00
         - 1.1825082619810774e+00
         - 1.9797439149263352e+00
         - -4.5675848294883753e-01
         - -1.7206953192701706e+00
         - -7.0621533579436693e-02
         - 2.3644982507274884e-02
         - 9.7819639860935045e-02
         - -5.5068797985869972e-02
         - 1.2659635569130605e+00
         - -3.5005728569445206e-02
         - -2.9592042877519542e-02
         - -5.0455281275144502e-02
         - 1.1118584873356618e-01
         - 1.5147701498413182e-01
         - 2.0803681313079239e-01
         - 1.3595689151792565e+00
         - -1.7475470518348659e-02
         - 7.3540063450000115e-01
         - 1.3893501692563530e+00
         - 3.9275296698310647e-01
         - -1.9673125865578656e-01
         - 8.7949593414076443e-01
         - -3.1060087214790749e-01
         - 6.0849101486261181e-01
         - 9.8021979718965258e-02
         - -3.6416935653157262e-01
         - 2.1849698113055188e-01
         - 9.5839994727663491e-01
         - 3.1870757529225285e-01
         - -7.3068629830100595e-01
         - 6.3868599836382678e-01
         - 5.1339273134588720e-02
         - -8.6323846909482624e-02
         - -9.8770789387540259e-01
         - 3.6838548391358750e-01
         - 3.3547965230568945e-02
         - 2.7402771557942084e-02
         - -9.3101493293152610e-03
         - 3.8044137437304404e-01
         - -1.7960475051217797e-01
         - -1.8561472594059094e+00
         - -1.5162910762594425e-01
         - -4.0899240284197093e-02
         - -1.6650060397985063e-02
         - -1.4339884635248443e-01
         - -5.5439114719225580e-01
         - -2.0112344037568075e-01
         - 4.5788619463275178e-02
         - 1.2531009364721062e+00
         - 2.2810361722791883e-02
         - -1.7171219628136896e+00
         - 1.7808841201603356e+00
         - -5.6008120052428401e-01
         - -1.8281451873226603e-01
         - -2.3438369596212719e-01
         - 1.4881434843383298e-01
         - 3.0887451528262738e-01
         - -2.5477945632325050e-01
         - 9.3937812963568978e-01
         - -7.5320083333571597e-02
         - 3.0560314347677958e-01
         - 2.8470071960393178e-01
         - 2.5735692590579612e-01
         - 1.6392552003636056e+00
         - -1.0603255247278649e-01
         - 2.3349654684687313e+00
         - 1.0419502301568793e-01
         - -9.1886340584042980e-01
         - 1.3865654746977107e+00
         - 1.9269574085277838e-01
         - -1.6476100726528858e-01
         - 8.3313776202613132e-01
         - -2.4073838345173968e+00
         - 1.6120779315964517e-01
         - -1.6262163237709498e-01
         - -5.3133878684626068e-01
         - 5.1122400088552999e-01
         - 2.9186222223063202e-01
         - 1.9635156310477722e-01
         - 2.8990186504469834e-01
         - 5.1917010413522446e-01
         - -1.6882388514771682e-01
         - 9.8931204100921699e-01
         - -4.2221049689527890e-01
         - 4.7180840479847280e-01
         - -2.3881337585078821e-01
         - 9.6594888698247547e-02
         - -1.6585010847195450e-01
         - 7.7330640935920850e-03
         - 2.6576040812800045e-01
         - 1.1257306795050469e-01
         - 7.6927125214519332e-02
         - -3.2812498138467872e-01
         - -2.1127204642079364e-01
         - 1.7429097187944739e-01
         - -8.3669302079869845e-01
         - 3.0126169934658642e-01
         - -2.1538564252749220e-01
         - 8.6717797161771060e-01
         - -2.4036155559155464e-01
         - 1.0369252885126370e+00
         - 1.3105552630958213e+00
         - -1.0014318998885791e-01
         - -2.1926891606018390e+00
         - -5.6177867879351595e-01
         - 7.3581367020530186e-01
         - 8.9289863934176428e-01
         - -5.1115863491168068e-01
         - 2.3551284310793950e+00
         - -6.5286218031678667e-01
         - 9.9140936928365408e-01
         - 6.8422077404678494e-01
         - 1.0191739536819671e+00
         - 4.7499566865292445e-03
         - -5.1426376620668102e-01
         - 1.2936928034320492e+00
         - 7.7524213560966870e-01
         - -5.5476548817075533e-01
         - 1.3395527784937727e-01
         - -7.0000728841069865e-02
         - 3.6691529483779672e-01
         - 4.2885911402339660e-01
         - -2.6085426231985126e-01
         - -6.1021353484448787e-02
         - -4.5761101544957544e-01
         - -5.7416674086694941e-01
         - -1.7565519993514608e-01
         - -3.7287459873515832e-01
         - -1.2802972755983111e-01
         - 8.5446634421872447e-01
         - 1.5191211147259168e-01
         - -5.1334039526749631e-01
         - -9.6440708158740718e-01
         - 1.1151460792904422e+00
         - 1.4531131943380460e+00
         - -3.7653092843699948e-01
         - -1.0364970967629339e+00
         - -5.3475518055875659e-01
         - -2.3053777381638191e-01
         - 3.8812525448030322e-01
         - 6.9544770541645462e-01
         - 2.4057606938729875e-01
         - -7.3869925721549867e-01
         - -5.9484893423123775e-01
         - 6.6472597252415222e-01
         - 3.5931100219384210e-01
         - 5.1682321953367372e-01
         - 2.1413372633654535e+00
         - -2.5804111072589055e+00
         - 5.9260432109003502e-01
         - 2.2751357979411875e+00
         - 3.1078410141679547e-01
         - 9.1744233498670158e-01
         - 4.4713672015527566e+00
         - -1.0287160358479330e+00
         - 9.9087849383094928e-01
         - 7.4745089821237087e-01
         - -9.3611669901464786e-02
         - 1.1304053804381434e-01
         - -5.3355550075780767e-01
         - 9.8554092137809690e-01
         - 9.5721800337640406e-01
         - 1.1333659667493690e+00
         - -4.5678967837206077e+00
         - -5.5801893572796402e-01
         - 6.0589194238168365e-01
         - 7.3008379197912898e-01
         - -5.1618789744017024e-01
         - -8.6270861918548669e-01
         - -7.7912389802973370e-01
         - 5.0388265860559378e-01
         - -1.5259351188697945e-01
         - 4.4279119070817101e+00
         - 3.7498554336830345e+00
         - -5.8770946703347771e-01
         - -1.4202054346347897e+00
         - -9.0826185186479924e-01
         - 4.4839146285510806e-01
         - -8.5393476735238227e-01
         - -1.8302242148829151e+00
         - -9.0126457413185823e-01
         - -7.6711923528169157e-01
         - -4.5106594019213853e-01
         - 9.1825446015549383e-01
         - 1.2138229778237186e+00
         - -4.5836179427019436e-01
         - 3.7026859519820299e-01
         - -3.0399760710451523e-01
         - -6.8084658493844419e-01
         - 8.1993170418987460e-01
         - -7.8906971091056990e+00
         - 2.2583142589604557e-01
         - -1.0026014933280754e+00
         - -1.3639842034294125e-01
         - 7.0971634522209548e-01
         - 9.9056320426145386e-02
         - 8.4894266570615140e-01
         - 3.8110512873041147e+00
         - -1.3829656973768685e+00
         - 9.4149984431399450e-02
         - -3.1916387549909677e+00
         - -1.4636246324358393e+00
         - -9.7312625325458642e-03
         - 1.5162482015973711e+00
         - -4.2737370092726973e-01
         - 1.6522783471023073e-01
         - 9.0806098678461372e-02
         - 4.4406054528808714e-01
         - -1.3698089346019182e+00
         - 3.1080549325830187e-01
         - 5.6452918771865357e-01
         - 1.4610032726364491e-01
         - 2.1243174889982677e-01
         - -2.9874625692883034e+00
         - 3.2764434546804645e-02
         - 2.7093861871157068e+00
         - 1.1141290095057808e-01
         - -4.5185804879109357e+00
         - 2.7115280189927473e+00
         - -1.4591592669666736e-01
         - -3.2870351323842700e-01
         - 1.3057659329446525e+00
         - 1.1793465213720784e+00
         - 3.8041836755669300e-01
         - 8.2957738874471970e-02
         - -8.6541196620045124e-01
         - 2.6912379084342813e-01
         - 2.9134767456183658e-01
         - -2.6415982662621523e-01
         - -6.0279491920946315e-01
         - -2.7159291073422516e-03
         - 2.7626334250771974e-03
         - 1.6691366047088303e+00
         - -6.0559732403537914e-01
         - 2.7047138441444590e-01
         - 4.3108814841067161e-01
         - -2.5486598687648261e+00
         - 4.6855921464177586e-01
         - 1.1331593655054915e-01
         - 2.0332816375953011e-01
         - 1.3580775897958930e+00
         - -7.3096925111105271e-01
         - -4.1072681496522895e-01
         - 7.0227405331150616e-01
         - 1.2496555451704504e-01
         - -1.1621806661253693e+00
         - 1.1186348919804488e-01
         - 4.0108079401818530e+00
         - -5.7301288154675822e-01
         - 1.0232006927580626e+00
         - -5.1165649924958405e+00
         - -1.4261802496597196e+00
         - 4.8541140480120021e-01
         - -4.1588911689184451e+00
         - -9.0314784932351830e-02
         - 1.1260134152993338e-01
         - -1.0957753258657821e-02
         - 5.2947322748030534e-01
         - -2.0550525522998542e+00
         - 2.8620813730425076e-01
         - 2.8323944634852882e-01
         - -3.5037079525812781e-01
         - 1.7703395457034227e-01
         - -3.2012139699001736e+00
         - 2.5559848400049029e-01
         - 1.2795527370330912e+00
         - -2.2181615475749356e-01
         - -8.8615201009726210e+00
         - 6.0126186843704685e+00
         - -2.4737761595798508e-01
         - 5.9932901504771395e-02
         - 3.9770818766954914e+00
         - 1.8435107711716405e+00
         - -5.1606913868297113e+00
         - 3.6405425127851654e-01
         - 2.5282866799228620e-01
         - -2.6496924662386340e-01
         - 7.7376010054634725e-01
         - -3.5270322560333828e-01
         - -1.2676966381380994e+00
         - -5.7375528193733272e-01
         - 3.6540677782335551e-01
         - 1.3970321790501135e+00
         - -5.5567639875988106e-01
         - 2.0785749646787294e-01
         - 7.8722299728807421e-01
         - -5.4384438788485401e+00
         - 6.6436902225010330e-01
         - 2.6513199686994066e-01
         - -1.8711777818839909e-01
         - 3.5344155408011582e+00
         - -1.2228883980148622e+00
         - -3.6230441980560524e-02
         - 1.0169018961890663e+00
         - -1.0307540306577634e-01
         - -1.5234822564505663e+00
         - -3.3718942368913213e-01
         - -4.4573656826409946e-01
         - -4.0892088315446934e-01
         - 7.2126336188507434e-01
         - -3.5540408104284732e-01
         - 3.5652598922352252e-01
         - -8.5106460636178427e-01
         - 3.6716721830424914e-01
         - 3.9463561513106865e-01
         - -2.0169850867103709e-01
         - 1.9276487471164591e-01
         - -1.1671901137343602e-01
         - 1.2460976604442489e+00
         - 8.8752804554431741e-01
         - 1.2844752751239060e-02
         - 2.5051962122248639e-01
         - 3.2073810671085090e-01
         - -8.2620055907271894e-01
         - -5.4886013518274442e-02
         - 9.3079850988724255e-01
         - -7.5878744165738865e-02
         - 5.4042045697152430e-01
         - -2.6199474949778501e+00
         - 9.7286631181216651e-02
         - -7.6310468389930508e-01
         - -2.3115991131622146e-01
         - 6.8274119141743639e-01
         - 9.0497811885308255e-01
         - -1.0129460059864974e-01
         - -6.3176305168339039e-02
         - 1.0117860539330521e+00
         - 4.3751492789422614e-01
         - 5.2784230721615910e-01
         - -1.0667092233051991e+00
         - 1.2729879554600214e+00
         - -6.9756998565294451e-02
         - -1.4076833171931974e-01
         - -4.1381369365974258e-01
         - 7.4117416767680477e-01
         - 3.6185017715650851e-02
         - 1.3648375259593232e-01
         - -3.9747322643917865e-01
         - -2.8802210227612118e-02
         - -2.6591205537017007e-02
         - -1.3011799060923486e+00
         - 7.0983159973420334e-02
         - -4.3847939628969053e-02
         - -5.8523878487780145e-01
         - 1.0447370003044761e-01
         - -1.0687815354992497e-03
         - 1.4060077886151748e-01
         - -7.5218207043776214e-02
         - 1.0361513976284340e+00
         - 1.3361693486013410e-01
         - -1.2335815685508149e+00
         - 3.1339192147676370e-01
         - -8.3730681482947089e-01
         - -1.2372367809178302e-01
         - 1.2233760435140589e-01
         - -5.5071997788999572e-02
         - 1.5181418614380385e-01
         - -1.8127327786853706e-01
         - 8.4172041727134206e-01
         - 5.6686197396424687e-01
         - 6.8333954698655969e-03
         - 4.5770217216338460e-01
         - 2.8407267526841712e-01
         - 1.4890362256559020e+00
         - -1.1552495551686341e-01
         - 5.7893850604922426e-01
         - 5.2209139053527122e-02
         - 1.5172470918734433e+00
         - -1.0384329873261255e+00
         - 1.0344152651434166e-01
         - -7.0125288779770756e-01
         - -8.5000330953869230e-01
         - -1.6460222986693336e+00
         - 1.2444506278849397e+00
         - -1.8948349256478916e-01
         - -3.4103677597678705e-01
         - 8.4867048896204555e-01
         - 1.7141989551650341e-01
         - 4.3926470549615737e-01
         - -3.0336262435331385e-01
         - 1.3002808654767648e+00
         - -3.2279896096224320e-01
         - 3.3795272152470973e-01
         - -7.2390274242614727e-01
         - 7.1555384510807685e-01
         - -3.2766399579218630e-01
         - -1.2197608393260408e+00
         - -4.8470594007384654e-01
         - 1.3720027618388608e-01
         - -1.4754545308416614e-01
         - 2.4126633333628003e+00
         - 4.5295346573128714e-01
         - -3.8345068969799022e-02
         - -7.0614490398390017e-01
         - 1.1465676090483899e-01
         - 2.4625930936968361e-02
         - -1.6521235269099618e-01
         - -1.5271200318085681e-01
         - 5.1918627497104264e-01
         - -2.1841253885265671e-01
         - -1.6550534724822350e+00
         - 1.5279448438786711e+00
         - -2.8571284440282896e-01
         - -6.3082238642233213e-01
         - -1.7988443126133680e-01
         - 6.1003556472735687e-01
         - 6.2452247842927211e-01
         - -5.1627619149561943e-01
         - 1.4868924676331541e+00
         - 3.0418397819800996e-01
         - 1.1630208899741861e+00
         - 8.3354608483462134e-01
         - 1.1940001087331074e+00
         - 1.0047108840474146e+00
         - -6.1860183597971474e-01
         - 1.7988186296815278e+00
         - 2.1357571321921626e-01
         - -1.5612161484145728e+00
         - -2.9290785409088405e-01
         - -1.7968133235437359e-01
         - -1.7013423454425899e-01
         - 9.6453228442220776e-02
         - -2.0066582115789683e-01
         - -7.1425280930890045e-01
         - -4.9073955804897246e-01
         - -7.9038160598678187e-01
         - 3.6370416397974464e-01
         - 1.4652021112310903e-01
         - 1.3476510605471446e-03
         - -3.3366400817377451e-01
         - 4.3852806924406240e-01
         - -5.4898186989538278e-01
         - -1.7979444439871425e-01
         - -3.2389481011270632e-01
         - 1.7146214641864339e+00
         - -4.6075613704082707e-01
         - -1.0201447308800060e+00
         - -7.1587221422256375e-01
         - -3.8766263978405058e-01
         - 5.8045496184970979e-01
         - -5.1987324173413452e-01
         - 5.1578127666092533e-01
         - -7.2716001727393342e-01
         - -9.2481190977766292e-01
         - 8.6211126961772866e-01
         - 1.8100229480181257e-01
         - 8.8286742960224562e-01
         - -9.8863616729491927e-03
         - 7.7758450254893974e-02
         - -2.9779702603135738e-01
         - -3.2447822101631218e-01
         - -5.6359329931175720e-02
         - 3.9100244727725535e-03
         - -6.0266547105542478e-01
         - -9.3026397988365234e-02
         - -8.7376401477892440e-02
         - -4.3122081221927781e-02
         - -1.6269741563565357e-01
         - 6.6746830201335206e-01
         - 2.0610147510000004e-01
         - 6.9506478562930651e-01
         - 4.6139007533611820e-01
         - -1.0609997396953021e-01
         - 4.6459349132588375e-02
         - -3.2959453081951612e-01
         - 1.3679882801962013e+00
         - -5.5189667741800591e-02
         - 2.3188708771431246e-01
         - 4.8655430599984606e-01
         - -1.3505522807820777e-01
         - 1.6250717682481527e-01
         - -8.6063273402429352e-01
         - 1.1909486887228202e+00
         - -4.6288036197559457e-01
         - -2.4239020057055558e-01
         - -8.4197134346597047e-01
         - -9.3265509830119511e-02
         - -1.9860069121430160e-01
         - 9.5783890298174704e-02
         - 3.7513661922869890e-01
         - 1.6233742204843410e-01
         - -3.3950658355722918e-01
         - -6.0975530440207504e-01
         - 2.4035884552369208e-01
         - 1.1032613287234398e-01
         - 2.4375422477682329e-01
         - -5.8000138078400987e-01
         - -1.5940302311228012e-02
         - -1.4408313221617075e-01
         - -1.6695000532183546e-01
         - 7.3734336132296119e-01
         - -4.0569666083547151e-01
         - 4.2652585795754268e-02
         - 6.5249992576178681e-02
         - 4.5072884421511600e-01
         - 3.4450665282832349e-01
         - -1.3631872285299770e-01
         - -8.9015221347712403e-01
         - 6.2187427785293381e-01
         - -1.0039185516698461e+00
         - -4.8036241385569556e-01
         - 7.9129852364915032e-01
         - -3.3972645909175606e-02
         - -3.5447029646846295e-01
         - 5.0760772501960116e-01
         - -1.4600498820151353e-01
         - -2.8788829242741970e-01
         - -1.2309153543461691e-01
         - 4.4409150811133224e-01
         - 2.9099988440142777e-01
         - 3.0366789073003470e-02
         - -3.3270269684924197e-01
         - 1.8146718210848442e-01
         - 9.2383357113574138e-01
         - 1.2756039611448480e-01
         - 5.0227177684758273e-01
         - -2.5849735775812649e-01
         - 6.2277217189167977e-01
         - 7.6330125357532386e-01
         - -5.0879997498843093e-03
         - -3.1065546421796025e-01
         - -1.4584252252377681e+00
         - 5.8268119101164684e-01
         - 6.8992465805704728e-01
         - 1.6695995010300835e-01
         - -9.5776891383305890e-02
         - 3.5189190918906638e-01
         - 5.2888269142070746e-03
         - 2.1794380723321594e-01
         - 2.9424906313707100e-01
         - 7.9139685940851814e-02
         - 2.7108402302340617e-01
         - -2.3088930532319760e-01
         - -5.0133857371753902e-02
         - 6.1942903928134485e-01
         - -1.0344310910211624e-01
         - 2.6895874296370016e-02
         - -7.5780770690248370e-02
         - 1.4851657324781126e-01
         - -6.2215992760204308e-01
         - 2.4565474936181713e+00
         - 1.8062086259056800e-01
         - 3.8650350922378696e-01
         - -1.6091440725973161e-01
         - -1.4597101866333026e-01
         - 4.8778216398408758e-01
         - -8.5329425763926514e-01
         - -2.7550278718568039e-01
         - 2.3494839460013459e-01
         - -5.9273329615830450e-01
         - 4.7602908120212895e-02
         - -3.1361981584242782e-01
         - -2.7019895216522249e-01
         - 1.6773605203440911e-01
         - -5.9233480762556068e-01
         - 3.2014552572435445e-01
         - 2.8901859227041754e-01
         - 5.6803783207728248e-04
         - 7.5090420250996925e-01
         - -7.2517810256288052e-03
         - 4.9487389346682920e-01
         - 9.9114802911211153e-01
         - 3.2354294940917050e-01
         - 2.7818832312163583e-01
         - -3.9100850422561662e-01
         - 1.5089581993588539e+00
         - 5.2087487640988951e-02
         - 6.3895843736393965e-01
         - 1.3283859110921168e+00
         - 1.4521227388031205e-01
         - 1.8426818495615160e-01
         - 1.4843312355695257e-01
         - 1.4143163188536740e+00
         - -2.0302739893102061e-02
         - -3.4294119495027792e-01
         - -7.5395004615866656e-01
         - -2.4056278611437509e-01
         - 2.0706706926279758e-01
         - 2.1104619807043629e-01
         - -6.4414313299244652e-01
         - 6.3718109634876841e-01
         - -7.6434778243967105e-01
         - -1.0817137738394332e-01
         - -4.1542929046692445e-01
         - 5.3714162166713475e-01
         - 4.7402867827868461e-01
         - 1.0457060872124069e+00
         - 1.8297601799914059e-01
         - -2.9649990257206177e-01
         - 3.8425692178089710e-01
         - 7.7336657530782438e-01
         - -7.1590343492968433e-01
         - -5.9864867330137739e-01
         - 3.8088872340227875e-01
         - 4.6066693917510504e-01
         - -3.9056510427540569e-01
         - 7.6652841771860680e-01
         - 1.6175870615431485e+00
         - -3.3968152430007842e-01
         - -1.9834332940630006e-01
         - -5.6041632233839767e-01
         - 6.4033887554802316e-01
         - 3.8401836498746095e-02
         - -6.7029421891861907e-01
         - 4.8707825852253382e-02
         - 5.0065285012115997e-03
         - -4.0125678015855114e-03
         - 2.9658990091722539e-02
         - 5.9574044031027984e-01
         - -1.0751209265234672e-01
         - -3.0447234337893475e-01
         - -2.8817991808019650e-01
         - 1.0553206878924895e-01
         - -7.9557627496239047e-01
         - 3.2765415816662241e-01
         - 3.3989443801858493e-01
         - 3.3791758350183020e-02
         - 2.6203162960777959e-01
         - 1.7814705250196952e+00
         - 1.7396272285391708e-02
         - 1.9031150562583585e-01
         - 7.3206127087769390e-01
         - 1.3089808970575816e+00
         - -9.3540404343118000e-02
         - 2.2864298173349112e-01
         - 4.4614694504832311e-02
         - -8.0013177432600016e-02
         - 4.0144212100418220e-01
         - -4.5600929182161958e-02
         - -3.5774381711461856e-01
         - 4.7173907004571983e-02
         - 1.8883780175324152e-01
         - 8.1776899904734213e-01
         - -9.5306525222442984e-02
         - 2.8473670455407885e-01
         - -1.2658402741794983e-01
         - 9.4146788004054560e-01
         - 8.7598155825330343e-02
         - 1.7812141152518654e-01
         - -1.8378131299812966e-01
         - -1.2486529802309486e-01
         - 5.5753952796252594e-02
         - -3.9598339673618962e-02
         - 3.9051563694608417e-02
         - -3.2246694886003296e-01
         - -6.7820878926441797e-01
         - -1.3901328811963190e-01
         - -4.9671876130566789e-01
         - 1.4139849042570254e+00
         - -1.2450299101542130e+00
         - -4.6596204694510457e-01
         - 7.2153268213502053e-01
         - 1.3909877690575926e-02
         - 9.7806434777340912e-01
         - 7.7981286182523424e-02
         - 1.1769645795074582e-01
         - 1.4963283205001221e-01
         - -2.3081973270040876e-01
         - 3.3602584483049136e-01
         - 4.5363900974665444e-02
         - 5.0358626342461277e-01
         - 3.1801799030272881e-01
         - 1.7374449719453666e-01
         - 2.3569097319188181e-01
         - -1.6211047376297183e-01
         - 4.8278323785039856e-01
         - -1.5613227941785632e-01
         - -1.0464675765184208e+00
         - 1.5822806946614258e+00
         - -9.5102684484179960e-03
         - 2.2233968749052216e-01
         - 1.7122313830361854e-01
         - -6.3325465016883231e-01
         - -2.3838113809030612e-01
         - -1.3636457939242708e-01
         - -9.1599094839104200e-01
         - 1.1017331126820673e-01
         - -1.5234490645529472e-01
         - -6.8539616768658676e-02
         - 1.5680542715514525e-01
         - -1.6066628341781250e-01
         - -7.0859606860492461e-02
         - 9.4829684512299939e-01
         - 4.0346387143348628e-01
         - 1.6203788054792775e-01
         - -1.1116389628627749e-01
         - 2.7727259563255138e+00
         - -1.2543909202382533e-01
         - -2.0255374978126559e-01
         - 3.3428063794973645e-01
         - -2.2847862007486852e-01
         - 2.2311894338885255e-02
         - -3.0885238857937081e-01
         - -4.8704012388897586e-02
         - 3.1781349190950486e-01
         - -7.6205254745767081e-01
         - 2.4370137342459927e-01
         - -1.0515894855629884e-01
         - -1.1683555230231042e-01
         - -8.9542245386700425e-01
         - 1.0986531193601394e+00
         - -4.7322978137521826e-01
         - -2.1413605185366688e-01
         - 3.1540998053951780e-01
         - 1.3547911530290394e-01
         - 2.7698540311118308e-01
         - 2.2049257256881638e-01
         - -1.6378908598568345e-01
         - 1.3840185683596986e+00
         - -3.2687495436157808e-02
         - 3.6893316625876271e-01
         - 7.5590102549979735e-02
         - 3.3427467253758519e-01
         - -2.9274769900855563e-01
         - 6.3477458765228562e-02
         - 3.8566195241333612e-01
         - 3.4232305207713548e-01
         - 3.3636366212689184e-01
         - 1.9602441512398554e+00
         - 3.3740854126316666e-01
         - -5.2998221520518555e-03
         - 4.0800861312462944e-01
         - 8.9755626432791880e-01
         - -3.8090406004614258e-01
         - 1.8309472573125745e-02
         - 3.3018797066866251e-01
         - 3.0619067253247001e-01
         - -4.6919662905180343e-01
         - 2.3068258335784672e-01
         - 4.1523203357592958e-01
         - 2.5806793094993602e-01
         - 1.1801221508467168e-01
         - -1.3434355253194781e-02
         - 1.3538473763477465e+00
         - 4.6141925698989694e-01
         - 1.3945010877132419e-01
         - -5.2566001758377268e-01
         - -1.5096743965407983e-01
         - -1.5084662172951849e-01
         - 1.2072969153421996e-01
         - -7.7047546156549041e-03
         - -6.8204352091669918e-02
         - -2.7022240096864369e-01
         - -2.0360859704552281e-01
         - 7.0773737033207496e-02
         - 6.0781677292509197e-02
         - 6.4087672321120448e-02
         - 7.1512641287395029e-01
         - -3.4167692265089623e-02
         - 9.3738835540811849e-01
         - 4.2514117260670958e-01
         - 8.9407586399110950e-01
         - 1.4582535916551753e-01
         - -8.5638703374511016e-01
         - -8.7170502549318990e-02
         - -4.9442945931084920e-02
         - -1.7151206776441613e-01
         - 2.5800820275274784e-02
         - 6.2478564920108814e-01
         - 3.2715308121517367e-01
         - -1.6742288462361457e-01
         - 9.1300426558312497e-02
         - 5.7166101323418483e-02
         - -2.9572289038073657e-01
         - 6.1604065965514689e-02
         - 1.4717253165739768e+00
         - 1.1124294421476404e-01
         - 1.9090718335827435e+00
         - 5.3058133630297999e-01
         - -3.1055329119394178e-02
         - -5.3765329681634988e-01
         - 3.5598458859565552e-01
         - 2.4497636993200375e-01
         - 1.3880562578696272e+00
         - 9.6201684846805569e-04
         - -5.2410111309548327e-02
         - 2.4905031603192668e-01
         - 7.6261796035156726e-01
         - -4.4052007348417944e-02
         - -7.4950508195915688e-01
         - -1.0637776140115843e-01
         - -1.5123702805765998e-01
         - 3.8809369365329915e-01
         - -7.0214655881432653e-01
         - 2.0835875425164369e-01
         - -1.2134894674981911e-01
         - 8.1411468422467881e-01
         - -1.4180989480754158e-01
         - -9.9636687297275053e-02
         - -2.5419465435281129e-02
         - -3.6599607990530503e+00
         - 4.3343650972887518e-02
         - -8.1138515201962524e-02
         - -9.3781256240888455e-02
         - -1.0848016139845690e-01
         - -6.0124985261560659e-01
         - 6.3173955432222498e-02
         - 8.8090023983840304e-01
         - 1.5086597229144114e+00
         - 1.7270338624788648e-02
         - -2.5699959100815062e+00
         - 8.5348573246428183e-01
         - 3.5252378756684621e-01
         - -5.8455692699078014e-02
         - -4.5417271158832845e-01
         - 1.1870265018419827e-01
         - 1.8981510651695938e-01
         - -1.6808498742015748e-01
         - 1.1588418325174447e-01
         - -7.0547184301175458e-02
         - 3.8989729773433979e-01
         - 4.6649325649603884e-01
         - 1.0859379031656781e-01
         - 6.7340992059483951e-01
         - -2.7563246736844677e-01
         - 1.8352373100434780e+00
         - 2.3726795296101860e-01
         - -1.1957857216766172e+00
         - 1.2033735525318980e+00
         - -7.6068919662161893e-02
         - -1.9288153171064565e-01
         - 7.3391794798409316e-01
         - -1.6090968845505793e+00
         - -3.0563356119209689e-01
         - -2.4885488698933381e-01
         - -7.4793715955780193e-01
         - 1.7099048563894387e-01
         - 3.4444668673347684e-01
         - -2.7846835615492432e-01
         - -4.0586217556047098e-02
         - -5.9290009431064816e-01
         - -3.4136369613104139e-01
         - 1.3618231905932039e+00
         - -8.9371309093481643e-01
         - 1.4332936919933520e-01
         - -2.7297716916223719e-01
         - 5.0643908407869409e-01
         - -2.5390697748607099e-01
         - 1.9947513025002989e-02
         - 9.6752197503448781e-02
         - -1.0068522595347782e+00
         - 1.4399865044644036e-01
         - -3.0092063273557662e-01
         - -1.3054269539610128e-01
         - 3.7453160646922473e-01
         - -9.8874869826533329e-01
         - 1.4710311178070225e-02
         - 3.0005517593922182e-01
         - 6.7746364101298273e-01
         - -1.2632967362632344e-01
         - 5.9893274703485955e-01
         - -8.7102908184696383e-03
         - 6.4320579713888870e-01
         - -2.6639186103494121e+00
         - -4.5105900398821086e-01
         - 2.8530276791922360e-01
         - 1.9463741538591056e-01
         - -1.4567952073208520e-01
         - 1.6855881585763649e-01
         - -2.2113018407709939e-01
         - 2.5394528031924346e-01
         - 1.7539843785185549e-01
         - 4.2046481407678166e-01
         - 9.7951640693077513e-01
         - -9.6620530929256904e-02
         - 1.6781741201516089e+00
         - 5.9341340114512942e-01
         - -5.9134068226338610e-01
         - 1.3404521304774650e+00
         - -7.6707024113453470e-01
         - 3.8764487953554035e-02
         - 8.2144140178477121e-01
         - -1.0029366449870962e+00
         - -9.4964260447158555e-01
         - -1.2141787876096216e-01
         - 2.1118962635131092e-01
         - -1.1726477146459935e-01
         - -9.2637093184103209e-02
         - -6.6432167968085176e-01
         - 4.2728359281490219e-01
         - -7.4097280239309915e-01
         - -2.2515281877417054e-01
         - -2.9063043910008735e-01
         - 5.9600292347977291e-01
         - 6.5249175673978099e-01
         - -1.9441057308060186e-01
         - -3.0445489274924977e+00
         - -2.9027448837628933e-01
         - -4.9489076136366728e-01
         - 2.9133813332752367e-01
         - 3.4471685042553215e+00
         - 2.8450843770038253e-01
         - -3.1446725731242536e-01
         - -3.6656449233807914e-01
         - 1.4549885189824144e-01
         - 4.8707421794124427e-02
         - 3.0916008776905368e-01
         - 9.9080884597274266e-02
         - -3.9323736014868926e-01
         - 9.1838418124387500e-01
         - 1.3304403113820580e+00
         - -4.0249520774114955e-01
         - -3.6166758790163861e-01
         - 1.1704946274117363e+00
         - 1.5921838579076766e-01
         - -1.9796512077234682e-01
         - 2.6735828113645488e-01
         - -3.2854352694917921e-01
         - -5.7517977630882067e-01
         - -8.5789917034823049e-01
         - 1.4199503530288382e-01
         - -2.5920751299011358e-01
         - -2.4228331704516395e-01
         - -9.0544223764395271e-01
         - -5.1131376624804936e-02
         - -2.4959573345932244e+00
         - -1.5164951903777169e-01
         - 2.2981619334910675e+00
         - -9.7297103541724839e-01
         - 6.2737099967191734e-01
         - 9.5936054141447857e-01
         - -2.7270562015329131e-01
         - 2.1028189451258266e+00
         - 2.0472164248245552e+00
         - 2.7810135199205815e-02
         - -6.3899477751584532e-01
         - -2.2814247722656078e-01
         - 2.4356687122441234e-01
         - 3.7512524977393830e-01
         - -7.7341800871058741e-01
         - 7.4525921134824535e-02
         - 1.8136612696045037e-01
         - -1.9455398063236098e-01
         - -5.2588096706523768e-01
         - -5.1605948491876041e-01
         - -2.5100610145303864e-01
         - 1.5772075733569635e+00
         - -2.2927000911305714e-01
         - 8.7596173476770223e-01
         - -2.9752142641845497e-01
         - -3.7170827401470583e+00
         - 1.3747625264261240e-01
         - 1.9731435084412055e-01
         - -2.1685346216584966e-01
         - 1.3908149313707310e-01
         - 3.0994410893768859e-01
         - -5.2411683437149192e-01
         - 6.1277952445161044e-01
         - 1.6977452285481816e+00
         - -1.7237607568652208e-01
         - -2.1058953201342789e+00
         - -9.0233858466845263e-01
         - -4.8305996997623912e-01
         - -4.2982788344309469e-01
         - 5.2052743347198276e-02
         - -1.8685893541282592e-01
         - 3.1581752436967692e-01
         - -1.3354370057215614e-01
         - -1.0877090310546975e+00
         - -4.9801436471713334e-01
         - 4.3981686898464661e-01
         - 2.1109430703171206e-01
         - -1.4933514406337292e-01
         - 8.4031861496808324e-01
         - -2.4447313282907773e-01
         - -1.3613599521708963e+00
         - 2.4896215380094615e-02
         - -1.8998942226033882e-01
         - 8.1922104953629760e-01
         - 3.6552353189116754e-01
         - 6.0527391101133954e-01
         - -1.2024148912484033e-01
         - -7.3653220082007553e-01
         - 5.0398001927091873e-01
         - -1.1968665857122827e-01
         - -1.0987365186304341e+00
         - 1.7810978106345068e-01
         - -1.9928690019084733e-01
         - 2.7046298882094127e-01
         - -6.4922538951195291e-02
         - 1.2104765711242735e-01
         - -1.5585710736867561e-01
         - 3.2403671380507132e-01
         - -4.7919331945522886e-01
         - -1.9219999885964978e-01
         - -1.6154248636240008e-02
         - -7.5636236676549964e-02
         - -1.3091849651976342e-01
         - 8.0205504087966606e-01
         - -1.8408893306462062e-01
         - 1.0054717025387654e+00
         - -3.5737593067309992e-01
         - 8.1819938083790344e-02
         - 9.4380006299394970e-02
         - 3.4810940311422067e-01
         - 1.8528966867872257e-01
         - -3.4613517550278633e-01
         - 3.5913579060304723e-01
         - 1.1637644278070900e+00
         - -1.2493768892190299e-01
         - -1.2108289339057314e+00
         - -7.1156840747254546e-01
         - 3.5638827496736408e-01
         - -2.8927472987569414e+00
         - -1.4307574157305419e-01
         - 2.1056463455759886e-01
         - 6.1158761736368361e-01
         - -2.8890168911492931e-01
         - -1.1948120052367424e+00
         - -1.3634383802638244e+00
         - 6.3088235109769109e-01
         - -2.6275600503969709e-02
         - 2.1467471330676097e-01
         - 1.5876812806113350e+00
         - -3.0051344878661329e-01
         - -4.0165693041521511e+00
         - 1.0167447237086444e-02
         - -8.9986579465651650e-01
         - 2.0242008508251037e+00
         - -2.2516751749199343e-02
         - 1.7100318947712447e+00
         - 8.0531151613793539e-01
         - -5.4972332541859659e-01
         - -1.9626408963593185e+00
         - -1.4373700631011369e-01
         - -3.2078857280349243e-01
         - -1.0284813421035341e+00
         - -5.2714722046100296e-02
         - -1.7524200870862777e-01
         - 5.1572273648512956e-01
         - -8.3816427425775020e-01
         - 8.0560739496364047e-05
         - 2.7957293544431794e-01
         - -4.1443569230159411e-01
         - -6.9164880707615992e-02
         - -2.2368383755843496e-01
         - -1.7777173229608032e+00
         - -3.2361144500146122e-01
         - 4.4493888572148627e-01
         - -8.8446790693867003e-02
         - 2.8503173166166027e+00
         - 1.7145003685478688e-01
         - -8.1104690591226158e-02
         - -3.3350308166201592e-01
         - 3.6794565558750364e-01
         - -1.0466116813952846e-01
         - -3.2751803036039440e-01
         - 9.1561934208786611e-01
         - -4.4071607191106443e-01
         - 3.9989216378324038e-01
         - -1.1136655455085225e+00
         - -3.9876291351521048e-01
         - -1.2941823503922423e-01
         - 2.5121391822266775e-01
         - 8.4671114616152499e-01
         - -8.2108204659412065e-01
         - -6.9689354413805504e-01
         - -1.2502612568653854e-01
         - -3.7321229389522487e-01
         - 1.2172160388243405e+00
         - -7.7084579949344478e-01
         - -7.5768007421511530e-01
         - -6.2696828071007393e-01
         - -1.1113211417357780e+00
         - 3.4505174505617425e-01
         - 2.6867751835408932e-01
         - -6.4479031822513355e-01
         - -9.2341905491034337e-01
         - -3.4871219557712814e+00
         - -4.3055313837694925e-02
         - -5.0912982896326364e-01
         - 3.0288858748348213e-01
         - 1.4610558431456089e+00
         - -5.0008645451787404e-01
         - 3.1508932680096779e-01
         - -6.0495679705871011e-02
         - 9.1394454263916036e-01
         - 2.8590268904623206e-01
         - 5.8136742378538060e-02
         - -6.5348767959794540e-01
         - 5.3830488033702002e-02
         - 5.7811059884756688e-01
         - 1.2391931799483755e-01
         - -4.3757147797351492e-01
         - -7.7407866968559003e-01
         - 4.8597692048491359e-01
         - -1.9663640448104541e-01
         - 1.1126514611309504e-01
